FANN_FLO_2.1
num_layers=2
learning_rate=0.700000
connection_rate=1.000000
network_type=1
learning_momentum=0.000000
training_algorithm=2
train_error_function=1
train_stop_function=0
cascade_output_change_fraction=0.010000
quickprop_decay=-0.000100
quickprop_mu=1.750000
rprop_increase_factor=1.200000
rprop_decrease_factor=0.500000
rprop_delta_min=0.000000
rprop_delta_max=50.000000
rprop_delta_zero=0.100000
cascade_output_stagnation_epochs=12
cascade_candidate_change_fraction=0.010000
cascade_candidate_stagnation_epochs=12
cascade_max_out_epochs=150
cascade_max_cand_epochs=150
cascade_num_candidate_groups=2
bit_fail_limit=3.49999994039535522461e-01
cascade_candidate_limit=1.00000000000000000000e+03
cascade_weight_multiplier=4.00000005960464477539e-01
cascade_activation_functions_count=10
cascade_activation_functions=3 5 7 8 10 11 14 15 16 17 
cascade_activation_steepnesses_count=4
cascade_activation_steepnesses=2.50000000000000000000e-01 5.00000000000000000000e-01 7.50000000000000000000e-01 1.00000000000000000000e+00 
layer_sizes=101 1 
scale_included=0
neurons (num_inputs, activation_function, activation_steepness)=(0, 0, 0.00000000000000000000e+00) (0, 0, 0.00000000000000000000e+00) (0, 0, 0.00000000000000000000e+00) (0, 0, 0.00000000000000000000e+00) (0, 0, 0.00000000000000000000e+00) (0, 0, 0.00000000000000000000e+00) (0, 0, 0.00000000000000000000e+00) (0, 0, 0.00000000000000000000e+00) (0, 0, 0.00000000000000000000e+00) (0, 0, 0.00000000000000000000e+00) (0, 0, 0.00000000000000000000e+00) (0, 0, 0.00000000000000000000e+00) (0, 0, 0.00000000000000000000e+00) (0, 0, 0.00000000000000000000e+00) (0, 0, 0.00000000000000000000e+00) (0, 0, 0.00000000000000000000e+00) (0, 0, 0.00000000000000000000e+00) (0, 0, 0.00000000000000000000e+00) (0, 0, 0.00000000000000000000e+00) (0, 0, 0.00000000000000000000e+00) (0, 0, 0.00000000000000000000e+00) (0, 0, 0.00000000000000000000e+00) (0, 0, 0.00000000000000000000e+00) (0, 0, 0.00000000000000000000e+00) (0, 0, 0.00000000000000000000e+00) (0, 0, 0.00000000000000000000e+00) (0, 0, 0.00000000000000000000e+00) (0, 0, 0.00000000000000000000e+00) (0, 0, 0.00000000000000000000e+00) (0, 0, 0.00000000000000000000e+00) (0, 0, 0.00000000000000000000e+00) (0, 0, 0.00000000000000000000e+00) (0, 0, 0.00000000000000000000e+00) (0, 0, 0.00000000000000000000e+00) (0, 0, 0.00000000000000000000e+00) (0, 0, 0.00000000000000000000e+00) (0, 0, 0.00000000000000000000e+00) (0, 0, 0.00000000000000000000e+00) (0, 0, 0.00000000000000000000e+00) (0, 0, 0.00000000000000000000e+00) (0, 0, 0.00000000000000000000e+00) (0, 0, 0.00000000000000000000e+00) (0, 0, 0.00000000000000000000e+00) (0, 0, 0.00000000000000000000e+00) (0, 0, 0.00000000000000000000e+00) (0, 0, 0.00000000000000000000e+00) (0, 0, 0.00000000000000000000e+00) (0, 0, 0.00000000000000000000e+00) (0, 0, 0.00000000000000000000e+00) (0, 0, 0.00000000000000000000e+00) (0, 0, 0.00000000000000000000e+00) (0, 0, 0.00000000000000000000e+00) (0, 0, 0.00000000000000000000e+00) (0, 0, 0.00000000000000000000e+00) (0, 0, 0.00000000000000000000e+00) (0, 0, 0.00000000000000000000e+00) (0, 0, 0.00000000000000000000e+00) (0, 0, 0.00000000000000000000e+00) (0, 0, 0.00000000000000000000e+00) (0, 0, 0.00000000000000000000e+00) (0, 0, 0.00000000000000000000e+00) (0, 0, 0.00000000000000000000e+00) (0, 0, 0.00000000000000000000e+00) (0, 0, 0.00000000000000000000e+00) (0, 0, 0.00000000000000000000e+00) (0, 0, 0.00000000000000000000e+00) (0, 0, 0.00000000000000000000e+00) (0, 0, 0.00000000000000000000e+00) (0, 0, 0.00000000000000000000e+00) (0, 0, 0.00000000000000000000e+00) (0, 0, 0.00000000000000000000e+00) (0, 0, 0.00000000000000000000e+00) (0, 0, 0.00000000000000000000e+00) (0, 0, 0.00000000000000000000e+00) (0, 0, 0.00000000000000000000e+00) (0, 0, 0.00000000000000000000e+00) (0, 0, 0.00000000000000000000e+00) (0, 0, 0.00000000000000000000e+00) (0, 0, 0.00000000000000000000e+00) (0, 0, 0.00000000000000000000e+00) (0, 0, 0.00000000000000000000e+00) (0, 0, 0.00000000000000000000e+00) (0, 0, 0.00000000000000000000e+00) (0, 0, 0.00000000000000000000e+00) (0, 0, 0.00000000000000000000e+00) (0, 0, 0.00000000000000000000e+00) (0, 0, 0.00000000000000000000e+00) (0, 0, 0.00000000000000000000e+00) (0, 0, 0.00000000000000000000e+00) (0, 0, 0.00000000000000000000e+00) (0, 0, 0.00000000000000000000e+00) (0, 0, 0.00000000000000000000e+00) (0, 0, 0.00000000000000000000e+00) (0, 0, 0.00000000000000000000e+00) (0, 0, 0.00000000000000000000e+00) (0, 0, 0.00000000000000000000e+00) (0, 0, 0.00000000000000000000e+00) (0, 0, 0.00000000000000000000e+00) (0, 0, 0.00000000000000000000e+00) (0, 0, 0.00000000000000000000e+00) (0, 0, 0.00000000000000000000e+00) (101, 2, 5.00000000000000000000e-01) 
connections (connected_to_neuron, weight)=(0, -9.07178819179534912109e-02) (1, -8.41808095574378967285e-02) (2, 4.96200695633888244629e-02) (3, 2.44886055588722229004e-02) (4, 7.31826797127723693848e-02) (5, -5.43827377259731292725e-02) (6, -2.26852893829345703125e-02) (7, 7.52708986401557922363e-02) (8, 4.77575138211250305176e-02) (9, -9.61454957723617553711e-02) (10, -1.37886330485343933105e-02) (11, -9.29585099220275878906e-03) (12, 4.26105335354804992676e-02) (13, -3.58317270874977111816e-02) (14, 8.79328325390815734863e-02) (15, 8.05939361453056335449e-02) (16, -7.07705765962600708008e-02) (17, -4.84242253005504608154e-02) (18, 9.57440063357353210449e-02) (19, 2.97683998942375183105e-02) (20, -1.94017365574836730957e-02) (21, 1.74488872289657592773e-03) (22, -3.90265770256519317627e-02) (23, -6.02279268205165863037e-02) (24, -5.32497838139533996582e-02) (25, 9.27276909351348876953e-03) (26, 2.42776274681091308594e-02) (27, 2.63016596436500549316e-02) (28, 2.13263481855392456055e-02) (29, 8.25465545058250427246e-02) (30, -6.24622367322444915771e-02) (31, 3.06084826588630676270e-02) (32, 9.83657464385032653809e-02) (33, 8.71578231453895568848e-02) (34, -4.49029207229614257812e-02) (35, 7.15484246611595153809e-02) (36, -6.72249048948287963867e-02) (37, 3.24117913842201232910e-02) (38, 4.68193218111991882324e-02) (39, 8.05326029658317565918e-02) (40, 3.62662896513938903809e-02) (41, -6.69693201780319213867e-02) (42, -2.87632495164871215820e-02) (43, -2.11231708526611328125e-02) (44, -2.80104577541351318359e-03) (45, -4.08304221928119659424e-02) (46, -4.05292399227619171143e-02) (47, 2.64283791184425354004e-02) (48, 1.07453465461730957031e-02) (49, -4.47852313518524169922e-02) (50, -4.38032262027263641357e-02) (51, 9.13436189293861389160e-02) (52, 5.69596514105796813965e-02) (53, 1.71701908111572265625e-02) (54, -6.88843056559562683105e-02) (55, -9.62901338934898376465e-02) (56, -7.35570341348648071289e-02) (57, 5.53933158516883850098e-02) (58, 3.00115421414375305176e-02) (59, 4.77693155407905578613e-02) (60, 3.79398688673973083496e-02) (61, 6.75492957234382629395e-02) (62, -2.16221958398818969727e-02) (63, 3.63056138157844543457e-02) (64, 5.47071173787117004395e-02) (65, 3.34748700261116027832e-02) (66, 7.85404443740844726562e-03) (67, 8.74822214245796203613e-02) (68, -3.41133326292037963867e-02) (69, -4.53266464173793792725e-02) (70, 6.80148229002952575684e-02) (71, -9.78470444679260253906e-02) (72, -1.22959613800048828125e-02) (73, -6.07484318315982818604e-02) (74, -1.89702063798904418945e-02) (75, 8.49029943346977233887e-02) (76, -1.57885253429412841797e-03) (77, 4.05005440115928649902e-02) (78, 1.13313794136047363281e-02) (79, -9.08335000276565551758e-02) (80, 9.57153216004371643066e-02) (81, 6.75281509757041931152e-02) (82, -9.94898825883865356445e-02) (83, 5.26749715209007263184e-02) (84, -1.53016597032546997070e-02) (85, -6.83741867542266845703e-02) (86, 5.63848391175270080566e-02) (87, 1.11413151025772094727e-02) (88, 8.70191231369972229004e-02) (89, -1.36036276817321777344e-02) (90, -4.10893671214580535889e-02) (91, 2.49589905142784118652e-02) (92, -4.60543297231197357178e-02) (93, 3.72884348034858703613e-02) (94, -3.87353971600532531738e-02) (95, -9.13472026586532592773e-02) (96, -2.92366892099380493164e-02) (97, 6.91186413168907165527e-02) (98, 9.61350277066230773926e-02) (99, 3.66499796509742736816e-02) (100, -7.62079954147338867188e-02) 
