FANN_FLO_2.1
num_layers=2
learning_rate=0.700000
connection_rate=1.000000
network_type=1
learning_momentum=0.000000
training_algorithm=2
train_error_function=1
train_stop_function=0
cascade_output_change_fraction=0.010000
quickprop_decay=-0.000100
quickprop_mu=1.750000
rprop_increase_factor=1.200000
rprop_decrease_factor=0.500000
rprop_delta_min=0.000000
rprop_delta_max=50.000000
rprop_delta_zero=0.100000
cascade_output_stagnation_epochs=12
cascade_candidate_change_fraction=0.010000
cascade_candidate_stagnation_epochs=12
cascade_max_out_epochs=150
cascade_max_cand_epochs=150
cascade_num_candidate_groups=2
bit_fail_limit=3.49999994039535522461e-01
cascade_candidate_limit=1.00000000000000000000e+03
cascade_weight_multiplier=4.00000005960464477539e-01
cascade_activation_functions_count=10
cascade_activation_functions=3 5 7 8 10 11 14 15 16 17 
cascade_activation_steepnesses_count=4
cascade_activation_steepnesses=2.50000000000000000000e-01 5.00000000000000000000e-01 7.50000000000000000000e-01 1.00000000000000000000e+00 
layer_sizes=101 1 
scale_included=0
neurons (num_inputs, activation_function, activation_steepness)=(0, 0, 0.00000000000000000000e+00) (0, 0, 0.00000000000000000000e+00) (0, 0, 0.00000000000000000000e+00) (0, 0, 0.00000000000000000000e+00) (0, 0, 0.00000000000000000000e+00) (0, 0, 0.00000000000000000000e+00) (0, 0, 0.00000000000000000000e+00) (0, 0, 0.00000000000000000000e+00) (0, 0, 0.00000000000000000000e+00) (0, 0, 0.00000000000000000000e+00) (0, 0, 0.00000000000000000000e+00) (0, 0, 0.00000000000000000000e+00) (0, 0, 0.00000000000000000000e+00) (0, 0, 0.00000000000000000000e+00) (0, 0, 0.00000000000000000000e+00) (0, 0, 0.00000000000000000000e+00) (0, 0, 0.00000000000000000000e+00) (0, 0, 0.00000000000000000000e+00) (0, 0, 0.00000000000000000000e+00) (0, 0, 0.00000000000000000000e+00) (0, 0, 0.00000000000000000000e+00) (0, 0, 0.00000000000000000000e+00) (0, 0, 0.00000000000000000000e+00) (0, 0, 0.00000000000000000000e+00) (0, 0, 0.00000000000000000000e+00) (0, 0, 0.00000000000000000000e+00) (0, 0, 0.00000000000000000000e+00) (0, 0, 0.00000000000000000000e+00) (0, 0, 0.00000000000000000000e+00) (0, 0, 0.00000000000000000000e+00) (0, 0, 0.00000000000000000000e+00) (0, 0, 0.00000000000000000000e+00) (0, 0, 0.00000000000000000000e+00) (0, 0, 0.00000000000000000000e+00) (0, 0, 0.00000000000000000000e+00) (0, 0, 0.00000000000000000000e+00) (0, 0, 0.00000000000000000000e+00) (0, 0, 0.00000000000000000000e+00) (0, 0, 0.00000000000000000000e+00) (0, 0, 0.00000000000000000000e+00) (0, 0, 0.00000000000000000000e+00) (0, 0, 0.00000000000000000000e+00) (0, 0, 0.00000000000000000000e+00) (0, 0, 0.00000000000000000000e+00) (0, 0, 0.00000000000000000000e+00) (0, 0, 0.00000000000000000000e+00) (0, 0, 0.00000000000000000000e+00) (0, 0, 0.00000000000000000000e+00) (0, 0, 0.00000000000000000000e+00) (0, 0, 0.00000000000000000000e+00) (0, 0, 0.00000000000000000000e+00) (0, 0, 0.00000000000000000000e+00) (0, 0, 0.00000000000000000000e+00) (0, 0, 0.00000000000000000000e+00) (0, 0, 0.00000000000000000000e+00) (0, 0, 0.00000000000000000000e+00) (0, 0, 0.00000000000000000000e+00) (0, 0, 0.00000000000000000000e+00) (0, 0, 0.00000000000000000000e+00) (0, 0, 0.00000000000000000000e+00) (0, 0, 0.00000000000000000000e+00) (0, 0, 0.00000000000000000000e+00) (0, 0, 0.00000000000000000000e+00) (0, 0, 0.00000000000000000000e+00) (0, 0, 0.00000000000000000000e+00) (0, 0, 0.00000000000000000000e+00) (0, 0, 0.00000000000000000000e+00) (0, 0, 0.00000000000000000000e+00) (0, 0, 0.00000000000000000000e+00) (0, 0, 0.00000000000000000000e+00) (0, 0, 0.00000000000000000000e+00) (0, 0, 0.00000000000000000000e+00) (0, 0, 0.00000000000000000000e+00) (0, 0, 0.00000000000000000000e+00) (0, 0, 0.00000000000000000000e+00) (0, 0, 0.00000000000000000000e+00) (0, 0, 0.00000000000000000000e+00) (0, 0, 0.00000000000000000000e+00) (0, 0, 0.00000000000000000000e+00) (0, 0, 0.00000000000000000000e+00) (0, 0, 0.00000000000000000000e+00) (0, 0, 0.00000000000000000000e+00) (0, 0, 0.00000000000000000000e+00) (0, 0, 0.00000000000000000000e+00) (0, 0, 0.00000000000000000000e+00) (0, 0, 0.00000000000000000000e+00) (0, 0, 0.00000000000000000000e+00) (0, 0, 0.00000000000000000000e+00) (0, 0, 0.00000000000000000000e+00) (0, 0, 0.00000000000000000000e+00) (0, 0, 0.00000000000000000000e+00) (0, 0, 0.00000000000000000000e+00) (0, 0, 0.00000000000000000000e+00) (0, 0, 0.00000000000000000000e+00) (0, 0, 0.00000000000000000000e+00) (0, 0, 0.00000000000000000000e+00) (0, 0, 0.00000000000000000000e+00) (0, 0, 0.00000000000000000000e+00) (0, 0, 0.00000000000000000000e+00) (0, 0, 0.00000000000000000000e+00) (0, 0, 0.00000000000000000000e+00) (101, 3, 5.00000000000000000000e-01) 
connections (connected_to_neuron, weight)=(0, 1.81801989674568176270e-01) (1, 1.52215719223022460938e-01) (2, 1.63628384470939636230e-01) (3, 2.77157295495271682739e-02) (4, 2.56028532981872558594e-01) (5, 3.17639112472534179688e-01) (6, -5.85811771452426910400e-03) (7, -3.28515708446502685547e-01) (8, -1.69692665338516235352e-01) (9, -1.40338297933340072632e-02) (10, 6.40721395611763000488e-02) (11, -2.59362440556287765503e-02) (12, 1.59000065177679061890e-02) (13, 5.62632977962493896484e-02) (14, 1.11335448920726776123e-01) (15, 2.08342134952545166016e-01) (16, 8.30625593662261962891e-02) (17, 7.24176988005638122559e-02) (18, 1.78113728761672973633e-01) (19, 9.66968461871147155762e-02) (20, 1.81797325611114501953e-01) (21, 8.78645628690719604492e-02) (22, 6.15249723196029663086e-02) (23, 2.50141352415084838867e-01) (24, 1.88942044973373413086e-01) (25, 2.50448554754257202148e-01) (26, 8.18118005990982055664e-02) (27, 1.22953228652477264404e-01) (28, 1.44046455621719360352e-01) (29, 1.51775717735290527344e-01) (30, 7.54569023847579956055e-02) (31, 8.58151465654373168945e-02) (32, 1.99421808123588562012e-01) (33, 2.65499383211135864258e-01) (34, 5.92811666429042816162e-02) (35, 1.46962672472000122070e-01) (36, 1.61776602268218994141e-01) (37, 8.14199298620223999023e-02) (38, 5.10260984301567077637e-02) (39, 1.73685789108276367188e-01) (40, 2.51055926084518432617e-01) (41, 9.87680330872535705566e-02) (42, 1.77350819110870361328e-01) (43, 9.65571925044059753418e-02) (44, 6.83036372065544128418e-02) (45, 2.01958581805229187012e-01) (46, 2.18171656131744384766e-01) (47, 9.63645800948143005371e-02) (48, 2.19374686479568481445e-01) (49, 1.41283765435218811035e-01) (50, 1.38059809803962707520e-01) (51, 1.46170392632484436035e-01) (52, 1.74146696925163269043e-01) (53, 1.44583180546760559082e-01) (54, 1.41310110688209533691e-01) (55, 1.08087100088596343994e-01) (56, 1.40030130743980407715e-01) (57, 1.68120309710502624512e-01) (58, 1.76038756966590881348e-01) (59, 2.90749650448560714722e-02) (60, 6.48944005370140075684e-02) (61, 1.67463630437850952148e-01) (62, 3.08581050485372543335e-02) (63, 4.48205247521400451660e-02) (64, 1.24577663838863372803e-01) (65, 3.05374592542648315430e-01) (66, 2.77379363775253295898e-01) (67, 8.33385661244392395020e-02) (68, 1.17400564253330230713e-01) (69, 1.05583019554615020752e-01) (70, 1.63699552416801452637e-01) (71, 1.15451641380786895752e-01) (72, 1.51346251368522644043e-01) (73, 8.80455449223518371582e-02) (74, 2.28054940700531005859e-01) (75, 6.74220696091651916504e-02) (76, 1.37776300311088562012e-01) (77, 2.24947839975357055664e-01) (78, 1.42507910728454589844e-01) (79, 1.35872244834899902344e-01) (80, 1.44952878355979919434e-01) (81, 5.92889934778213500977e-02) (82, -2.38389875739812850952e-02) (83, 1.32179465144872665405e-02) (84, 9.79905351996421813965e-02) (85, 9.61924120783805847168e-02) (86, 1.00026331841945648193e-01) (87, 1.67419221252202987671e-02) (88, 1.41530007123947143555e-01) (89, 1.53282374143600463867e-01) (90, 1.23034171760082244873e-01) (91, 3.82656678557395935059e-02) (92, -1.83823499828577041626e-02) (93, 1.47639419883489608765e-02) (94, 9.08378735184669494629e-02) (95, 1.13947011530399322510e-01) (96, -3.62698361277580261230e-02) (97, 5.43859936296939849854e-02) (98, 2.40620493888854980469e-01) (99, 6.40989243984222412109e-01) (100, -3.90205335617065429688e+00) 
