FANN_FLO_2.1
num_layers=2
learning_rate=0.700000
connection_rate=1.000000
network_type=1
learning_momentum=0.000000
training_algorithm=2
train_error_function=1
train_stop_function=0
cascade_output_change_fraction=0.010000
quickprop_decay=-0.000100
quickprop_mu=1.750000
rprop_increase_factor=1.200000
rprop_decrease_factor=0.500000
rprop_delta_min=0.000000
rprop_delta_max=50.000000
rprop_delta_zero=0.100000
cascade_output_stagnation_epochs=12
cascade_candidate_change_fraction=0.010000
cascade_candidate_stagnation_epochs=12
cascade_max_out_epochs=150
cascade_max_cand_epochs=150
cascade_num_candidate_groups=2
bit_fail_limit=3.49999994039535522461e-01
cascade_candidate_limit=1.00000000000000000000e+03
cascade_weight_multiplier=4.00000005960464477539e-01
cascade_activation_functions_count=10
cascade_activation_functions=3 5 7 8 10 11 14 15 16 17 
cascade_activation_steepnesses_count=4
cascade_activation_steepnesses=2.50000000000000000000e-01 5.00000000000000000000e-01 7.50000000000000000000e-01 1.00000000000000000000e+00 
layer_sizes=101 1 
scale_included=0
neurons (num_inputs, activation_function, activation_steepness)=(0, 0, 0.00000000000000000000e+00) (0, 0, 0.00000000000000000000e+00) (0, 0, 0.00000000000000000000e+00) (0, 0, 0.00000000000000000000e+00) (0, 0, 0.00000000000000000000e+00) (0, 0, 0.00000000000000000000e+00) (0, 0, 0.00000000000000000000e+00) (0, 0, 0.00000000000000000000e+00) (0, 0, 0.00000000000000000000e+00) (0, 0, 0.00000000000000000000e+00) (0, 0, 0.00000000000000000000e+00) (0, 0, 0.00000000000000000000e+00) (0, 0, 0.00000000000000000000e+00) (0, 0, 0.00000000000000000000e+00) (0, 0, 0.00000000000000000000e+00) (0, 0, 0.00000000000000000000e+00) (0, 0, 0.00000000000000000000e+00) (0, 0, 0.00000000000000000000e+00) (0, 0, 0.00000000000000000000e+00) (0, 0, 0.00000000000000000000e+00) (0, 0, 0.00000000000000000000e+00) (0, 0, 0.00000000000000000000e+00) (0, 0, 0.00000000000000000000e+00) (0, 0, 0.00000000000000000000e+00) (0, 0, 0.00000000000000000000e+00) (0, 0, 0.00000000000000000000e+00) (0, 0, 0.00000000000000000000e+00) (0, 0, 0.00000000000000000000e+00) (0, 0, 0.00000000000000000000e+00) (0, 0, 0.00000000000000000000e+00) (0, 0, 0.00000000000000000000e+00) (0, 0, 0.00000000000000000000e+00) (0, 0, 0.00000000000000000000e+00) (0, 0, 0.00000000000000000000e+00) (0, 0, 0.00000000000000000000e+00) (0, 0, 0.00000000000000000000e+00) (0, 0, 0.00000000000000000000e+00) (0, 0, 0.00000000000000000000e+00) (0, 0, 0.00000000000000000000e+00) (0, 0, 0.00000000000000000000e+00) (0, 0, 0.00000000000000000000e+00) (0, 0, 0.00000000000000000000e+00) (0, 0, 0.00000000000000000000e+00) (0, 0, 0.00000000000000000000e+00) (0, 0, 0.00000000000000000000e+00) (0, 0, 0.00000000000000000000e+00) (0, 0, 0.00000000000000000000e+00) (0, 0, 0.00000000000000000000e+00) (0, 0, 0.00000000000000000000e+00) (0, 0, 0.00000000000000000000e+00) (0, 0, 0.00000000000000000000e+00) (0, 0, 0.00000000000000000000e+00) (0, 0, 0.00000000000000000000e+00) (0, 0, 0.00000000000000000000e+00) (0, 0, 0.00000000000000000000e+00) (0, 0, 0.00000000000000000000e+00) (0, 0, 0.00000000000000000000e+00) (0, 0, 0.00000000000000000000e+00) (0, 0, 0.00000000000000000000e+00) (0, 0, 0.00000000000000000000e+00) (0, 0, 0.00000000000000000000e+00) (0, 0, 0.00000000000000000000e+00) (0, 0, 0.00000000000000000000e+00) (0, 0, 0.00000000000000000000e+00) (0, 0, 0.00000000000000000000e+00) (0, 0, 0.00000000000000000000e+00) (0, 0, 0.00000000000000000000e+00) (0, 0, 0.00000000000000000000e+00) (0, 0, 0.00000000000000000000e+00) (0, 0, 0.00000000000000000000e+00) (0, 0, 0.00000000000000000000e+00) (0, 0, 0.00000000000000000000e+00) (0, 0, 0.00000000000000000000e+00) (0, 0, 0.00000000000000000000e+00) (0, 0, 0.00000000000000000000e+00) (0, 0, 0.00000000000000000000e+00) (0, 0, 0.00000000000000000000e+00) (0, 0, 0.00000000000000000000e+00) (0, 0, 0.00000000000000000000e+00) (0, 0, 0.00000000000000000000e+00) (0, 0, 0.00000000000000000000e+00) (0, 0, 0.00000000000000000000e+00) (0, 0, 0.00000000000000000000e+00) (0, 0, 0.00000000000000000000e+00) (0, 0, 0.00000000000000000000e+00) (0, 0, 0.00000000000000000000e+00) (0, 0, 0.00000000000000000000e+00) (0, 0, 0.00000000000000000000e+00) (0, 0, 0.00000000000000000000e+00) (0, 0, 0.00000000000000000000e+00) (0, 0, 0.00000000000000000000e+00) (0, 0, 0.00000000000000000000e+00) (0, 0, 0.00000000000000000000e+00) (0, 0, 0.00000000000000000000e+00) (0, 0, 0.00000000000000000000e+00) (0, 0, 0.00000000000000000000e+00) (0, 0, 0.00000000000000000000e+00) (0, 0, 0.00000000000000000000e+00) (0, 0, 0.00000000000000000000e+00) (0, 0, 0.00000000000000000000e+00) (0, 0, 0.00000000000000000000e+00) (101, 3, 5.00000000000000000000e-01) 
connections (connected_to_neuron, weight)=(0, 4.17686924338340759277e-02) (1, 1.21824145317077636719e-02) (2, 3.66587713360786437988e-02) (3, -2.04570740461349487305e-02) (4, 6.01382553577423095703e-03) (5, 6.76244571805000305176e-02) (6, -2.78728380799293518066e-02) (7, -6.28805458545684814453e-02) (8, 9.59424749016761779785e-02) (9, -8.44325423240661621094e-02) (10, -6.32657110691070556641e-03) (11, -9.63349565863609313965e-02) (12, -5.44986985623836517334e-02) (13, -9.87383127212524414062e-02) (14, -4.36661727726459503174e-02) (15, 5.33405318856239318848e-02) (16, -7.19390586018562316895e-02) (17, -8.25839117169380187988e-02) (18, 2.31121182441711425781e-02) (19, -5.83047717809677124023e-02) (20, 2.67957225441932678223e-02) (21, -6.71370550990104675293e-02) (22, -9.34766381978988647461e-02) (23, 9.51397344470024108887e-02) (24, 3.39404270052909851074e-02) (25, 9.54469516873359680176e-02) (26, -7.31898173689842224121e-02) (27, -3.20483893156051635742e-02) (28, -1.09551548957824707031e-02) (29, -3.22590023279190063477e-03) (30, -7.95447155833244323730e-02) (31, -6.91864639520645141602e-02) (32, -9.10434871912002563477e-02) (33, 5.71140572428703308105e-02) (34, 1.03564634919166564941e-02) (35, 1.49703398346900939941e-02) (36, 2.47385054826736450195e-02) (37, 8.24836269021034240723e-02) (38, 5.20897880196571350098e-02) (39, 2.06809788942337036133e-02) (40, 9.80510786175727844238e-02) (41, -5.42367808520793914795e-02) (42, 2.43460163474082946777e-02) (43, -5.64476177096366882324e-02) (44, -5.29750920832157135010e-02) (45, 8.06798413395881652832e-02) (46, 9.68929156661033630371e-02) (47, -2.49141529202461242676e-02) (48, 9.80959460139274597168e-02) (49, 2.00050249695777893066e-02) (50, 1.67810767889022827148e-02) (51, 2.48916596174240112305e-02) (52, 5.28679713606834411621e-02) (53, 2.33044400811195373535e-02) (54, 2.00313925743103027344e-02) (55, -1.31916031241416931152e-02) (56, 1.87513977289199829102e-02) (57, 4.68415692448616027832e-02) (58, 5.47600165009498596191e-02) (59, -9.22037661075592041016e-02) (60, -5.63843213021755218506e-02) (61, 7.52152875065803527832e-02) (62, -6.13902285695075988770e-02) (63, -4.74278032779693603516e-02) (64, 3.23293432593345642090e-02) (65, 4.89662364125251770020e-02) (66, 6.75425454974174499512e-02) (67, -4.29321490228176116943e-02) (68, 3.14498618245124816895e-02) (69, 1.96323245763778686523e-02) (70, 7.77488276362419128418e-02) (71, 2.95009389519691467285e-02) (72, 6.53955414891242980957e-02) (73, 2.09484249353408813477e-03) (74, 7.30533227324485778809e-02) (75, -8.75795409083366394043e-02) (76, -1.72253102064132690430e-02) (77, 6.99462369084358215332e-02) (78, -1.24936923384666442871e-02) (79, -1.91293656826019287109e-02) (80, -1.00487321615219116211e-02) (81, -9.57126170396804809570e-02) (82, -9.42377001047134399414e-02) (83, -5.71807660162448883057e-02) (84, 2.75918319821357727051e-02) (85, 2.57936939597129821777e-02) (86, 2.96276286244392395020e-02) (87, -5.36567829549312591553e-02) (88, -2.73647308349609375000e-02) (89, -1.56123563647270202637e-02) (90, -4.58605475723743438721e-02) (91, 1.62509530782699584961e-02) (92, -4.03970591723918914795e-02) (93, -7.25077092647552490234e-03) (94, 6.88231512904167175293e-02) (95, 9.19322893023490905762e-02) (96, -5.82845471799373626709e-02) (97, 3.63656952977180480957e-02) (98, -5.09998612105846405029e-02) (99, 7.31653049588203430176e-02) (100, -4.40019853413105010986e-02) 
