FANN_FLO_2.1
num_layers=2
learning_rate=0.700000
connection_rate=1.000000
network_type=1
learning_momentum=0.000000
training_algorithm=2
train_error_function=1
train_stop_function=0
cascade_output_change_fraction=0.010000
quickprop_decay=-0.000100
quickprop_mu=1.750000
rprop_increase_factor=1.200000
rprop_decrease_factor=0.500000
rprop_delta_min=0.000000
rprop_delta_max=50.000000
rprop_delta_zero=0.100000
cascade_output_stagnation_epochs=12
cascade_candidate_change_fraction=0.010000
cascade_candidate_stagnation_epochs=12
cascade_max_out_epochs=150
cascade_max_cand_epochs=150
cascade_num_candidate_groups=2
bit_fail_limit=3.49999994039535522461e-01
cascade_candidate_limit=1.00000000000000000000e+03
cascade_weight_multiplier=4.00000005960464477539e-01
cascade_activation_functions_count=10
cascade_activation_functions=3 5 7 8 10 11 14 15 16 17 
cascade_activation_steepnesses_count=4
cascade_activation_steepnesses=2.50000000000000000000e-01 5.00000000000000000000e-01 7.50000000000000000000e-01 1.00000000000000000000e+00 
layer_sizes=101 1 
scale_included=0
neurons (num_inputs, activation_function, activation_steepness)=(0, 0, 0.00000000000000000000e+00) (0, 0, 0.00000000000000000000e+00) (0, 0, 0.00000000000000000000e+00) (0, 0, 0.00000000000000000000e+00) (0, 0, 0.00000000000000000000e+00) (0, 0, 0.00000000000000000000e+00) (0, 0, 0.00000000000000000000e+00) (0, 0, 0.00000000000000000000e+00) (0, 0, 0.00000000000000000000e+00) (0, 0, 0.00000000000000000000e+00) (0, 0, 0.00000000000000000000e+00) (0, 0, 0.00000000000000000000e+00) (0, 0, 0.00000000000000000000e+00) (0, 0, 0.00000000000000000000e+00) (0, 0, 0.00000000000000000000e+00) (0, 0, 0.00000000000000000000e+00) (0, 0, 0.00000000000000000000e+00) (0, 0, 0.00000000000000000000e+00) (0, 0, 0.00000000000000000000e+00) (0, 0, 0.00000000000000000000e+00) (0, 0, 0.00000000000000000000e+00) (0, 0, 0.00000000000000000000e+00) (0, 0, 0.00000000000000000000e+00) (0, 0, 0.00000000000000000000e+00) (0, 0, 0.00000000000000000000e+00) (0, 0, 0.00000000000000000000e+00) (0, 0, 0.00000000000000000000e+00) (0, 0, 0.00000000000000000000e+00) (0, 0, 0.00000000000000000000e+00) (0, 0, 0.00000000000000000000e+00) (0, 0, 0.00000000000000000000e+00) (0, 0, 0.00000000000000000000e+00) (0, 0, 0.00000000000000000000e+00) (0, 0, 0.00000000000000000000e+00) (0, 0, 0.00000000000000000000e+00) (0, 0, 0.00000000000000000000e+00) (0, 0, 0.00000000000000000000e+00) (0, 0, 0.00000000000000000000e+00) (0, 0, 0.00000000000000000000e+00) (0, 0, 0.00000000000000000000e+00) (0, 0, 0.00000000000000000000e+00) (0, 0, 0.00000000000000000000e+00) (0, 0, 0.00000000000000000000e+00) (0, 0, 0.00000000000000000000e+00) (0, 0, 0.00000000000000000000e+00) (0, 0, 0.00000000000000000000e+00) (0, 0, 0.00000000000000000000e+00) (0, 0, 0.00000000000000000000e+00) (0, 0, 0.00000000000000000000e+00) (0, 0, 0.00000000000000000000e+00) (0, 0, 0.00000000000000000000e+00) (0, 0, 0.00000000000000000000e+00) (0, 0, 0.00000000000000000000e+00) (0, 0, 0.00000000000000000000e+00) (0, 0, 0.00000000000000000000e+00) (0, 0, 0.00000000000000000000e+00) (0, 0, 0.00000000000000000000e+00) (0, 0, 0.00000000000000000000e+00) (0, 0, 0.00000000000000000000e+00) (0, 0, 0.00000000000000000000e+00) (0, 0, 0.00000000000000000000e+00) (0, 0, 0.00000000000000000000e+00) (0, 0, 0.00000000000000000000e+00) (0, 0, 0.00000000000000000000e+00) (0, 0, 0.00000000000000000000e+00) (0, 0, 0.00000000000000000000e+00) (0, 0, 0.00000000000000000000e+00) (0, 0, 0.00000000000000000000e+00) (0, 0, 0.00000000000000000000e+00) (0, 0, 0.00000000000000000000e+00) (0, 0, 0.00000000000000000000e+00) (0, 0, 0.00000000000000000000e+00) (0, 0, 0.00000000000000000000e+00) (0, 0, 0.00000000000000000000e+00) (0, 0, 0.00000000000000000000e+00) (0, 0, 0.00000000000000000000e+00) (0, 0, 0.00000000000000000000e+00) (0, 0, 0.00000000000000000000e+00) (0, 0, 0.00000000000000000000e+00) (0, 0, 0.00000000000000000000e+00) (0, 0, 0.00000000000000000000e+00) (0, 0, 0.00000000000000000000e+00) (0, 0, 0.00000000000000000000e+00) (0, 0, 0.00000000000000000000e+00) (0, 0, 0.00000000000000000000e+00) (0, 0, 0.00000000000000000000e+00) (0, 0, 0.00000000000000000000e+00) (0, 0, 0.00000000000000000000e+00) (0, 0, 0.00000000000000000000e+00) (0, 0, 0.00000000000000000000e+00) (0, 0, 0.00000000000000000000e+00) (0, 0, 0.00000000000000000000e+00) (0, 0, 0.00000000000000000000e+00) (0, 0, 0.00000000000000000000e+00) (0, 0, 0.00000000000000000000e+00) (0, 0, 0.00000000000000000000e+00) (0, 0, 0.00000000000000000000e+00) (0, 0, 0.00000000000000000000e+00) (0, 0, 0.00000000000000000000e+00) (0, 0, 0.00000000000000000000e+00) (0, 0, 0.00000000000000000000e+00) (101, 2, 5.00000000000000000000e-01) 
connections (connected_to_neuron, weight)=(0, 1.73282131552696228027e-01) (1, 1.79819196462631225586e-01) (2, 3.13620090484619140625e-01) (3, 2.88488626480102539062e-01) (4, 3.37182700634002685547e-01) (5, 2.09617272019386291504e-01) (6, 2.41314724087715148926e-01) (7, 3.39270889759063720703e-01) (8, 3.11757504940032958984e-01) (9, 1.67854517698287963867e-01) (10, 2.50211387872695922852e-01) (11, 2.54704177379608154297e-01) (12, 3.06610524654388427734e-01) (13, 2.28168278932571411133e-01) (14, 3.51932823657989501953e-01) (15, 3.44593942165374755859e-01) (16, 1.93229436874389648438e-01) (17, 2.15575784444808959961e-01) (18, 3.59744012355804443359e-01) (19, 2.93768405914306640625e-01) (20, 2.44598269462585449219e-01) (21, 2.65744894742965698242e-01) (22, 2.24973440170288085938e-01) (23, 2.03772082924842834473e-01) (24, 2.10750222206115722656e-01) (25, 2.73272782564163208008e-01) (26, 2.88277626037597656250e-01) (27, 2.90301680564880371094e-01) (28, 2.85326361656188964844e-01) (29, 3.46546590328216552734e-01) (30, 2.01537773013114929199e-01) (31, 2.94608473777770996094e-01) (32, 3.62365782260894775391e-01) (33, 3.51157844066619873047e-01) (34, 2.19097092747688293457e-01) (35, 3.35548460483551025391e-01) (36, 1.96775108575820922852e-01) (37, 2.96411812305450439453e-01) (38, 3.10819327831268310547e-01) (39, 3.44532608985900878906e-01) (40, 3.00266325473785400391e-01) (41, 1.97030693292617797852e-01) (42, 2.35236763954162597656e-01) (43, 2.42876842617988586426e-01) (44, 2.61198967695236206055e-01) (45, 2.23169595003128051758e-01) (46, 2.23470777273178100586e-01) (47, 2.90428400039672851562e-01) (48, 2.74745345115661621094e-01) (49, 2.19214782118797302246e-01) (50, 2.20196783542633056641e-01) (51, 3.55343639850616455078e-01) (52, 3.20959687232971191406e-01) (53, 2.81170189380645751953e-01) (54, 1.95115715265274047852e-01) (55, 1.67709887027740478516e-01) (56, 1.90442979335784912109e-01) (57, 3.19393336772918701172e-01) (58, 2.94011533260345458984e-01) (59, 3.11769306659698486328e-01) (60, 3.01939904689788818359e-01) (61, 3.31549286842346191406e-01) (62, 2.42377817630767822266e-01) (63, 3.00305604934692382812e-01) (64, 3.18707108497619628906e-01) (65, 2.97474861145019531250e-01) (66, 2.71854043006896972656e-01) (67, 3.51482212543487548828e-01) (68, 2.29886680841445922852e-01) (69, 2.18673363327980041504e-01) (70, 3.32014858722686767578e-01) (71, 1.66152969002723693848e-01) (72, 2.51704037189483642578e-01) (73, 2.03251585364341735840e-01) (74, 2.45029807090759277344e-01) (75, 3.48903000354766845703e-01) (76, 2.62421160936355590820e-01) (77, 3.04500579833984375000e-01) (78, 2.75331377983093261719e-01) (79, 1.73166513442993164062e-01) (80, 3.59715342521667480469e-01) (81, 3.31528186798095703125e-01) (82, 1.64510130882263183594e-01) (83, 3.16675007343292236328e-01) (84, 2.48698353767395019531e-01) (85, 1.95625826716423034668e-01) (86, 3.20384860038757324219e-01) (87, 2.75141328573226928711e-01) (88, 3.51019144058227539062e-01) (89, 2.50396370887756347656e-01) (90, 2.22910642623901367188e-01) (91, 2.88959026336669921875e-01) (92, 2.17945680022239685059e-01) (93, 3.01288425922393798828e-01) (94, 2.25264608860015869141e-01) (95, 1.72652810811996459961e-01) (96, 2.34763324260711669922e-01) (97, 3.33118677139282226562e-01) (98, 3.60135018825531005859e-01) (99, 3.00650000572204589844e-01) (100, 1.87792018055915832520e-01) 
