FANN_FLO_2.1
num_layers=3
learning_rate=0.700000
connection_rate=1.000000
network_type=1
learning_momentum=0.000000
training_algorithm=2
train_error_function=1
train_stop_function=0
cascade_output_change_fraction=0.010000
quickprop_decay=-0.000100
quickprop_mu=1.750000
rprop_increase_factor=1.200000
rprop_decrease_factor=0.500000
rprop_delta_min=0.000000
rprop_delta_max=50.000000
rprop_delta_zero=0.100000
cascade_output_stagnation_epochs=12
cascade_candidate_change_fraction=0.010000
cascade_candidate_stagnation_epochs=12
cascade_max_out_epochs=150
cascade_max_cand_epochs=150
cascade_num_candidate_groups=2
bit_fail_limit=3.49999994039535522461e-01
cascade_candidate_limit=1.00000000000000000000e+03
cascade_weight_multiplier=4.00000005960464477539e-01
cascade_activation_functions_count=10
cascade_activation_functions=3 5 7 8 10 11 14 15 16 17 
cascade_activation_steepnesses_count=4
cascade_activation_steepnesses=2.50000000000000000000e-01 5.00000000000000000000e-01 7.50000000000000000000e-01 1.00000000000000000000e+00 
layer_sizes=11 9 8 
scale_included=0
neurons (num_inputs, activation_function, activation_steepness)=(0, 0, 0.00000000000000000000e+00) (0, 0, 0.00000000000000000000e+00) (0, 0, 0.00000000000000000000e+00) (0, 0, 0.00000000000000000000e+00) (0, 0, 0.00000000000000000000e+00) (0, 0, 0.00000000000000000000e+00) (0, 0, 0.00000000000000000000e+00) (0, 0, 0.00000000000000000000e+00) (0, 0, 0.00000000000000000000e+00) (0, 0, 0.00000000000000000000e+00) (0, 0, 0.00000000000000000000e+00) (11, 0, 5.00000000000000000000e-01) (11, 0, 5.00000000000000000000e-01) (11, 0, 5.00000000000000000000e-01) (11, 0, 5.00000000000000000000e-01) (11, 0, 5.00000000000000000000e-01) (11, 0, 5.00000000000000000000e-01) (11, 0, 5.00000000000000000000e-01) (11, 0, 5.00000000000000000000e-01) (11, 0, 5.00000000000000000000e-01) (20, 1, 5.00000000000000000000e-01) (20, 1, 5.00000000000000000000e-01) (20, 1, 5.00000000000000000000e-01) (20, 1, 5.00000000000000000000e-01) (20, 1, 5.00000000000000000000e-01) (20, 1, 5.00000000000000000000e-01) (20, 1, 5.00000000000000000000e-01) (20, 1, 5.00000000000000000000e-01) 
connections (connected_to_neuron, weight)=(0, -1.74475684762001037598e-02) (1, 2.18637362122535705566e-02) (2, -1.40773132443428039551e-02) (3, -8.13305675983428955078e-02) (4, -7.43205845355987548828e-03) (5, 3.39188650250434875488e-02) (6, -6.21644370257854461670e-02) (7, -2.06961631774902343750e-02) (8, -4.51990365982055664062e-02) (9, -6.22916892170906066895e-02) (10, -1.07186287641525268555e-02) (0, 5.26877120137214660645e-02) (1, 4.15160283446311950684e-02) (2, -2.62413918972015380859e-03) (3, -3.98448407649993896484e-02) (4, -3.63448411226272583008e-02) (5, 1.79917588829994201660e-02) (6, -3.99225912988185882568e-02) (7, -9.33363959193229675293e-02) (8, 3.98297682404518127441e-02) (9, -9.18367207050323486328e-02) (10, 4.97940555214881896973e-02) (0, 4.06872853636741638184e-02) (1, -6.39218464493751525879e-02) (2, -5.96557371318340301514e-02) (3, 3.42838689684867858887e-02) (4, 7.13258758187294006348e-02) (5, -3.46400216221809387207e-02) (6, -7.61560425162315368652e-02) (7, 5.52700832486152648926e-02) (8, 4.56386283040046691895e-02) (9, 6.39639049768447875977e-03) (10, -2.28661745786666870117e-02) (0, -6.84386938810348510742e-02) (1, 2.50658169388771057129e-02) (2, 6.97017833590507507324e-02) (3, 6.54801800847053527832e-02) (4, 6.29013851284980773926e-02) (5, -5.09943887591361999512e-02) (6, -7.97188729047775268555e-02) (7, -9.93903055787086486816e-02) (8, 3.82869914174079895020e-02) (9, 7.29688480496406555176e-02) (10, 4.21257242560386657715e-02) (0, -6.43371492624282836914e-02) (1, -6.68760091066360473633e-02) (2, -9.42191183567047119141e-02) (3, 5.36546036601066589355e-02) (4, -6.79859519004821777344e-03) (5, -8.75555127859115600586e-02) (6, -6.51562958955764770508e-03) (7, 1.36468559503555297852e-03) (8, 6.22385367751121520996e-02) (9, -6.58283382654190063477e-02) (10, 3.74428406357765197754e-02) (0, -9.74171981215476989746e-02) (1, 6.84555247426033020020e-02) (2, 8.76871496438980102539e-03) (3, -3.20572182536125183105e-02) (4, 9.22994837164878845215e-02) (5, -3.59611958265304565430e-02) (6, -8.64185988903045654297e-02) (7, -1.30413472652435302734e-03) (8, 4.11726310849189758301e-02) (9, -5.48572875559329986572e-02) (10, -7.62383118271827697754e-02) (0, 1.08744129538536071777e-02) (1, -8.93771201372146606445e-02) (2, 8.66630747914314270020e-02) (3, 5.98800256848335266113e-02) (4, -6.90959915518760681152e-02) (5, 8.72727707028388977051e-02) (6, -1.83299183845520019531e-03) (7, -9.61271524429321289062e-02) (8, 2.93985083699226379395e-02) (9, 3.38298603892326354980e-02) (10, -6.30031600594520568848e-02) (0, 3.51793840527534484863e-02) (1, -1.25155448913574218750e-02) (2, 3.01982387900352478027e-02) (3, 4.76238802075386047363e-02) (4, 8.09688344597816467285e-02) (5, -6.84370696544647216797e-02) (6, 9.86240804195404052734e-03) (7, -8.48595127463340759277e-02) (8, 6.90057799220085144043e-02) (9, 1.24452263116836547852e-02) (10, 8.35960134863853454590e-02) (0, -2.22255140542984008789e-02) (1, 8.03880020976066589355e-02) (2, 7.58954957127571105957e-02) (3, 4.18132916092872619629e-02) (4, 9.39694121479988098145e-02) (5, -2.54086405038833618164e-02) (6, -1.70140713453292846680e-02) (7, -6.08878843486309051514e-02) (8, -1.64695084095001220703e-03) (9, 9.38603356480598449707e-02) (10, -5.02650029957294464111e-02) (0, -1.49838775396347045898e-02) (1, 5.37403598427772521973e-02) (2, -1.93609967827796936035e-02) (3, -2.77111083269119262695e-02) (4, -4.80926334857940673828e-02) (5, -1.54881477355957031250e-02) (6, -9.83126088976860046387e-02) (7, 8.57372358441352844238e-02) (8, 2.15086936950683593750e-02) (9, 3.68667766451835632324e-02) (10, -2.67783179879188537598e-02) (11, -4.82930615544319152832e-02) (12, -1.55093520879745483398e-02) (13, -4.58094887435436248779e-02) (14, -1.67301297187805175781e-02) (15, 9.43530723452568054199e-02) (16, -3.06689962744712829590e-02) (17, -4.77243624627590179443e-02) (18, 6.79828226566314697266e-03) (19, -4.70729880034923553467e-02) (0, 3.00501212477684020996e-02) (1, -1.28137171268463134766e-02) (2, -7.11774975061416625977e-02) (3, -2.81365886330604553223e-02) (4, -1.88443139195442199707e-02) (5, 3.41385602951049804688e-03) (6, 5.48493340611457824707e-02) (7, 2.02677994966506958008e-02) (8, -9.82330888509750366211e-02) (9, 4.87096831202507019043e-02) (10, 7.00028017163276672363e-02) (11, -1.32169649004936218262e-02) (12, 2.45003402233123779297e-03) (13, -4.93581965565681457520e-02) (14, 5.90719357132911682129e-02) (15, 5.43574020266532897949e-02) (16, 3.51536646485328674316e-02) (17, 6.07593283057212829590e-02) (18, 4.00946214795112609863e-02) (19, -4.33376431465148925781e-02) (0, -2.37389653921127319336e-03) (1, -8.66836979985237121582e-02) (2, 8.36928933858871459961e-03) (3, 8.21167454123497009277e-02) (4, -3.24931889772415161133e-02) (5, 9.16391685605049133301e-02) (6, 7.64698162674903869629e-02) (7, 3.68378236889839172363e-02) (8, -5.60852028429508209229e-02) (9, -1.67319029569625854492e-02) (10, 8.97648259997367858887e-02) (11, 7.39649161696434020996e-02) (12, 7.04543814063072204590e-02) (13, -8.14126729965209960938e-02) (14, -5.41716665029525756836e-02) (15, -4.83899377286434173584e-02) (16, 2.20011919736862182617e-02) (17, -9.93223264813423156738e-02) (18, 7.18778595328330993652e-02) (19, 2.37681046128273010254e-02) (0, 4.93873432278633117676e-02) (1, 4.18806746602058410645e-02) (2, -8.94488617777824401855e-02) (3, -4.81626167893409729004e-02) (4, 9.25224646925926208496e-02) (5, 6.96230605244636535645e-02) (6, -9.38052162528038024902e-02) (7, 2.76761278510093688965e-02) (8, 3.03824022412300109863e-02) (9, 4.62894067168235778809e-02) (10, 8.43384936451911926270e-02) (11, -7.19915032386779785156e-02) (12, 5.96057251095771789551e-02) (13, -7.29222595691680908203e-03) (14, -8.98747593164443969727e-02) (15, -7.28874653577804565430e-02) (16, -1.56530588865280151367e-02) (17, 8.65950658917427062988e-02) (18, 6.39503523707389831543e-02) (19, 2.82617285847663879395e-02) (0, -3.01368460059165954590e-02) (1, 5.37151768803596496582e-02) (2, 2.22665071487426757812e-03) (3, -5.96824735403060913086e-02) (4, 7.23025128245353698730e-02) (5, 4.80550006031990051270e-02) (6, -8.07241350412368774414e-03) (7, -5.69631159305572509766e-03) (8, 4.87326607108116149902e-02) (9, -3.61945480108261108398e-02) (10, -8.19282084703445434570e-02) (11, -1.87999010086059570312e-03) (12, -9.43138822913169860840e-02) (13, -7.13770687580108642578e-02) (14, 4.99574020504951477051e-02) (15, 9.82085838913917541504e-02) (16, 9.82460007071495056152e-02) (17, 5.61521723866462707520e-02) (18, 2.58847102522850036621e-02) (19, 2.86284014582633972168e-02) (0, 2.44159996509552001953e-03) (1, 1.02231949567794799805e-02) (2, 5.66368922591209411621e-02) (3, -3.79526913166046142578e-02) (4, -9.70690324902534484863e-02) (5, 6.67621418833732604980e-02) (6, -1.08401626348495483398e-02) (7, -1.27220898866653442383e-02) (8, 5.33571913838386535645e-02) (9, -4.68898192048072814941e-02) (10, -8.44603627920150756836e-02) (11, -7.67796635627746582031e-02) (12, -9.31746438145637512207e-02) (13, 1.77662968635559082031e-02) (14, -3.64621356129646301270e-02) (15, 7.91278555989265441895e-02) (16, -3.41787189245223999023e-02) (17, 5.54654672741889953613e-02) (18, -2.65684500336647033691e-02) (19, -8.54460522532463073730e-02) (0, -8.07290896773338317871e-02) (1, -8.49665701389312744141e-03) (2, 1.26739591360092163086e-02) (3, -7.50429704785346984863e-02) (4, 2.01262831687927246094e-02) (5, -3.73686403036117553711e-02) (6, -7.68343806266784667969e-02) (7, 1.83722823858261108398e-02) (8, -8.12164619565010070801e-02) (9, 4.90503385663032531738e-02) (10, -5.29993213713169097900e-02) (11, 2.12251320481300354004e-02) (12, -4.07264716923236846924e-02) (13, -9.63624343276023864746e-02) (14, 8.32724347710609436035e-02) (15, -3.77955026924610137939e-02) (16, 7.03997090458869934082e-02) (17, -2.75677293539047241211e-02) (18, 4.94824126362800598145e-02) (19, 2.37568840384483337402e-02) (0, 2.55424454808235168457e-02) (1, 6.50220587849617004395e-02) (2, 4.69772294163703918457e-02) (3, 3.23678180575370788574e-02) (4, -1.72116607427597045898e-02) (5, -8.94849151372909545898e-02) (6, 1.14956721663475036621e-02) (7, 4.86096218228340148926e-02) (8, 6.59805461764335632324e-02) (9, 8.49272236227989196777e-02) (10, 6.31635710597038269043e-02) (11, 8.52514579892158508301e-02) (12, -2.35694348812103271484e-02) (13, -2.41624712944030761719e-02) (14, -8.97915214300155639648e-02) (15, 9.65568497776985168457e-02) (16, 3.84688898921012878418e-02) (17, -6.66259080171585083008e-02) (18, 1.49291306734085083008e-02) (19, 5.72524145245552062988e-02) 
