FANN_FLO_2.1
num_layers=2
learning_rate=0.700000
connection_rate=1.000000
network_type=1
learning_momentum=0.000000
training_algorithm=2
train_error_function=1
train_stop_function=0
cascade_output_change_fraction=0.010000
quickprop_decay=-0.000100
quickprop_mu=1.750000
rprop_increase_factor=1.200000
rprop_decrease_factor=0.500000
rprop_delta_min=0.000000
rprop_delta_max=50.000000
rprop_delta_zero=0.100000
cascade_output_stagnation_epochs=12
cascade_candidate_change_fraction=0.010000
cascade_candidate_stagnation_epochs=12
cascade_max_out_epochs=150
cascade_max_cand_epochs=150
cascade_num_candidate_groups=2
bit_fail_limit=3.49999994039535522461e-01
cascade_candidate_limit=1.00000000000000000000e+03
cascade_weight_multiplier=4.00000005960464477539e-01
cascade_activation_functions_count=10
cascade_activation_functions=3 5 7 8 10 11 14 15 16 17 
cascade_activation_steepnesses_count=4
cascade_activation_steepnesses=2.50000000000000000000e-01 5.00000000000000000000e-01 7.50000000000000000000e-01 1.00000000000000000000e+00 
layer_sizes=101 1 
scale_included=0
neurons (num_inputs, activation_function, activation_steepness)=(0, 0, 0.00000000000000000000e+00) (0, 0, 0.00000000000000000000e+00) (0, 0, 0.00000000000000000000e+00) (0, 0, 0.00000000000000000000e+00) (0, 0, 0.00000000000000000000e+00) (0, 0, 0.00000000000000000000e+00) (0, 0, 0.00000000000000000000e+00) (0, 0, 0.00000000000000000000e+00) (0, 0, 0.00000000000000000000e+00) (0, 0, 0.00000000000000000000e+00) (0, 0, 0.00000000000000000000e+00) (0, 0, 0.00000000000000000000e+00) (0, 0, 0.00000000000000000000e+00) (0, 0, 0.00000000000000000000e+00) (0, 0, 0.00000000000000000000e+00) (0, 0, 0.00000000000000000000e+00) (0, 0, 0.00000000000000000000e+00) (0, 0, 0.00000000000000000000e+00) (0, 0, 0.00000000000000000000e+00) (0, 0, 0.00000000000000000000e+00) (0, 0, 0.00000000000000000000e+00) (0, 0, 0.00000000000000000000e+00) (0, 0, 0.00000000000000000000e+00) (0, 0, 0.00000000000000000000e+00) (0, 0, 0.00000000000000000000e+00) (0, 0, 0.00000000000000000000e+00) (0, 0, 0.00000000000000000000e+00) (0, 0, 0.00000000000000000000e+00) (0, 0, 0.00000000000000000000e+00) (0, 0, 0.00000000000000000000e+00) (0, 0, 0.00000000000000000000e+00) (0, 0, 0.00000000000000000000e+00) (0, 0, 0.00000000000000000000e+00) (0, 0, 0.00000000000000000000e+00) (0, 0, 0.00000000000000000000e+00) (0, 0, 0.00000000000000000000e+00) (0, 0, 0.00000000000000000000e+00) (0, 0, 0.00000000000000000000e+00) (0, 0, 0.00000000000000000000e+00) (0, 0, 0.00000000000000000000e+00) (0, 0, 0.00000000000000000000e+00) (0, 0, 0.00000000000000000000e+00) (0, 0, 0.00000000000000000000e+00) (0, 0, 0.00000000000000000000e+00) (0, 0, 0.00000000000000000000e+00) (0, 0, 0.00000000000000000000e+00) (0, 0, 0.00000000000000000000e+00) (0, 0, 0.00000000000000000000e+00) (0, 0, 0.00000000000000000000e+00) (0, 0, 0.00000000000000000000e+00) (0, 0, 0.00000000000000000000e+00) (0, 0, 0.00000000000000000000e+00) (0, 0, 0.00000000000000000000e+00) (0, 0, 0.00000000000000000000e+00) (0, 0, 0.00000000000000000000e+00) (0, 0, 0.00000000000000000000e+00) (0, 0, 0.00000000000000000000e+00) (0, 0, 0.00000000000000000000e+00) (0, 0, 0.00000000000000000000e+00) (0, 0, 0.00000000000000000000e+00) (0, 0, 0.00000000000000000000e+00) (0, 0, 0.00000000000000000000e+00) (0, 0, 0.00000000000000000000e+00) (0, 0, 0.00000000000000000000e+00) (0, 0, 0.00000000000000000000e+00) (0, 0, 0.00000000000000000000e+00) (0, 0, 0.00000000000000000000e+00) (0, 0, 0.00000000000000000000e+00) (0, 0, 0.00000000000000000000e+00) (0, 0, 0.00000000000000000000e+00) (0, 0, 0.00000000000000000000e+00) (0, 0, 0.00000000000000000000e+00) (0, 0, 0.00000000000000000000e+00) (0, 0, 0.00000000000000000000e+00) (0, 0, 0.00000000000000000000e+00) (0, 0, 0.00000000000000000000e+00) (0, 0, 0.00000000000000000000e+00) (0, 0, 0.00000000000000000000e+00) (0, 0, 0.00000000000000000000e+00) (0, 0, 0.00000000000000000000e+00) (0, 0, 0.00000000000000000000e+00) (0, 0, 0.00000000000000000000e+00) (0, 0, 0.00000000000000000000e+00) (0, 0, 0.00000000000000000000e+00) (0, 0, 0.00000000000000000000e+00) (0, 0, 0.00000000000000000000e+00) (0, 0, 0.00000000000000000000e+00) (0, 0, 0.00000000000000000000e+00) (0, 0, 0.00000000000000000000e+00) (0, 0, 0.00000000000000000000e+00) (0, 0, 0.00000000000000000000e+00) (0, 0, 0.00000000000000000000e+00) (0, 0, 0.00000000000000000000e+00) (0, 0, 0.00000000000000000000e+00) (0, 0, 0.00000000000000000000e+00) (0, 0, 0.00000000000000000000e+00) (0, 0, 0.00000000000000000000e+00) (0, 0, 0.00000000000000000000e+00) (0, 0, 0.00000000000000000000e+00) (0, 0, 0.00000000000000000000e+00) (0, 0, 0.00000000000000000000e+00) (101, 2, 5.00000000000000000000e-01) 
connections (connected_to_neuron, weight)=(0, 1.74547970294952392578e-01) (1, 6.22222684323787689209e-02) (2, 1.30010217428207397461e-01) (3, 6.16144724190235137939e-02) (4, 1.42022207379341125488e-01) (5, 1.60196572542190551758e-01) (6, 6.79340288043022155762e-02) (7, 1.12016618251800537109e-01) (8, 7.27209895849227905273e-02) (9, 3.58552932739257812500e-02) (10, 1.38742655515670776367e-01) (11, 1.32487803697586059570e-01) (12, 1.34251058101654052734e-01) (13, 9.22893583774566650391e-02) (14, 6.08441047370433807373e-02) (15, 1.22533187270164489746e-01) (16, 3.11097875237464904785e-02) (17, 8.27798917889595031738e-02) (18, 1.04082480072975158691e-01) (19, 1.74417674541473388672e-01) (20, 1.19161546230316162109e-01) (21, 2.12035208940505981445e-01) (22, 1.56391888856887817383e-01) (23, 2.11961328983306884766e-01) (24, 8.84912982583045959473e-02) (25, 8.49402546882629394531e-02) (26, 5.40892034769058227539e-02) (27, 1.11931778490543365479e-01) (28, 1.82436972856521606445e-01) (29, 1.66607558727264404297e-01) (30, 2.07561135292053222656e-01) (31, 1.36984929442405700684e-01) (32, 2.08829820156097412109e-01) (33, 1.17571339011192321777e-01) (34, 1.78599387407302856445e-01) (35, 1.30852028727531433105e-01) (36, 5.77679164707660675049e-02) (37, 2.65334248542785644531e-02) (38, 2.28686407208442687988e-02) (39, 1.10488899052143096924e-01) (40, 4.23887148499488830566e-02) (41, 1.41611292958259582520e-01) (42, 2.29766964912414550781e-02) (43, 1.56639754772186279297e-01) (44, 2.13900655508041381836e-01) (45, 6.38207942247390747070e-02) (46, 5.91729469597339630127e-02) (47, 2.50104367733001708984e-02) (48, 1.26600682735443115234e-01) (49, 1.43255427479743957520e-01) (50, 1.79428100585937500000e-01) (51, 2.57622227072715759277e-02) (52, 1.35290637612342834473e-01) (53, 1.15819960832595825195e-01) (54, 2.17723548412322998047e-01) (55, 2.03781932592391967773e-01) (56, 1.80760204792022705078e-01) (57, 5.18127381801605224609e-02) (58, 9.57136899232864379883e-02) (59, 1.43197163939476013184e-01) (60, 1.98420315980911254883e-01) (61, 8.32748264074325561523e-02) (62, 6.01820945739746093750e-02) (63, 1.87250137329101562500e-01) (64, 1.80846154689788818359e-01) (65, 2.18781471252441406250e-01) (66, 9.81021672487258911133e-02) (67, 2.18614071607589721680e-01) (68, 2.53149047493934631348e-02) (69, 1.00970804691314697266e-01) (70, 1.09102971851825714111e-01) (71, 4.77036163210868835449e-02) (72, 2.25820913910865783691e-02) (73, 1.12079665064811706543e-01) (74, 1.84343397617340087891e-01) (75, 2.16482728719711303711e-01) (76, 1.55900478363037109375e-01) (77, 2.35163196921348571777e-02) (78, 2.14931592345237731934e-02) (79, 6.25011473894119262695e-02) (80, 1.46771728992462158203e-01) (81, 1.80921256542205810547e-01) (82, 6.82633668184280395508e-02) (83, 6.20623715221881866455e-02) (84, 7.67412036657333374023e-02) (85, 6.59869164228439331055e-02) (86, 4.58442941308021545410e-02) (87, 3.75014096498489379883e-02) (88, 9.77996513247489929199e-02) (89, 1.21557988226413726807e-01) (90, 1.60698592662811279297e-01) (91, 7.62199610471725463867e-02) (92, 1.84832811355590820312e-01) (93, 2.00880676507949829102e-01) (94, 4.34700846672058105469e-02) (95, 1.45678967237472534180e-01) (96, 1.99662148952484130859e-01) (97, 1.21572241187095642090e-01) (98, 1.44293040037155151367e-01) (99, 2.04977065324783325195e-01) (100, 2.02543050050735473633e-01) 
