FANN_FLO_2.1
num_layers=2
learning_rate=0.700000
connection_rate=1.000000
network_type=1
learning_momentum=0.000000
training_algorithm=2
train_error_function=1
train_stop_function=0
cascade_output_change_fraction=0.010000
quickprop_decay=-0.000100
quickprop_mu=1.750000
rprop_increase_factor=1.200000
rprop_decrease_factor=0.500000
rprop_delta_min=0.000000
rprop_delta_max=50.000000
rprop_delta_zero=0.100000
cascade_output_stagnation_epochs=12
cascade_candidate_change_fraction=0.010000
cascade_candidate_stagnation_epochs=12
cascade_max_out_epochs=150
cascade_max_cand_epochs=150
cascade_num_candidate_groups=2
bit_fail_limit=3.49999994039535522461e-01
cascade_candidate_limit=1.00000000000000000000e+03
cascade_weight_multiplier=4.00000005960464477539e-01
cascade_activation_functions_count=10
cascade_activation_functions=3 5 7 8 10 11 14 15 16 17 
cascade_activation_steepnesses_count=4
cascade_activation_steepnesses=2.50000000000000000000e-01 5.00000000000000000000e-01 7.50000000000000000000e-01 1.00000000000000000000e+00 
layer_sizes=101 1 
scale_included=0
neurons (num_inputs, activation_function, activation_steepness)=(0, 0, 0.00000000000000000000e+00) (0, 0, 0.00000000000000000000e+00) (0, 0, 0.00000000000000000000e+00) (0, 0, 0.00000000000000000000e+00) (0, 0, 0.00000000000000000000e+00) (0, 0, 0.00000000000000000000e+00) (0, 0, 0.00000000000000000000e+00) (0, 0, 0.00000000000000000000e+00) (0, 0, 0.00000000000000000000e+00) (0, 0, 0.00000000000000000000e+00) (0, 0, 0.00000000000000000000e+00) (0, 0, 0.00000000000000000000e+00) (0, 0, 0.00000000000000000000e+00) (0, 0, 0.00000000000000000000e+00) (0, 0, 0.00000000000000000000e+00) (0, 0, 0.00000000000000000000e+00) (0, 0, 0.00000000000000000000e+00) (0, 0, 0.00000000000000000000e+00) (0, 0, 0.00000000000000000000e+00) (0, 0, 0.00000000000000000000e+00) (0, 0, 0.00000000000000000000e+00) (0, 0, 0.00000000000000000000e+00) (0, 0, 0.00000000000000000000e+00) (0, 0, 0.00000000000000000000e+00) (0, 0, 0.00000000000000000000e+00) (0, 0, 0.00000000000000000000e+00) (0, 0, 0.00000000000000000000e+00) (0, 0, 0.00000000000000000000e+00) (0, 0, 0.00000000000000000000e+00) (0, 0, 0.00000000000000000000e+00) (0, 0, 0.00000000000000000000e+00) (0, 0, 0.00000000000000000000e+00) (0, 0, 0.00000000000000000000e+00) (0, 0, 0.00000000000000000000e+00) (0, 0, 0.00000000000000000000e+00) (0, 0, 0.00000000000000000000e+00) (0, 0, 0.00000000000000000000e+00) (0, 0, 0.00000000000000000000e+00) (0, 0, 0.00000000000000000000e+00) (0, 0, 0.00000000000000000000e+00) (0, 0, 0.00000000000000000000e+00) (0, 0, 0.00000000000000000000e+00) (0, 0, 0.00000000000000000000e+00) (0, 0, 0.00000000000000000000e+00) (0, 0, 0.00000000000000000000e+00) (0, 0, 0.00000000000000000000e+00) (0, 0, 0.00000000000000000000e+00) (0, 0, 0.00000000000000000000e+00) (0, 0, 0.00000000000000000000e+00) (0, 0, 0.00000000000000000000e+00) (0, 0, 0.00000000000000000000e+00) (0, 0, 0.00000000000000000000e+00) (0, 0, 0.00000000000000000000e+00) (0, 0, 0.00000000000000000000e+00) (0, 0, 0.00000000000000000000e+00) (0, 0, 0.00000000000000000000e+00) (0, 0, 0.00000000000000000000e+00) (0, 0, 0.00000000000000000000e+00) (0, 0, 0.00000000000000000000e+00) (0, 0, 0.00000000000000000000e+00) (0, 0, 0.00000000000000000000e+00) (0, 0, 0.00000000000000000000e+00) (0, 0, 0.00000000000000000000e+00) (0, 0, 0.00000000000000000000e+00) (0, 0, 0.00000000000000000000e+00) (0, 0, 0.00000000000000000000e+00) (0, 0, 0.00000000000000000000e+00) (0, 0, 0.00000000000000000000e+00) (0, 0, 0.00000000000000000000e+00) (0, 0, 0.00000000000000000000e+00) (0, 0, 0.00000000000000000000e+00) (0, 0, 0.00000000000000000000e+00) (0, 0, 0.00000000000000000000e+00) (0, 0, 0.00000000000000000000e+00) (0, 0, 0.00000000000000000000e+00) (0, 0, 0.00000000000000000000e+00) (0, 0, 0.00000000000000000000e+00) (0, 0, 0.00000000000000000000e+00) (0, 0, 0.00000000000000000000e+00) (0, 0, 0.00000000000000000000e+00) (0, 0, 0.00000000000000000000e+00) (0, 0, 0.00000000000000000000e+00) (0, 0, 0.00000000000000000000e+00) (0, 0, 0.00000000000000000000e+00) (0, 0, 0.00000000000000000000e+00) (0, 0, 0.00000000000000000000e+00) (0, 0, 0.00000000000000000000e+00) (0, 0, 0.00000000000000000000e+00) (0, 0, 0.00000000000000000000e+00) (0, 0, 0.00000000000000000000e+00) (0, 0, 0.00000000000000000000e+00) (0, 0, 0.00000000000000000000e+00) (0, 0, 0.00000000000000000000e+00) (0, 0, 0.00000000000000000000e+00) (0, 0, 0.00000000000000000000e+00) (0, 0, 0.00000000000000000000e+00) (0, 0, 0.00000000000000000000e+00) (0, 0, 0.00000000000000000000e+00) (0, 0, 0.00000000000000000000e+00) (0, 0, 0.00000000000000000000e+00) (0, 0, 0.00000000000000000000e+00) (101, 2, 5.00000000000000000000e-01) 
connections (connected_to_neuron, weight)=(0, 5.45479729771614074707e-02) (1, -5.77777363359928131104e-02) (2, 1.00102052092552185059e-02) (3, -5.83855323493480682373e-02) (4, 2.20222026109695434570e-02) (5, 4.01965752243995666504e-02) (6, -5.20659759640693664551e-02) (7, -7.98338651657104492188e-03) (8, -4.72790189087390899658e-02) (9, -8.41447114944458007812e-02) (10, 1.87426432967185974121e-02) (11, 1.24878063797950744629e-02) (12, 1.42510533332824707031e-02) (13, -2.77106463909149169922e-02) (14, -5.91559000313282012939e-02) (15, 2.53318250179290771484e-03) (16, -8.88902172446250915527e-02) (17, -3.72201129794120788574e-02) (18, -1.59175246953964233398e-02) (19, 5.44176623225212097168e-02) (20, -8.38458538055419921875e-04) (21, 9.20352116227149963379e-02) (22, 3.63918766379356384277e-02) (23, 9.19613316655158996582e-02) (24, -3.15087065100669860840e-02) (25, -3.50597500801086425781e-02) (26, -6.59108012914657592773e-02) (27, -8.06822627782821655273e-03) (28, 6.24369606375694274902e-02) (29, 4.66075614094734191895e-02) (30, 8.75611379742622375488e-02) (31, 1.69849246740341186523e-02) (32, 8.88298228383064270020e-02) (33, -2.42866575717926025391e-03) (34, 5.85993900895118713379e-02) (35, 1.08520239591598510742e-02) (36, -6.22320882976055145264e-02) (37, -9.34665799140930175781e-02) (38, -9.71313640475273132324e-02) (39, -9.51110571622848510742e-03) (40, -7.76112899184226989746e-02) (41, 2.16112881898880004883e-02) (42, -9.70233082771301269531e-02) (43, 3.66397574543952941895e-02) (44, 9.39006432890892028809e-02) (45, -5.61792068183422088623e-02) (46, -6.08270578086376190186e-02) (47, -9.49895679950714111328e-02) (48, 6.60067796707153320312e-03) (49, 2.32554227113723754883e-02) (50, 5.94280883669853210449e-02) (51, -9.42377820611000061035e-02) (52, 1.52906328439712524414e-02) (53, -4.18004393577575683594e-03) (54, 9.77235510945320129395e-02) (55, 8.37819203734397888184e-02) (56, 6.07602074742317199707e-02) (57, -6.81872665882110595703e-02) (58, -2.42863148450851440430e-02) (59, 2.31971591711044311523e-02) (60, 7.84203037619590759277e-02) (61, -3.67251783609390258789e-02) (62, -5.98179101943969726562e-02) (63, 6.72501400113105773926e-02) (64, 6.08461573719978332520e-02) (65, 9.87814739346504211426e-02) (66, -2.18978375196456909180e-02) (67, 9.86140742897987365723e-02) (68, -9.46851000189781188965e-02) (69, -1.90292000770568847656e-02) (70, -1.08970329165458679199e-02) (71, -7.22963884472846984863e-02) (72, -9.74179133772850036621e-02) (73, -7.92033970355987548828e-03) (74, 6.43433853983879089355e-02) (75, 9.64827314019203186035e-02) (76, 3.59004661440849304199e-02) (77, -9.64836850762367248535e-02) (78, -9.85068455338478088379e-02) (79, -5.74988573789596557617e-02) (80, 2.67717316746711730957e-02) (81, 6.09212443232536315918e-02) (82, -5.17366342246532440186e-02) (83, -5.79376332461833953857e-02) (84, -4.32587973773479461670e-02) (85, -5.40130920708179473877e-02) (86, -7.41557106375694274902e-02) (87, -8.24985951185226440430e-02) (88, -2.22003534436225891113e-02) (89, 1.55798345804214477539e-03) (90, 4.06985804438591003418e-02) (91, -4.37800474464893341064e-02) (92, 6.48328140377998352051e-02) (93, 8.08806642889976501465e-02) (94, -7.65299201011657714844e-02) (95, 2.56789699196815490723e-02) (96, 7.96621516346931457520e-02) (97, 1.57223641872406005859e-03) (98, 2.42930427193641662598e-02) (99, 8.49770531058311462402e-02) (100, 8.25430378317832946777e-02) 
