FANN_FLO_2.1
num_layers=2
learning_rate=0.700000
connection_rate=1.000000
network_type=1
learning_momentum=0.000000
training_algorithm=2
train_error_function=1
train_stop_function=0
cascade_output_change_fraction=0.010000
quickprop_decay=-0.000100
quickprop_mu=1.750000
rprop_increase_factor=1.200000
rprop_decrease_factor=0.500000
rprop_delta_min=0.000000
rprop_delta_max=50.000000
rprop_delta_zero=0.100000
cascade_output_stagnation_epochs=12
cascade_candidate_change_fraction=0.010000
cascade_candidate_stagnation_epochs=12
cascade_max_out_epochs=150
cascade_max_cand_epochs=150
cascade_num_candidate_groups=2
bit_fail_limit=3.49999994039535522461e-01
cascade_candidate_limit=1.00000000000000000000e+03
cascade_weight_multiplier=4.00000005960464477539e-01
cascade_activation_functions_count=10
cascade_activation_functions=3 5 7 8 10 11 14 15 16 17 
cascade_activation_steepnesses_count=4
cascade_activation_steepnesses=2.50000000000000000000e-01 5.00000000000000000000e-01 7.50000000000000000000e-01 1.00000000000000000000e+00 
layer_sizes=101 1 
scale_included=0
neurons (num_inputs, activation_function, activation_steepness)=(0, 0, 0.00000000000000000000e+00) (0, 0, 0.00000000000000000000e+00) (0, 0, 0.00000000000000000000e+00) (0, 0, 0.00000000000000000000e+00) (0, 0, 0.00000000000000000000e+00) (0, 0, 0.00000000000000000000e+00) (0, 0, 0.00000000000000000000e+00) (0, 0, 0.00000000000000000000e+00) (0, 0, 0.00000000000000000000e+00) (0, 0, 0.00000000000000000000e+00) (0, 0, 0.00000000000000000000e+00) (0, 0, 0.00000000000000000000e+00) (0, 0, 0.00000000000000000000e+00) (0, 0, 0.00000000000000000000e+00) (0, 0, 0.00000000000000000000e+00) (0, 0, 0.00000000000000000000e+00) (0, 0, 0.00000000000000000000e+00) (0, 0, 0.00000000000000000000e+00) (0, 0, 0.00000000000000000000e+00) (0, 0, 0.00000000000000000000e+00) (0, 0, 0.00000000000000000000e+00) (0, 0, 0.00000000000000000000e+00) (0, 0, 0.00000000000000000000e+00) (0, 0, 0.00000000000000000000e+00) (0, 0, 0.00000000000000000000e+00) (0, 0, 0.00000000000000000000e+00) (0, 0, 0.00000000000000000000e+00) (0, 0, 0.00000000000000000000e+00) (0, 0, 0.00000000000000000000e+00) (0, 0, 0.00000000000000000000e+00) (0, 0, 0.00000000000000000000e+00) (0, 0, 0.00000000000000000000e+00) (0, 0, 0.00000000000000000000e+00) (0, 0, 0.00000000000000000000e+00) (0, 0, 0.00000000000000000000e+00) (0, 0, 0.00000000000000000000e+00) (0, 0, 0.00000000000000000000e+00) (0, 0, 0.00000000000000000000e+00) (0, 0, 0.00000000000000000000e+00) (0, 0, 0.00000000000000000000e+00) (0, 0, 0.00000000000000000000e+00) (0, 0, 0.00000000000000000000e+00) (0, 0, 0.00000000000000000000e+00) (0, 0, 0.00000000000000000000e+00) (0, 0, 0.00000000000000000000e+00) (0, 0, 0.00000000000000000000e+00) (0, 0, 0.00000000000000000000e+00) (0, 0, 0.00000000000000000000e+00) (0, 0, 0.00000000000000000000e+00) (0, 0, 0.00000000000000000000e+00) (0, 0, 0.00000000000000000000e+00) (0, 0, 0.00000000000000000000e+00) (0, 0, 0.00000000000000000000e+00) (0, 0, 0.00000000000000000000e+00) (0, 0, 0.00000000000000000000e+00) (0, 0, 0.00000000000000000000e+00) (0, 0, 0.00000000000000000000e+00) (0, 0, 0.00000000000000000000e+00) (0, 0, 0.00000000000000000000e+00) (0, 0, 0.00000000000000000000e+00) (0, 0, 0.00000000000000000000e+00) (0, 0, 0.00000000000000000000e+00) (0, 0, 0.00000000000000000000e+00) (0, 0, 0.00000000000000000000e+00) (0, 0, 0.00000000000000000000e+00) (0, 0, 0.00000000000000000000e+00) (0, 0, 0.00000000000000000000e+00) (0, 0, 0.00000000000000000000e+00) (0, 0, 0.00000000000000000000e+00) (0, 0, 0.00000000000000000000e+00) (0, 0, 0.00000000000000000000e+00) (0, 0, 0.00000000000000000000e+00) (0, 0, 0.00000000000000000000e+00) (0, 0, 0.00000000000000000000e+00) (0, 0, 0.00000000000000000000e+00) (0, 0, 0.00000000000000000000e+00) (0, 0, 0.00000000000000000000e+00) (0, 0, 0.00000000000000000000e+00) (0, 0, 0.00000000000000000000e+00) (0, 0, 0.00000000000000000000e+00) (0, 0, 0.00000000000000000000e+00) (0, 0, 0.00000000000000000000e+00) (0, 0, 0.00000000000000000000e+00) (0, 0, 0.00000000000000000000e+00) (0, 0, 0.00000000000000000000e+00) (0, 0, 0.00000000000000000000e+00) (0, 0, 0.00000000000000000000e+00) (0, 0, 0.00000000000000000000e+00) (0, 0, 0.00000000000000000000e+00) (0, 0, 0.00000000000000000000e+00) (0, 0, 0.00000000000000000000e+00) (0, 0, 0.00000000000000000000e+00) (0, 0, 0.00000000000000000000e+00) (0, 0, 0.00000000000000000000e+00) (0, 0, 0.00000000000000000000e+00) (0, 0, 0.00000000000000000000e+00) (0, 0, 0.00000000000000000000e+00) (0, 0, 0.00000000000000000000e+00) (0, 0, 0.00000000000000000000e+00) (0, 0, 0.00000000000000000000e+00) (0, 0, 0.00000000000000000000e+00) (101, 2, 5.00000000000000000000e-01) 
connections (connected_to_neuron, weight)=(0, 7.10330903530120849609e-03) (1, 3.32455560564994812012e-02) (2, -7.18991309404373168945e-02) (3, 1.50684118270874023438e-02) (4, 7.97883346676826477051e-02) (5, -4.38364930450916290283e-02) (6, 7.80554860830307006836e-03) (7, 4.50806394219398498535e-02) (8, 4.73413988947868347168e-02) (9, -8.06431919336318969727e-02) (10, 6.22919872403144836426e-02) (11, 7.96392038464546203613e-02) (12, -8.88776928186416625977e-02) (13, -6.62624835968017578125e-02) (14, 8.27355608344078063965e-02) (15, 3.57952341437339782715e-02) (16, -9.84894484281539916992e-03) (17, -6.29872456192970275879e-02) (18, -4.50053811073303222656e-03) (19, 9.60845723748207092285e-02) (20, 3.98063436150550842285e-02) (21, 4.98640909790992736816e-02) (22, -3.80166433751583099365e-02) (23, 8.85820463299751281738e-02) (24, 9.93546620011329650879e-02) (25, 2.68835350871086120605e-02) (26, 2.48437374830245971680e-02) (27, -5.88491000235080718994e-02) (28, -9.89918634295463562012e-02) (29, -3.36754322052001953125e-02) (30, 9.18831899762153625488e-02) (31, 8.11145454645156860352e-03) (32, 9.95701178908348083496e-02) (33, -8.00159424543380737305e-02) (34, -7.68201351165771484375e-02) (35, 7.93584659695625305176e-02) (36, -2.38524302840232849121e-02) (37, 3.09854224324226379395e-02) (38, 2.44390964508056640625e-02) (39, -7.65110403299331665039e-02) (40, 5.03422245383262634277e-02) (41, -1.32689252495765686035e-02) (42, -9.68718305230140686035e-02) (43, 6.14645406603813171387e-02) (44, 2.04685926437377929688e-02) (45, 8.58637318015098571777e-02) (46, -2.74022668600082397461e-03) (47, -8.93803536891937255859e-02) (48, -7.71235078573226928711e-02) (49, 9.27592441439628601074e-02) (50, -9.32957828044891357422e-02) (51, 6.26828297972679138184e-02) (52, 4.26233336329460144043e-02) (53, -3.13124209642410278320e-02) (54, 5.12648895382881164551e-02) (55, 4.19779941439628601074e-02) (56, 9.55711081624031066895e-02) (57, -2.38913819193840026855e-02) (58, 8.31288918852806091309e-02) (59, 9.65792611241340637207e-02) (60, 4.24331799149513244629e-02) (61, 7.50120803713798522949e-02) (62, 4.69070672988891601562e-03) (63, 4.20032963156700134277e-02) (64, 9.49961468577384948730e-02) (65, 2.78705731034278869629e-02) (66, 2.13617533445358276367e-02) (67, -2.88562849164009094238e-02) (68, -4.11440096795558929443e-02) (69, -5.41991405189037322998e-02) (70, -5.36732375621795654297e-03) (71, -9.08017754554748535156e-02) (72, 3.25319394469261169434e-02) (73, -2.23915278911590576172e-03) (74, 7.06627592444419860840e-02) (75, -4.69994656741619110107e-02) (76, -1.63754150271415710449e-02) (77, -3.20774689316749572754e-02) (78, -3.63798290491104125977e-02) (79, 6.50107860565185546875e-03) (80, -3.93182337284088134766e-02) (81, -2.96756029129028320312e-02) (82, -3.08160930871963500977e-02) (83, -9.66949090361595153809e-02) (84, 3.90119776129722595215e-02) (85, -7.95512124896049499512e-02) (86, 4.52830865979194641113e-02) (87, 3.45830991864204406738e-02) (88, -3.44260036945343017578e-03) (89, 2.84119769930839538574e-02) (90, 3.11623439192771911621e-02) (91, -6.10094144940376281738e-02) (92, 3.42406332492828369141e-03) (93, -6.41469508409500122070e-02) (94, 8.09938982129096984863e-02) (95, -1.57979875802993774414e-03) (96, 6.37236312031745910645e-02) (97, 2.35565006732940673828e-03) (98, 6.95639178156852722168e-02) (99, -7.74203911423683166504e-02) (100, 4.81565073132514953613e-02) 
