FANN_FLO_2.1
num_layers=2
learning_rate=0.700000
connection_rate=1.000000
network_type=1
learning_momentum=0.000000
training_algorithm=2
train_error_function=1
train_stop_function=0
cascade_output_change_fraction=0.010000
quickprop_decay=-0.000100
quickprop_mu=1.750000
rprop_increase_factor=1.200000
rprop_decrease_factor=0.500000
rprop_delta_min=0.000000
rprop_delta_max=50.000000
rprop_delta_zero=0.100000
cascade_output_stagnation_epochs=12
cascade_candidate_change_fraction=0.010000
cascade_candidate_stagnation_epochs=12
cascade_max_out_epochs=150
cascade_max_cand_epochs=150
cascade_num_candidate_groups=2
bit_fail_limit=3.49999994039535522461e-01
cascade_candidate_limit=1.00000000000000000000e+03
cascade_weight_multiplier=4.00000005960464477539e-01
cascade_activation_functions_count=10
cascade_activation_functions=3 5 7 8 10 11 14 15 16 17 
cascade_activation_steepnesses_count=4
cascade_activation_steepnesses=2.50000000000000000000e-01 5.00000000000000000000e-01 7.50000000000000000000e-01 1.00000000000000000000e+00 
layer_sizes=11 9 
scale_included=0
neurons (num_inputs, activation_function, activation_steepness)=(0, 0, 0.00000000000000000000e+00) (0, 0, 0.00000000000000000000e+00) (0, 0, 0.00000000000000000000e+00) (0, 0, 0.00000000000000000000e+00) (0, 0, 0.00000000000000000000e+00) (0, 0, 0.00000000000000000000e+00) (0, 0, 0.00000000000000000000e+00) (0, 0, 0.00000000000000000000e+00) (0, 0, 0.00000000000000000000e+00) (0, 0, 0.00000000000000000000e+00) (0, 0, 0.00000000000000000000e+00) (11, 0, 5.00000000000000000000e-01) (11, 0, 5.00000000000000000000e-01) (11, 0, 5.00000000000000000000e-01) (11, 0, 5.00000000000000000000e-01) (11, 0, 5.00000000000000000000e-01) (11, 0, 5.00000000000000000000e-01) (11, 0, 5.00000000000000000000e-01) (11, 0, 5.00000000000000000000e-01) (11, 0, 5.00000000000000000000e-01) 
connections (connected_to_neuron, weight)=(0, -2.80823558568954467773e-03) (1, 6.29142001271247863770e-02) (2, -3.28381881117820739746e-02) (3, 9.03123691678047180176e-02) (4, -3.16212326288223266602e-02) (5, 7.12428987026214599609e-03) (6, 4.50027361512184143066e-02) (7, 3.20026800036430358887e-02) (8, -8.26722905039787292480e-02) (9, -6.53505325317382812500e-03) (10, 1.66068896651268005371e-02) (0, -6.54605999588966369629e-02) (1, 4.44359853863716125488e-02) (2, 6.87690451741218566895e-02) (3, -4.68329675495624542236e-02) (4, 4.20330241322517395020e-02) (5, 7.35606625676155090332e-02) (6, -4.87008504569530487061e-02) (7, -8.05351883172988891602e-03) (8, -5.14803864061832427979e-02) (9, -3.03450971841812133789e-02) (10, -5.95227852463722229004e-02) (0, 2.65210792422294616699e-02) (1, 5.97838833928108215332e-02) (2, 9.31440666317939758301e-02) (3, 7.63457491993904113770e-02) (4, -5.05148097872734069824e-02) (5, 1.23483687639236450195e-02) (6, -3.46734747290611267090e-02) (7, -7.95616284012794494629e-02) (8, 2.90529504418373107910e-02) (9, 6.25182911753654479980e-02) (10, 8.33525732159614562988e-02) (0, 9.62147638201713562012e-02) (1, 5.28306439518928527832e-02) (2, -4.82686534523963928223e-02) (3, 3.33903729915618896484e-03) (4, -2.16661393642425537109e-03) (5, 8.37340429425239562988e-02) (6, 2.06667557358741760254e-02) (7, 9.12983343005180358887e-02) (8, 3.40923666954040527344e-04) (9, 5.52061572670936584473e-02) (10, 3.57343330979347229004e-02) (0, -3.08900177478790283203e-02) (1, -9.16268080472946166992e-02) (2, -2.22326591610908508301e-02) (3, -5.73293492197990417480e-02) (4, -4.03276644647121429443e-02) (5, 6.97138234972953796387e-02) (6, -8.80973041057586669922e-03) (7, 2.93272361159324645996e-02) (8, -8.98089557886123657227e-02) (9, -8.22886601090431213379e-02) (10, -1.08888894319534301758e-02) (0, -9.66648906469345092773e-02) (1, 9.40570905804634094238e-02) (2, 3.85963097214698791504e-02) (3, 1.56834721565246582031e-02) (4, -4.06163930892944335938e-02) (5, 5.90346828103065490723e-02) (6, -5.52635788917541503906e-02) (7, -7.80981108546257019043e-02) (8, 4.23872545361518859863e-02) (9, -5.90488202869892120361e-02) (10, 7.47325494885444641113e-02) (0, 9.41186025738716125488e-02) (1, 4.42902222275733947754e-02) (2, -2.74340659379959106445e-02) (3, 7.78526440262794494629e-02) (4, -3.50430160760879516602e-02) (5, -3.61357331275939941406e-02) (6, -2.18064337968826293945e-02) (7, -7.98368602991104125977e-02) (8, 9.95985940098762512207e-02) (9, 4.73035499453544616699e-02) (10, -7.14636743068695068359e-02) (0, -2.26340666413307189941e-02) (1, 8.99742022156715393066e-02) (2, -1.17913335561752319336e-02) (3, -5.29202409088611602783e-02) (4, -1.88355296850204467773e-02) (5, -8.24640914797782897949e-02) (6, -4.27291989326477050781e-02) (7, -1.12418830394744873047e-03) (8, 6.64701312780380249023e-03) (9, -3.93940880894660949707e-02) (10, -7.06709921360015869141e-03) (0, -5.47566786408424377441e-02) (1, 7.62893781065940856934e-02) (2, 5.23164942860603332520e-02) (3, -9.57220047712326049805e-02) (4, -7.89741948246955871582e-02) (5, 7.42183998227119445801e-02) (6, 4.66652587056159973145e-02) (7, -3.80230136215686798096e-02) (8, 4.89509329199790954590e-02) (9, 4.07838746905326843262e-02) (10, -9.37327891588211059570e-02) 
