FANN_FLO_2.1
num_layers=3
learning_rate=0.700000
connection_rate=1.000000
network_type=1
learning_momentum=0.000000
training_algorithm=2
train_error_function=1
train_stop_function=0
cascade_output_change_fraction=0.010000
quickprop_decay=-0.000100
quickprop_mu=1.750000
rprop_increase_factor=1.200000
rprop_decrease_factor=0.500000
rprop_delta_min=0.000000
rprop_delta_max=50.000000
rprop_delta_zero=0.100000
cascade_output_stagnation_epochs=12
cascade_candidate_change_fraction=0.010000
cascade_candidate_stagnation_epochs=12
cascade_max_out_epochs=150
cascade_max_cand_epochs=150
cascade_num_candidate_groups=2
bit_fail_limit=3.49999994039535522461e-01
cascade_candidate_limit=1.00000000000000000000e+03
cascade_weight_multiplier=4.00000005960464477539e-01
cascade_activation_functions_count=10
cascade_activation_functions=3 5 7 8 10 11 14 15 16 17 
cascade_activation_steepnesses_count=4
cascade_activation_steepnesses=2.50000000000000000000e-01 5.00000000000000000000e-01 7.50000000000000000000e-01 1.00000000000000000000e+00 
layer_sizes=101 50 1 
scale_included=0
neurons (num_inputs, activation_function, activation_steepness)=(0, 0, 0.00000000000000000000e+00) (0, 0, 0.00000000000000000000e+00) (0, 0, 0.00000000000000000000e+00) (0, 0, 0.00000000000000000000e+00) (0, 0, 0.00000000000000000000e+00) (0, 0, 0.00000000000000000000e+00) (0, 0, 0.00000000000000000000e+00) (0, 0, 0.00000000000000000000e+00) (0, 0, 0.00000000000000000000e+00) (0, 0, 0.00000000000000000000e+00) (0, 0, 0.00000000000000000000e+00) (0, 0, 0.00000000000000000000e+00) (0, 0, 0.00000000000000000000e+00) (0, 0, 0.00000000000000000000e+00) (0, 0, 0.00000000000000000000e+00) (0, 0, 0.00000000000000000000e+00) (0, 0, 0.00000000000000000000e+00) (0, 0, 0.00000000000000000000e+00) (0, 0, 0.00000000000000000000e+00) (0, 0, 0.00000000000000000000e+00) (0, 0, 0.00000000000000000000e+00) (0, 0, 0.00000000000000000000e+00) (0, 0, 0.00000000000000000000e+00) (0, 0, 0.00000000000000000000e+00) (0, 0, 0.00000000000000000000e+00) (0, 0, 0.00000000000000000000e+00) (0, 0, 0.00000000000000000000e+00) (0, 0, 0.00000000000000000000e+00) (0, 0, 0.00000000000000000000e+00) (0, 0, 0.00000000000000000000e+00) (0, 0, 0.00000000000000000000e+00) (0, 0, 0.00000000000000000000e+00) (0, 0, 0.00000000000000000000e+00) (0, 0, 0.00000000000000000000e+00) (0, 0, 0.00000000000000000000e+00) (0, 0, 0.00000000000000000000e+00) (0, 0, 0.00000000000000000000e+00) (0, 0, 0.00000000000000000000e+00) (0, 0, 0.00000000000000000000e+00) (0, 0, 0.00000000000000000000e+00) (0, 0, 0.00000000000000000000e+00) (0, 0, 0.00000000000000000000e+00) (0, 0, 0.00000000000000000000e+00) (0, 0, 0.00000000000000000000e+00) (0, 0, 0.00000000000000000000e+00) (0, 0, 0.00000000000000000000e+00) (0, 0, 0.00000000000000000000e+00) (0, 0, 0.00000000000000000000e+00) (0, 0, 0.00000000000000000000e+00) (0, 0, 0.00000000000000000000e+00) (0, 0, 0.00000000000000000000e+00) (0, 0, 0.00000000000000000000e+00) (0, 0, 0.00000000000000000000e+00) (0, 0, 0.00000000000000000000e+00) (0, 0, 0.00000000000000000000e+00) (0, 0, 0.00000000000000000000e+00) (0, 0, 0.00000000000000000000e+00) (0, 0, 0.00000000000000000000e+00) (0, 0, 0.00000000000000000000e+00) (0, 0, 0.00000000000000000000e+00) (0, 0, 0.00000000000000000000e+00) (0, 0, 0.00000000000000000000e+00) (0, 0, 0.00000000000000000000e+00) (0, 0, 0.00000000000000000000e+00) (0, 0, 0.00000000000000000000e+00) (0, 0, 0.00000000000000000000e+00) (0, 0, 0.00000000000000000000e+00) (0, 0, 0.00000000000000000000e+00) (0, 0, 0.00000000000000000000e+00) (0, 0, 0.00000000000000000000e+00) (0, 0, 0.00000000000000000000e+00) (0, 0, 0.00000000000000000000e+00) (0, 0, 0.00000000000000000000e+00) (0, 0, 0.00000000000000000000e+00) (0, 0, 0.00000000000000000000e+00) (0, 0, 0.00000000000000000000e+00) (0, 0, 0.00000000000000000000e+00) (0, 0, 0.00000000000000000000e+00) (0, 0, 0.00000000000000000000e+00) (0, 0, 0.00000000000000000000e+00) (0, 0, 0.00000000000000000000e+00) (0, 0, 0.00000000000000000000e+00) (0, 0, 0.00000000000000000000e+00) (0, 0, 0.00000000000000000000e+00) (0, 0, 0.00000000000000000000e+00) (0, 0, 0.00000000000000000000e+00) (0, 0, 0.00000000000000000000e+00) (0, 0, 0.00000000000000000000e+00) (0, 0, 0.00000000000000000000e+00) (0, 0, 0.00000000000000000000e+00) (0, 0, 0.00000000000000000000e+00) (0, 0, 0.00000000000000000000e+00) (0, 0, 0.00000000000000000000e+00) (0, 0, 0.00000000000000000000e+00) (0, 0, 0.00000000000000000000e+00) (0, 0, 0.00000000000000000000e+00) (0, 0, 0.00000000000000000000e+00) (0, 0, 0.00000000000000000000e+00) (0, 0, 0.00000000000000000000e+00) (0, 0, 0.00000000000000000000e+00) (0, 0, 0.00000000000000000000e+00) (101, 3, 5.00000000000000000000e-01) (101, 3, 5.00000000000000000000e-01) (101, 3, 5.00000000000000000000e-01) (101, 3, 5.00000000000000000000e-01) (101, 3, 5.00000000000000000000e-01) (101, 3, 5.00000000000000000000e-01) (101, 3, 5.00000000000000000000e-01) (101, 3, 5.00000000000000000000e-01) (101, 3, 5.00000000000000000000e-01) (101, 3, 5.00000000000000000000e-01) (101, 3, 5.00000000000000000000e-01) (101, 3, 5.00000000000000000000e-01) (101, 3, 5.00000000000000000000e-01) (101, 3, 5.00000000000000000000e-01) (101, 3, 5.00000000000000000000e-01) (101, 3, 5.00000000000000000000e-01) (101, 3, 5.00000000000000000000e-01) (101, 3, 5.00000000000000000000e-01) (101, 3, 5.00000000000000000000e-01) (101, 3, 5.00000000000000000000e-01) (101, 3, 5.00000000000000000000e-01) (101, 3, 5.00000000000000000000e-01) (101, 3, 5.00000000000000000000e-01) (101, 3, 5.00000000000000000000e-01) (101, 3, 5.00000000000000000000e-01) (101, 3, 5.00000000000000000000e-01) (101, 3, 5.00000000000000000000e-01) (101, 3, 5.00000000000000000000e-01) (101, 3, 5.00000000000000000000e-01) (101, 3, 5.00000000000000000000e-01) (101, 3, 5.00000000000000000000e-01) (101, 3, 5.00000000000000000000e-01) (101, 3, 5.00000000000000000000e-01) (101, 3, 5.00000000000000000000e-01) (101, 3, 5.00000000000000000000e-01) (101, 3, 5.00000000000000000000e-01) (101, 3, 5.00000000000000000000e-01) (101, 3, 5.00000000000000000000e-01) (101, 3, 5.00000000000000000000e-01) (101, 3, 5.00000000000000000000e-01) (101, 3, 5.00000000000000000000e-01) (101, 3, 5.00000000000000000000e-01) (101, 3, 5.00000000000000000000e-01) (101, 3, 5.00000000000000000000e-01) (101, 3, 5.00000000000000000000e-01) (101, 3, 5.00000000000000000000e-01) (101, 3, 5.00000000000000000000e-01) (101, 3, 5.00000000000000000000e-01) (101, 3, 5.00000000000000000000e-01) (101, 3, 5.00000000000000000000e-01) (151, 5, 5.00000000000000000000e-01) 
connections (connected_to_neuron, weight)=(0, -5.26392422616481781006e-02) (1, 4.57254797220230102539e-03) (2, 8.42456519603729248047e-03) (3, -4.81760464608669281006e-02) (4, -9.72730070352554321289e-02) (5, 6.71246871352195739746e-02) (6, 8.91771242022514343262e-02) (7, -1.83780342340469360352e-02) (8, 6.47899731993675231934e-02) (9, -7.66991004347801208496e-02) (10, -1.75804346799850463867e-02) (11, -1.28808766603469848633e-02) (12, -9.31656658649444580078e-02) (13, 1.93287134170532226562e-02) (14, -8.79573971033096313477e-02) (15, -8.92538577318191528320e-03) (16, 8.18326100707054138184e-02) (17, -7.86644071340560913086e-02) (18, 6.98670819401741027832e-02) (19, 3.35397198796272277832e-02) (20, -4.58488576114177703857e-02) (21, 2.79522463679313659668e-02) (22, -9.59658622741699218750e-03) (23, 3.23046520352363586426e-02) (24, -5.28428480029106140137e-02) (25, -7.98282772302627563477e-02) (26, 1.82468071579933166504e-02) (27, 1.92022472620010375977e-02) (28, 7.58156925439834594727e-03) (29, 3.33925858139991760254e-02) (30, -6.88895434141159057617e-02) (31, 5.49423173069953918457e-02) (32, -6.20348639786243438721e-02) (33, 3.95350232720375061035e-02) (34, -9.32337269186973571777e-02) (35, -5.93078657984733581543e-02) (36, 6.65970891714096069336e-03) (37, 9.59433987736701965332e-02) (38, 2.23141089081764221191e-02) (39, -2.85503119230270385742e-02) (40, -8.07557031512260437012e-02) (41, -9.52663347125053405762e-02) (42, 5.85688278079032897949e-02) (43, -7.39213675260543823242e-02) (44, 2.40623801946640014648e-02) (45, 7.06114247441291809082e-02) (46, 1.71532481908798217773e-02) (47, 5.89499622583389282227e-03) (48, 9.19470265507698059082e-02) (49, -1.29796713590621948242e-02) (50, -6.05652779340744018555e-02) (51, -5.39018474519252777100e-02) (52, -8.50274264812469482422e-02) (53, 2.98381373286247253418e-02) (54, 7.84027948975563049316e-02) (55, -3.78702767193317413330e-02) (56, 5.00098541378974914551e-02) (57, -3.35039943456649780273e-03) (58, 8.13319757580757141113e-02) (59, -4.24085743725299835205e-02) (60, -6.99578076601028442383e-02) (61, -8.75575765967369079590e-02) (62, -8.74662548303604125977e-02) (63, -3.19926738739013671875e-02) (64, 5.19774481654167175293e-02) (65, -8.06999802589416503906e-02) (66, 8.69946181774139404297e-03) (67, -4.13628406822681427002e-02) (68, -8.47565829753875732422e-02) (69, -6.89864382147789001465e-02) (70, 3.00868526101112365723e-02) (71, -6.55122846364974975586e-02) (72, -6.42527714371681213379e-02) (73, -1.13443285226821899414e-02) (74, -3.94336394965648651123e-02) (75, 5.98096176981925964355e-02) (76, -4.07329089939594268799e-02) (77, 7.77196213603019714355e-02) (78, -3.42953950166702270508e-02) (79, -4.87858951091766357422e-02) (80, -3.52600663900375366211e-02) (81, 5.13932853937149047852e-03) (82, -2.68773734569549560547e-03) (83, -2.02874913811683654785e-02) (84, -6.50225281715393066406e-02) (85, -2.42849439382553100586e-02) (86, 4.18422296643257141113e-02) (87, 8.49873349070549011230e-02) (88, 7.23646506667137145996e-02) (89, 2.31742039322853088379e-02) (90, -5.74212484061717987061e-02) (91, -9.75931584835052490234e-02) (92, 3.56166288256645202637e-02) (93, -4.48874942958354949951e-02) (94, -2.95858308672904968262e-02) (95, -1.24059319496154785156e-02) (96, -2.55874767899513244629e-02) (97, 7.91136249899864196777e-02) (98, 4.62312176823616027832e-02) (99, -1.03440508246421813965e-02) (100, -8.98728072643280029297e-02) (0, -2.36819237470626831055e-02) (1, 2.41436734795570373535e-02) (2, -5.41255772113800048828e-02) (3, 6.49737492203712463379e-02) (4, 8.47100242972373962402e-02) (5, -9.43159610033035278320e-02) (6, -7.57591649889945983887e-02) (7, 6.24296441674232482910e-02) (8, -2.86113545298576354980e-02) (9, -2.45450586080551147461e-02) (10, -7.28304237127304077148e-02) (11, 7.65279754996299743652e-02) (12, 7.27672055363655090332e-02) (13, 6.88208639621734619141e-03) (14, -8.84945541620254516602e-02) (15, -5.15177510678768157959e-02) (16, -5.12756817042827606201e-02) (17, 9.64927747845649719238e-02) (18, -7.91530981659889221191e-02) (19, 7.18985274434089660645e-02) (20, -6.09284751117229461670e-02) (21, -7.67462551593780517578e-02) (22, 7.51515477895736694336e-03) (23, -5.81596791744232177734e-03) (24, -6.33208453655242919922e-03) (25, 9.51092317700386047363e-02) (26, 6.85965493321418762207e-02) (27, -2.72184535861015319824e-02) (28, 4.13404479622840881348e-02) (29, -4.17474992573261260986e-02) (30, -1.70912593603134155273e-02) (31, -8.23414772748947143555e-02) (32, 8.23961719870567321777e-02) (33, 2.87831500172615051270e-02) (34, 8.26322659850120544434e-02) (35, 6.71061947941780090332e-02) (36, 3.44671979546546936035e-02) (37, -9.31269004940986633301e-02) (38, 2.95358374714851379395e-02) (39, -9.41441580653190612793e-02) (40, -1.76719576120376586914e-02) (41, 5.67054077982902526855e-02) (42, 8.23838189244270324707e-02) (43, -4.49047572910785675049e-02) (44, -3.64125072956085205078e-02) (45, 9.38892588019371032715e-02) (46, 3.57749313116073608398e-03) (47, 1.23118162155151367188e-02) (48, 9.03820469975471496582e-02) (49, 2.44243964552879333496e-02) (50, -1.57896652817726135254e-02) (51, -7.05464333295822143555e-02) (52, 4.76781502366065979004e-02) (53, 9.17254909873008728027e-02) (54, 2.36375927925109863281e-02) (55, -5.86539395153522491455e-02) (56, 8.68347063660621643066e-02) (57, -7.76585191488265991211e-03) (58, 1.41275972127914428711e-02) (59, 2.81751528382301330566e-02) (60, 5.04866465926170349121e-02) (61, 9.70363393425941467285e-02) (62, 4.58336845040321350098e-02) (63, 3.28828170895576477051e-02) (64, 2.58195027709007263184e-02) (65, 2.84659489989280700684e-02) (66, -1.09821557998657226562e-05) (67, -3.97133044898509979248e-02) (68, 3.53390499949455261230e-02) (69, -7.04751536250114440918e-02) (70, -3.38574647903442382812e-02) (71, -8.23329091072082519531e-02) (72, 8.62302556633949279785e-02) (73, -5.14736436307430267334e-02) (74, -2.72376686334609985352e-02) (75, -5.01822605729103088379e-02) (76, -5.75843788683414459229e-02) (77, 7.63398334383964538574e-02) (78, 6.21295645833015441895e-02) (79, -6.72023445367813110352e-02) (80, 7.64228403568267822266e-04) (81, -5.36601096391677856445e-02) (82, -3.77487801015377044678e-02) (83, -5.15576265752315521240e-02) (84, -6.19346238672733306885e-02) (85, 8.58888104557991027832e-02) (86, -1.02115646004676818848e-02) (87, -7.50999152660369873047e-02) (88, -2.18770354986190795898e-02) (89, -9.60839614272117614746e-02) (90, 5.30752465128898620605e-02) (91, -7.13903829455375671387e-02) (92, -9.90476235747337341309e-02) (93, -1.09107792377471923828e-03) (94, 6.14924505352973937988e-02) (95, 2.67718806862831115723e-02) (96, -7.26251378655433654785e-02) (97, -3.85185442864894866943e-02) (98, 8.70585814118385314941e-02) (99, 6.27139285206794738770e-02) (100, -8.99370014667510986328e-03) (0, -4.67988848686218261719e-02) (1, 8.03810134530067443848e-02) (2, -2.27634459733963012695e-02) (3, 1.72747671604156494141e-03) (4, -4.68566529452800750732e-02) (5, 2.70543023943901062012e-02) (6, 4.41430881619453430176e-02) (7, -7.05168247222900390625e-02) (8, -1.08161568641662597656e-02) (9, 7.69407525658607482910e-02) (10, 3.02473977208137512207e-02) (11, 3.55237349867820739746e-02) (12, -6.08080253005027770996e-02) (13, 7.86897763609886169434e-02) (14, 7.35891088843345642090e-02) (15, -7.49192088842391967773e-02) (16, -3.15217822790145874023e-02) (17, 9.84892025589942932129e-02) (18, 3.20376455783843994141e-03) (19, -2.76057422161102294922e-02) (20, 5.15644326806068420410e-02) (21, 3.18133905529975891113e-02) (22, -2.66533643007278442383e-02) (23, -4.95266504585742950439e-02) (24, -6.69418275356292724609e-03) (25, -9.98814851045608520508e-02) (26, -2.21517831087112426758e-02) (27, 5.47872856259346008301e-02) (28, 8.71771052479743957520e-02) (29, -5.94378672540187835693e-02) (30, -5.42064234614372253418e-02) (31, -5.96217922866344451904e-02) (32, -7.90568590164184570312e-02) (33, 2.30301246047019958496e-02) (34, 4.21056821942329406738e-02) (35, -2.59135141968727111816e-02) (36, -4.99155782163143157959e-02) (37, -1.37512311339378356934e-02) (38, 3.56966257095336914062e-03) (39, 3.92682626843452453613e-02) (40, -3.68104800581932067871e-02) (41, -6.61829262971878051758e-02) (42, -2.52079963684082031250e-02) (43, 2.38148868083953857422e-03) (44, -8.74931439757347106934e-02) (45, -5.16188852488994598389e-02) (46, 2.74622961878776550293e-02) (47, -1.90149247646331787109e-02) (48, -5.31296841800212860107e-02) (49, -6.93339556455612182617e-02) (50, 5.33793345093727111816e-02) (51, 9.84347537159919738770e-02) (52, 6.24794289469718933105e-02) (53, -7.32740312814712524414e-02) (54, -5.10918982326984405518e-02) (55, -4.42147552967071533203e-02) (56, -7.31555074453353881836e-02) (57, 2.67563238739967346191e-02) (58, -8.94274786114692687988e-02) (59, -8.59784185886383056641e-02) (60, 6.73184469342231750488e-02) (61, -4.36339043080806732178e-02) (62, -4.56002131104469299316e-02) (63, 8.82615968585014343262e-02) (64, 7.93962255120277404785e-02) (65, 9.65054705739021301270e-02) (66, -3.76519225537776947021e-02) (67, -7.05193504691123962402e-02) (68, -1.72457695007324218750e-02) (69, 6.59177526831626892090e-02) (70, 6.87489137053489685059e-02) (71, 4.59437444806098937988e-02) (72, 9.97348204255104064941e-02) (73, -5.64590804278850555420e-02) (74, -5.16747608780860900879e-02) (75, -8.77583175897598266602e-02) (76, -8.07796418666839599609e-03) (77, 7.57875367999076843262e-02) (78, -6.77324086427688598633e-03) (79, 3.87923493981361389160e-02) (80, -9.35464277863502502441e-02) (81, -5.33939078450202941895e-02) (82, 3.72271016240119934082e-02) (83, 6.89330026507377624512e-02) (84, -2.66679376363754272461e-02) (85, 8.61352011561393737793e-02) (86, -7.52817541360855102539e-02) (87, 1.76563858985900878906e-04) (88, 1.28915160894393920898e-02) (89, -6.47092312574386596680e-02) (90, 1.41981393098831176758e-02) (91, -1.97900310158729553223e-02) (92, -8.34313780069351196289e-03) (93, 6.85979202389717102051e-02) (94, -3.15284356474876403809e-02) (95, -2.89469063282012939453e-02) (96, 6.51033893227577209473e-02) (97, 3.08196470141410827637e-02) (98, 5.33744692802429199219e-04) (99, -5.21423779428005218506e-02) (100, -3.26260924339294433594e-03) (0, -3.07173430919647216797e-02) (1, 9.38013866543769836426e-02) (2, -3.52778285741806030273e-03) (3, 1.28235816955566406250e-02) (4, -5.78733831644058227539e-02) (5, 8.71390104293823242188e-03) (6, -9.52543839812278747559e-02) (7, -8.20858553051948547363e-02) (8, -9.80593413114547729492e-02) (9, 4.35379669070243835449e-02) (10, -7.56322816014289855957e-02) (11, -5.14532513916492462158e-02) (12, -1.92349329590797424316e-02) (13, 9.33007225394248962402e-02) (14, 2.18788161873817443848e-02) (15, -3.30997332930564880371e-02) (16, -8.19810330867767333984e-02) (17, -7.79446288943290710449e-02) (18, 7.97917917370796203613e-02) (19, -4.66902665793895721436e-02) (20, 3.62535193562507629395e-02) (21, -3.99982444941997528076e-02) (22, 4.49666008353233337402e-02) (23, 4.85143810510635375977e-03) (24, 2.84733250737190246582e-02) (25, -8.39803069829940795898e-02) (26, -3.00451666116714477539e-02) (27, -4.07070480287075042725e-02) (28, 1.65534391999244689941e-02) (29, 1.78124532103538513184e-02) (30, 5.60303404927253723145e-02) (31, 8.58360901474952697754e-02) (32, 1.16138309240341186523e-02) (33, -4.74974326789379119873e-02) (34, -1.34032964706420898438e-03) (35, 5.37404492497444152832e-02) (36, 6.12164661288261413574e-02) (37, 3.40528786182403564453e-03) (38, 7.16545954346656799316e-02) (39, 6.31571188569068908691e-02) (40, -5.30567467212677001953e-02) (41, 9.60223153233528137207e-02) (42, -8.82961302995681762695e-02) (43, 2.77083143591880798340e-02) (44, 8.93230363726615905762e-02) (45, 3.35826948285102844238e-02) (46, 9.46085825562477111816e-02) (47, -9.26580056548118591309e-02) (48, 5.56380525231361389160e-02) (49, 7.44003728032112121582e-02) (50, -3.93482744693756103516e-02) (51, -8.10843706130981445312e-03) (52, -6.55978769063949584961e-02) (53, -9.43816825747489929199e-02) (54, 9.67429950833320617676e-02) (55, 6.28754422068595886230e-02) (56, -7.83619880676269531250e-02) (57, -3.33021655678749084473e-02) (58, -7.78316035866737365723e-02) (59, 3.81914451718330383301e-02) (60, 8.45102891325950622559e-02) (61, 7.81987383961677551270e-02) (62, 2.40275412797927856445e-02) (63, -3.87587398290634155273e-03) (64, -6.92986920475959777832e-02) (65, -7.73127898573875427246e-02) (66, -5.01354299485683441162e-02) (67, 9.19177755713462829590e-02) (68, 2.60924920439720153809e-02) (69, -7.84808397293090820312e-02) (70, 5.50748929381370544434e-02) (71, 7.30357542634010314941e-02) (72, -8.24585258960723876953e-02) (73, 6.67787566781044006348e-02) (74, 7.44067132472991943359e-04) (75, -9.31354984641075134277e-02) (76, 3.61442565917968750000e-04) (77, -4.64734435081481933594e-03) (78, -8.57935100793838500977e-02) (79, -4.40005064010620117188e-02) (80, -3.02469655871391296387e-02) (81, -2.51417830586433410645e-02) (82, 4.78910580277442932129e-02) (83, 4.15515899658203125000e-03) (84, -1.95234566926956176758e-02) (85, 4.46340516209602355957e-02) (86, -3.29694002866744995117e-02) (87, 2.11454927921295166016e-03) (88, -8.86681154370307922363e-02) (89, -1.08010023832321166992e-02) (90, -5.96940033137798309326e-02) (91, 9.58421900868415832520e-02) (92, -3.26022580265998840332e-02) (93, 6.43335357308387756348e-02) (94, -8.03370028734207153320e-03) (95, -1.90094858407974243164e-03) (96, 8.70207473635673522949e-02) (97, 4.18308749794960021973e-02) (98, -9.98317450284957885742e-03) (99, 1.31132453680038452148e-02) (100, 6.33500292897224426270e-02) (0, -5.49082867801189422607e-02) (1, -1.38510018587112426758e-02) (2, 8.08914974331855773926e-02) (3, -8.81295278668403625488e-02) (4, 8.68930742144584655762e-02) (5, 8.77560004591941833496e-02) (6, 1.22319087386131286621e-02) (7, -1.77542716264724731445e-02) (8, -9.80375036597251892090e-02) (9, 6.82314112782478332520e-02) (10, 5.19987568259239196777e-02) (11, -2.31792777776718139648e-02) (12, 1.61224603652954101562e-02) (13, -4.38460893929004669189e-02) (14, 5.72972521185874938965e-02) (15, -3.92434857785701751709e-02) (16, 2.31845155358314514160e-02) (17, -4.05881963670253753662e-02) (18, -2.79115960001945495605e-02) (19, -8.76164957880973815918e-02) (20, -2.82190740108489990234e-04) (21, -3.20694148540496826172e-02) (22, -2.02187523245811462402e-02) (23, -3.59486564993858337402e-02) (24, 5.98968937993049621582e-02) (25, 7.78803005814552307129e-02) (26, -4.89279106259346008301e-02) (27, 1.72775983810424804688e-03) (28, -3.21028754115104675293e-02) (29, 6.41853287816047668457e-02) (30, -3.49222123622894287109e-02) (31, 1.29888430237770080566e-02) (32, -4.96656708419322967529e-02) (33, -5.40307089686393737793e-02) (34, 2.48593091964721679688e-02) (35, -6.27726018428802490234e-02) (36, -6.62747025489807128906e-02) (37, -6.29087761044502258301e-02) (38, 1.94731205701828002930e-02) (39, -6.43122047185897827148e-02) (40, -9.46773737668991088867e-02) (41, -2.85281240940093994141e-02) (42, 1.25085115432739257812e-02) (43, 2.14450955390930175781e-02) (44, 2.76257917284965515137e-02) (45, -3.01942303776741027832e-02) (46, 8.22016075253486633301e-02) (47, -4.91897054016590118408e-02) (48, 2.92175784707069396973e-02) (49, -4.57099936902523040771e-02) (50, -3.68061959743499755859e-02) (51, -7.10646137595176696777e-02) (52, 2.22205966711044311523e-02) (53, 4.29750457406044006348e-02) (54, -7.01326876878738403320e-03) (55, -1.78825184702873229980e-02) (56, 2.08553522825241088867e-02) (57, 4.40588220953941345215e-02) (58, 8.38452354073524475098e-02) (59, 8.87524709105491638184e-02) (60, 8.24415683746337890625e-03) (61, -5.10769747197628021240e-02) (62, 1.74131244421005249023e-03) (63, 5.85784837603569030762e-02) (64, -5.10767847299575805664e-03) (65, -7.33993723988533020020e-02) (66, 9.58058908581733703613e-02) (67, 2.86176279187202453613e-02) (68, -3.63081470131874084473e-02) (69, 1.52790099382400512695e-02) (70, 6.43054321408271789551e-02) (71, -3.09855192899703979492e-02) (72, 8.67508724331855773926e-02) (73, -2.31860652565956115723e-02) (74, 9.04595777392387390137e-02) (75, 1.43766626715660095215e-02) (76, 4.66197058558464050293e-02) (77, 7.26611837744712829590e-02) (78, 6.51869699358940124512e-02) (79, -2.41627097129821777344e-02) (80, -7.30488076806068420410e-02) (81, -7.16192349791526794434e-02) (82, 4.77267801761627197266e-03) (83, 4.91717830300331115723e-02) (84, 7.13558122515678405762e-02) (85, 9.77594032883644104004e-02) (86, -6.87107294797897338867e-02) (87, -7.78883695602416992188e-03) (88, 4.18182238936424255371e-02) (89, -8.48654955625534057617e-02) (90, -1.90363675355911254883e-02) (91, -4.99376170337200164795e-02) (92, -3.59424725174903869629e-02) (93, 8.27049538493156433105e-02) (94, -9.13591384887695312500e-02) (95, 5.89498504996299743652e-02) (96, -9.06944200396537780762e-02) (97, -9.55532565712928771973e-02) (98, -1.24325305223464965820e-02) (99, -2.70025655627250671387e-02) (100, 1.97257548570632934570e-02) (0, -4.81271110475063323975e-02) (1, 4.20119240880012512207e-02) (2, 6.47662580013275146484e-03) (3, 2.86868289113044738770e-02) (4, 3.24714854359626770020e-02) (5, -7.91467130184173583984e-02) (6, -2.46934667229652404785e-02) (7, 5.13267517089843750000e-03) (8, 8.60402509570121765137e-02) (9, 5.11438325047492980957e-02) (10, 3.20838764309883117676e-02) (11, -8.55789855122566223145e-02) (12, -4.40835058689117431641e-02) (13, -1.87443494796752929688e-02) (14, 8.57768282294273376465e-02) (15, -4.63241003453731536865e-02) (16, 1.25449150800704956055e-02) (17, -2.20120102167129516602e-02) (18, 9.54941287636756896973e-02) (19, 2.76794210076332092285e-02) (20, 5.89516237378120422363e-02) (21, -5.44434934854507446289e-02) (22, 9.17369499802589416504e-02) (23, 4.16565760970115661621e-02) (24, -4.58026304841041564941e-02) (25, 5.06867989897727966309e-02) (26, 5.09621575474739074707e-02) (27, -4.13558855652809143066e-02) (28, -6.17457292973995208740e-02) (29, -7.60404095053672790527e-02) (30, 7.83698633313179016113e-02) (31, -9.87283885478973388672e-03) (32, 6.59715011715888977051e-02) (33, -1.51535123586654663086e-02) (34, -8.11860114336013793945e-02) (35, -1.55699998140335083008e-03) (36, 5.69977611303329467773e-03) (37, -5.87947666645050048828e-03) (38, -9.64243263006210327148e-02) (39, -8.25996696949005126953e-03) (40, -5.47356568276882171631e-02) (41, 3.56595441699028015137e-02) (42, 6.16104900836944580078e-03) (43, 1.18084251880645751953e-03) (44, -8.30848067998886108398e-02) (45, -8.06212425231933593750e-03) (46, 5.48567399382591247559e-02) (47, 2.94601097702980041504e-02) (48, 6.99258521199226379395e-02) (49, 5.03508672118186950684e-02) (50, -4.28604744374752044678e-02) (51, 2.88774892687797546387e-02) (52, 9.59073677659034729004e-02) (53, -5.11235222220420837402e-02) (54, -2.94659435749053955078e-02) (55, -4.98952567577362060547e-02) (56, 9.95632782578468322754e-02) (57, -7.85037875175476074219e-02) (58, 8.74885171651840209961e-03) (59, -6.21824450790882110596e-02) (60, -5.45441992580890655518e-02) (61, -1.28812789916992187500e-02) (62, 2.79447212815284729004e-02) (63, -8.85726958513259887695e-02) (64, 7.19652101397514343262e-02) (65, 4.67587187886238098145e-02) (66, 9.87031310796737670898e-03) (67, -2.23350077867507934570e-02) (68, -5.91207705438137054443e-02) (69, 1.34459882974624633789e-02) (70, 6.94050267338752746582e-02) (71, -1.38564258813858032227e-02) (72, -5.08944764733314514160e-02) (73, -2.44339331984519958496e-02) (74, 8.73244032263755798340e-02) (75, -3.39792817831039428711e-02) (76, 6.75039365887641906738e-02) (77, 4.21811416745185852051e-02) (78, 9.54808220267295837402e-02) (79, 3.74298021197319030762e-02) (80, -7.46799260377883911133e-03) (81, -4.73796501755714416504e-02) (82, -3.36927175521850585938e-02) (83, -1.15606188774108886719e-02) (84, 1.49682909250259399414e-03) (85, 3.68413403630256652832e-02) (86, 3.85441258549690246582e-02) (87, 1.06011331081390380859e-03) (88, 5.83375617861747741699e-02) (89, -5.27070239186286926270e-02) (90, 3.88776734471321105957e-02) (91, -9.62066426873207092285e-02) (92, 3.44116911292076110840e-02) (93, -3.31776067614555358887e-02) (94, -8.47793370485305786133e-02) (95, 6.37690722942352294922e-03) (96, -8.64189043641090393066e-02) (97, 2.50909700989723205566e-02) (98, 8.40419009327888488770e-02) (99, -4.55396734178066253662e-02) (100, -6.14630393683910369873e-02) (0, 5.34469261765480041504e-02) (1, 4.06038984656333923340e-02) (2, -1.23575180768966674805e-02) (3, -7.09870159626007080078e-02) (4, 2.79283002018928527832e-02) (5, 5.36632016301155090332e-02) (6, 9.65169295668601989746e-02) (7, -2.98905447125434875488e-02) (8, 4.91440221667289733887e-02) (9, 3.39467301964759826660e-02) (10, 6.26414641737937927246e-02) (11, -9.82356294989585876465e-02) (12, -9.97459888458251953125e-02) (13, -4.89191599190235137939e-02) (14, 3.26120853424072265625e-03) (15, 3.70953604578971862793e-02) (16, 8.96249637007713317871e-02) (17, -9.56786870956420898438e-02) (18, -4.56709414720535278320e-03) (19, -6.30820617079734802246e-02) (20, 4.31989952921867370605e-02) (21, -7.73735344409942626953e-04) (22, 7.13296458125114440918e-02) (23, -8.99786204099655151367e-02) (24, 1.44469290971755981445e-02) (25, -2.22934558987617492676e-02) (26, -7.63975232839584350586e-02) (27, -6.04620985686779022217e-02) (28, -3.82515564560890197754e-02) (29, -2.19371914863586425781e-02) (30, -2.19251364469528198242e-02) (31, -8.48046392202377319336e-02) (32, -8.13332945108413696289e-02) (33, 6.57173469662666320801e-02) (34, -5.57916499674320220947e-02) (35, 4.65950146317481994629e-02) (36, 1.93805471062660217285e-02) (37, -5.92747256159782409668e-02) (38, -8.32955241203308105469e-02) (39, -3.14754396677017211914e-02) (40, 7.46720060706138610840e-02) (41, 7.93459489941596984863e-02) (42, -2.97110602259635925293e-02) (43, 7.49260261654853820801e-02) (44, -6.95732235908508300781e-02) (45, 7.35501423478126525879e-02) (46, 1.20213627815246582031e-02) (47, -7.99482613801956176758e-02) (48, 7.78714492917060852051e-02) (49, -9.25457254052162170410e-02) (50, -4.30303178727626800537e-02) (51, 2.10704430937767028809e-02) (52, 6.68053328990936279297e-03) (53, -7.17006772756576538086e-02) (54, 3.10918167233467102051e-02) (55, -7.88725316524505615234e-02) (56, 6.00586831569671630859e-03) (57, 5.46943023800849914551e-02) (58, -3.93346250057220458984e-02) (59, 6.77543208003044128418e-02) (60, -6.72428905963897705078e-02) (61, 3.87402400374412536621e-02) (62, 8.29496756196022033691e-02) (63, -4.85761873424053192139e-02) (64, 4.45757806301116943359e-03) (65, -7.28419795632362365723e-02) (66, 9.80188325047492980957e-02) (67, -7.61618763208389282227e-02) (68, -3.21166962385177612305e-02) (69, -8.52766931056976318359e-02) (70, -7.63730704784393310547e-03) (71, -5.74446991086006164551e-02) (72, 9.40692499279975891113e-02) (73, 6.26516267657279968262e-02) (74, -8.25186893343925476074e-02) (75, -7.55039751529693603516e-02) (76, 3.62017676234245300293e-02) (77, 2.95026823878288269043e-02) (78, -5.54522350430488586426e-02) (79, 1.40732303261756896973e-02) (80, 3.69569584727287292480e-02) (81, 1.51745229959487915039e-03) (82, -6.48563355207443237305e-02) (83, -5.63625060021877288818e-02) (84, 2.98167690634727478027e-02) (85, 6.62354901432991027832e-02) (86, -3.52350324392318725586e-02) (87, -6.41773641109466552734e-02) (88, 2.09297910332679748535e-02) (89, 2.54303291440010070801e-02) (90, -9.64230597019195556641e-02) (91, 5.36868944764137268066e-02) (92, -3.58294248580932617188e-02) (93, 8.65266248583793640137e-02) (94, -9.48892906308174133301e-02) (95, 6.86281546950340270996e-02) (96, -8.63153636455535888672e-02) (97, -9.68704596161842346191e-02) (98, 9.24662873148918151855e-02) (99, -1.84320658445358276367e-02) (100, -8.21471512317657470703e-02) (0, -1.51710212230682373047e-02) (1, 2.41232365369796752930e-02) (2, -8.80779102444648742676e-02) (3, -5.25193922221660614014e-02) (4, 4.16045561432838439941e-02) (5, -6.35818839073181152344e-02) (6, 8.36823806166648864746e-02) (7, -2.88927704095840454102e-02) (8, -1.90341174602508544922e-02) (9, -2.24439799785614013672e-03) (10, -9.19358134269714355469e-02) (11, 8.24833288788795471191e-02) (12, 3.28992679715156555176e-02) (13, -4.82983179390430450439e-02) (14, 1.23000964522361755371e-02) (15, -8.65235924720764160156e-04) (16, 1.64666548371315002441e-02) (17, 4.81227263808250427246e-02) (18, -7.99354463815689086914e-02) (19, -5.81030137836933135986e-02) (20, 5.16996756196022033691e-02) (21, 7.37514570355415344238e-02) (22, 6.06755912303924560547e-03) (23, 3.82262989878654479980e-02) (24, 7.88621529936790466309e-02) (25, -2.53042727708816528320e-02) (26, 5.19109442830085754395e-02) (27, 8.19916948676109313965e-02) (28, -3.28379869461059570312e-02) (29, -6.65211230516433715820e-02) (30, 9.98445525765419006348e-02) (31, 5.19909933209419250488e-02) (32, 5.76021149754524230957e-02) (33, -8.82333591580390930176e-02) (34, 9.94716063141822814941e-02) (35, -7.93330371379852294922e-04) (36, -5.18152453005313873291e-02) (37, 8.31539854407310485840e-02) (38, 7.03139081597328186035e-02) (39, 2.91506424546241760254e-02) (40, -1.90904214978218078613e-02) (41, 7.83780887722969055176e-02) (42, 1.16339698433876037598e-02) (43, -8.61911475658416748047e-02) (44, -6.99202194809913635254e-02) (45, -7.60659351944923400879e-02) (46, 1.29436105489730834961e-02) (47, 4.65464219450950622559e-02) (48, 7.20567926764488220215e-02) (49, 3.30081656575202941895e-02) (50, 8.84434208273887634277e-02) (51, 2.37564668059349060059e-02) (52, 6.75960630178451538086e-03) (53, -5.48901408910751342773e-03) (54, -3.80172319710254669189e-02) (55, -1.43782347440719604492e-02) (56, 6.92067071795463562012e-02) (57, -8.61063003540039062500e-02) (58, -3.23865339159965515137e-02) (59, -6.36312812566757202148e-02) (60, -5.26274256408214569092e-02) (61, -3.25419828295707702637e-02) (62, 8.83597210049629211426e-02) (63, -9.50253084301948547363e-02) (64, -2.07753479480743408203e-02) (65, 8.78313258290290832520e-02) (66, 4.18136268854141235352e-03) (67, 2.74094119668006896973e-02) (68, 7.09853097796440124512e-02) (69, -2.55047306418418884277e-02) (70, -4.34399507939815521240e-02) (71, -4.81051169335842132568e-02) (72, -4.71266321837902069092e-02) (73, 6.81940242648124694824e-02) (74, -3.42962592840194702148e-02) (75, -1.70468538999557495117e-02) (76, 9.21280905604362487793e-02) (77, 7.86473527550697326660e-02) (78, -7.05004259943962097168e-02) (79, 6.41848817467689514160e-02) (80, 1.16555094718933105469e-02) (81, -8.20570141077041625977e-02) (82, -1.20586380362510681152e-02) (83, -8.15848782658576965332e-02) (84, 1.24539732933044433594e-02) (85, 4.99241277575492858887e-02) (86, 4.03688848018646240234e-03) (87, -1.83393210172653198242e-02) (88, 6.38178363442420959473e-02) (89, 7.16503486037254333496e-02) (90, 1.80294066667556762695e-02) (91, -8.88095945119857788086e-02) (92, -6.08916357159614562988e-02) (93, 6.38911873102188110352e-03) (94, -8.38349014520645141602e-02) (95, 1.83330178260803222656e-02) (96, -5.77955693006515502930e-03) (97, 2.03464627265930175781e-02) (98, -5.42575679719448089600e-02) (99, -3.47942560911178588867e-02) (100, 9.48417261242866516113e-02) (0, 2.30248272418975830078e-03) (1, 1.71006321907043457031e-02) (2, -5.22849000990390777588e-02) (3, -2.95035019516944885254e-02) (4, 8.28043892979621887207e-02) (5, 3.06682512164115905762e-02) (6, -3.73754128813743591309e-02) (7, 6.14517256617546081543e-02) (8, 6.01678118109703063965e-02) (9, -7.31905251741409301758e-02) (10, -2.68927589058876037598e-02) (11, 7.81108066439628601074e-02) (12, 1.47508233785629272461e-02) (13, -8.47764313220977783203e-03) (14, -9.43522155284881591797e-03) (15, -3.53250429034233093262e-02) (16, 9.55592468380928039551e-02) (17, 7.22254589200019836426e-02) (18, -7.15072154998779296875e-02) (19, 6.72096088528633117676e-02) (20, -9.74514335393905639648e-03) (21, -6.03168085217475891113e-02) (22, -9.36820358037948608398e-02) (23, 9.66439768671989440918e-02) (24, -4.41517047584056854248e-02) (25, 2.46509909629821777344e-02) (26, -9.13558155298233032227e-03) (27, 7.61947706341743469238e-02) (28, 7.03934207558631896973e-02) (29, 5.60701712965965270996e-02) (30, 7.10364952683448791504e-02) (31, -2.73040980100631713867e-02) (32, -2.68291905522346496582e-02) (33, -8.12484025955200195312e-02) (34, 4.31924089789390563965e-02) (35, -4.40248139202594757080e-02) (36, 4.94198426604270935059e-02) (37, -9.41830053925514221191e-02) (38, -8.25730860233306884766e-02) (39, 9.58766043186187744141e-03) (40, -6.73735290765762329102e-02) (41, -9.46585088968276977539e-03) (42, -1.23015344142913818359e-02) (43, 4.73772957921028137207e-02) (44, 8.20565149188041687012e-02) (45, 7.82632455229759216309e-02) (46, -8.79477486014366149902e-02) (47, 7.76157602667808532715e-02) (48, 5.04887029528617858887e-02) (49, -5.94549626111984252930e-02) (50, 4.48253676295280456543e-02) (51, -5.92564456164836883545e-02) (52, -1.97717696428298950195e-02) (53, 5.11433258652687072754e-02) (54, -6.26124665141105651855e-02) (55, 3.60765233635902404785e-02) (56, -2.42056772112846374512e-02) (57, 2.82519534230232238770e-02) (58, 1.22712701559066772461e-02) (59, -5.38122616708278656006e-02) (60, -1.56778693199157714844e-02) (61, -1.66922286152839660645e-02) (62, 1.88836455345153808594e-02) (63, 5.74929341673851013184e-02) (64, 2.05936282873153686523e-03) (65, -3.79239432513713836670e-02) (66, -8.65318775177001953125e-02) (67, -4.85207922756671905518e-02) (68, -3.21069508790969848633e-02) (69, -6.91049695014953613281e-02) (70, 6.10668733716011047363e-02) (71, 5.19514083862304687500e-04) (72, 2.14291810989379882812e-02) (73, -5.12346699833869934082e-02) (74, -5.21031878888607025146e-02) (75, 3.48570197820663452148e-03) (76, -7.29714259505271911621e-02) (77, -4.00509350001811981201e-02) (78, -1.88985392451286315918e-02) (79, 7.75172784924507141113e-02) (80, 4.94100153446197509766e-04) (81, -7.40731805562973022461e-02) (82, -8.17391723394393920898e-02) (83, 8.07223394513130187988e-02) (84, 7.70701542496681213379e-02) (85, -4.43516336381435394287e-02) (86, 1.67988538742065429688e-02) (87, -4.71355281770229339600e-02) (88, 8.39003250002861022949e-02) (89, -7.09298700094223022461e-02) (90, -9.47788357734680175781e-04) (91, -3.17775458097457885742e-02) (92, 1.23779028654098510742e-02) (93, -8.20641443133354187012e-02) (94, -7.42846131324768066406e-02) (95, -8.55627283453941345215e-02) (96, -1.99880897998809814453e-02) (97, -6.08164928853511810303e-02) (98, -3.40835228562355041504e-02) (99, 4.79049608111381530762e-02) (100, -2.99214571714401245117e-02) (0, -7.30166584253311157227e-02) (1, -5.15755228698253631592e-02) (2, 9.15077403187751770020e-02) (3, -2.42513269186019897461e-02) (4, -3.67870926856994628906e-03) (5, -5.00656664371490478516e-03) (6, 2.77724117040634155273e-03) (7, 5.62703534960746765137e-02) (8, 7.60948881506919860840e-02) (9, -1.97054818272590637207e-02) (10, -4.32355478405952453613e-02) (11, -9.79782938957214355469e-02) (12, -1.44465267658233642578e-03) (13, -6.25132173299789428711e-02) (14, 7.90918543934822082520e-02) (15, 5.42037114500999450684e-02) (16, 5.42856380343437194824e-02) (17, -6.80436640977859497070e-02) (18, 3.81040498614311218262e-02) (19, 8.33557769656181335449e-02) (20, 3.10085490345954895020e-02) (21, -9.36735048890113830566e-02) (22, -4.26632910966873168945e-03) (23, 4.89444062113761901855e-02) (24, -6.79581165313720703125e-02) (25, 1.01709365844726562500e-02) (26, -7.10436850786209106445e-02) (27, -2.87746042013168334961e-02) (28, 7.60874226689338684082e-02) (29, 7.68612697720527648926e-02) (30, 4.13039401173591613770e-02) (31, -9.69292372465133666992e-02) (32, -7.47142508625984191895e-02) (33, 3.28116640448570251465e-02) (34, -2.11805626749992370605e-02) (35, 2.16070413589477539062e-02) (36, -7.21949040889739990234e-02) (37, 8.15966799855232238770e-02) (38, -2.21226066350936889648e-02) (39, -9.61000174283981323242e-02) (40, -3.81087958812713623047e-02) (41, 3.46418544650077819824e-02) (42, -9.40783098340034484863e-02) (43, 6.04465678334236145020e-02) (44, 7.21286311745643615723e-02) (45, 8.50135609507560729980e-02) (46, 1.46502703428268432617e-02) (47, 2.64142677187919616699e-02) (48, -8.30301120877265930176e-02) (49, -4.72456887364387512207e-02) (50, 9.77003574371337890625e-03) (51, 4.79784384369850158691e-02) (52, -4.09191921353340148926e-02) (53, -9.44962948560714721680e-02) (54, -3.07716429233551025391e-03) (55, -8.87730717658996582031e-03) (56, 1.56746357679367065430e-02) (57, 2.58791521191596984863e-02) (58, 6.23480752110481262207e-02) (59, -8.23794305324554443359e-03) (60, 2.74042785167694091797e-03) (61, 3.65202128887176513672e-03) (62, -5.16717135906219482422e-03) (63, 2.80261710286140441895e-02) (64, -6.35363161563873291016e-02) (65, 7.36522600054740905762e-02) (66, -5.03667853772640228271e-02) (67, -3.57312113046646118164e-02) (68, 5.52489385008811950684e-02) (69, 2.75106057524681091309e-02) (70, -3.18312272429466247559e-02) (71, -8.28598588705062866211e-02) (72, -3.78475449979305267334e-02) (73, -2.59095355868339538574e-02) (74, 7.75867030024528503418e-02) (75, -6.57189190387725830078e-02) (76, -4.08959798514842987061e-02) (77, -7.76302814483642578125e-03) (78, 6.06953576207160949707e-02) (79, -2.39260941743850708008e-02) (80, 4.49912920594215393066e-02) (81, -2.95346081256866455078e-02) (82, -7.59476572275161743164e-02) (83, -9.59279090166091918945e-02) (84, -2.40309089422225952148e-02) (85, 2.09751725196838378906e-02) (86, -4.80521470308303833008e-03) (87, 9.16437432169914245605e-02) (88, -5.31456694006919860840e-02) (89, -4.24571298062801361084e-02) (90, -1.65942013263702392578e-02) (91, 4.95947673916816711426e-02) (92, 6.11949041485786437988e-02) (93, 7.82386139035224914551e-02) (94, -2.23790630698204040527e-02) (95, 9.76585820317268371582e-02) (96, 5.18908873200416564941e-02) (97, 2.72541567683219909668e-02) (98, -3.80726270377635955811e-02) (99, 7.13982433080673217773e-03) (100, -4.52352352440357208252e-02) (0, 3.00961360335350036621e-02) (1, 2.42799669504165649414e-02) (2, 1.69172137975692749023e-02) (3, -9.58133935928344726562e-02) (4, 1.86666101217269897461e-03) (5, 5.11983111500740051270e-02) (6, -3.67093831300735473633e-02) (7, 9.41036418080329895020e-02) (8, 1.18936672806739807129e-02) (9, 3.93645241856575012207e-02) (10, 3.90949323773384094238e-02) (11, 8.23590531945228576660e-02) (12, 6.34168609976768493652e-02) (13, 4.31670174002647399902e-02) (14, -4.16718535125255584717e-02) (15, -1.56079530715942382812e-02) (16, -6.16381950676441192627e-02) (17, -5.00281192362308502197e-02) (18, 3.12463715672492980957e-02) (19, -4.09532338380813598633e-03) (20, 3.33776846528053283691e-02) (21, -1.91588625311851501465e-02) (22, -4.29004244506359100342e-02) (23, 1.16163045167922973633e-02) (24, 5.84620758891105651855e-02) (25, -4.52418401837348937988e-02) (26, -3.64928096532821655273e-02) (27, -1.42837688326835632324e-02) (28, 1.66855305433273315430e-02) (29, 7.06470087170600891113e-02) (30, 4.04809936881065368652e-02) (31, -5.32183237373828887939e-02) (32, -5.07302582263946533203e-03) (33, -4.26017902791500091553e-02) (34, -4.90317158401012420654e-02) (35, 9.67936441302299499512e-02) (36, -9.14034843444824218750e-02) (37, 1.42588987946510314941e-02) (38, 9.08972844481468200684e-02) (39, 2.04901844263076782227e-02) (40, -4.63765747845172882080e-02) (41, 2.99922153353691101074e-02) (42, 2.84922122955322265625e-03) (43, -8.29597041010856628418e-02) (44, -2.68407762050628662109e-02) (45, 6.11773803830146789551e-02) (46, 1.43233686685562133789e-03) (47, 1.15210264921188354492e-02) (48, -8.88507515192031860352e-02) (49, -6.73212856054306030273e-02) (50, -9.25742909312248229980e-02) (51, 4.45269420742988586426e-02) (52, 1.35198459029197692871e-02) (53, -3.54747101664543151855e-02) (54, -4.38567586243152618408e-02) (55, -2.80180796980857849121e-02) (56, 1.92834511399269104004e-02) (57, 1.96504220366477966309e-02) (58, 5.76981380581855773926e-02) (59, -6.40310198068618774414e-02) (60, -9.70256328582763671875e-03) (61, -1.82086229324340820312e-03) (62, -1.72493383288383483887e-02) (63, 8.52244123816490173340e-02) (64, 5.55773451924324035645e-02) (65, 3.37189510464668273926e-02) (66, 8.20180550217628479004e-02) (67, 6.41738697886466979980e-02) (68, -5.20221553742885589600e-02) (69, 7.29153379797935485840e-02) (70, -1.53359621763229370117e-02) (71, 1.60126388072967529297e-03) (72, 2.90755182504653930664e-03) (73, 8.75132754445075988770e-02) (74, 1.86415687203407287598e-02) (75, 7.60667696595191955566e-02) (76, 4.86906245350837707520e-02) (77, -7.99260959029197692871e-02) (78, -1.24121978878974914551e-02) (79, 5.98398819565773010254e-02) (80, -4.72473800182342529297e-02) (81, -4.98647987842559814453e-03) (82, 4.36681509017944335938e-03) (83, 6.62724748253822326660e-02) (84, 5.95388039946556091309e-02) (85, 6.05100467801094055176e-02) (86, -6.17456100881099700928e-02) (87, -2.11777538061141967773e-02) (88, -1.98395103216171264648e-02) (89, 9.59525331854820251465e-02) (90, 1.47912278771400451660e-02) (91, 7.04579278826713562012e-02) (92, -5.86833059787750244141e-03) (93, 9.75418910384178161621e-02) (94, 5.56823387742042541504e-02) (95, -5.02909794449806213379e-02) (96, 3.12608405947685241699e-02) (97, 3.77003923058509826660e-02) (98, -8.61171185970306396484e-02) (99, 7.92386755347251892090e-02) (100, 1.06157287955284118652e-02) (0, -1.45307928323745727539e-03) (1, -1.91600546240806579590e-02) (2, -8.64767208695411682129e-02) (3, -1.39398127794265747070e-02) (4, 9.94815155863761901855e-02) (5, 8.95900502800941467285e-02) (6, -6.52491748332977294922e-02) (7, -8.04445818066596984863e-02) (8, -2.28221490979194641113e-02) (9, 9.45907160639762878418e-02) (10, -2.76919603347778320312e-02) (11, 7.21913650631904602051e-02) (12, -1.04247778654098510742e-03) (13, -6.14194944500923156738e-02) (14, 3.17301824688911437988e-02) (15, -4.05324213206768035889e-02) (16, -2.31651067733764648438e-02) (17, -8.94475802779197692871e-02) (18, 3.96280661225318908691e-02) (19, -2.72125750780105590820e-02) (20, 2.53436490893363952637e-02) (21, 1.00859850645065307617e-02) (22, 6.69190958142280578613e-02) (23, 2.28855386376380920410e-02) (24, -3.42316776514053344727e-02) (25, -8.33718776702880859375e-02) (26, -4.58536334335803985596e-02) (27, -9.65312868356704711914e-02) (28, -6.94889873266220092773e-02) (29, -6.66149556636810302734e-02) (30, 1.40844434499740600586e-02) (31, 2.90579274296760559082e-02) (32, 1.42249912023544311523e-02) (33, 2.76077315211296081543e-02) (34, -8.48818793892860412598e-02) (35, 1.37065052986145019531e-02) (36, 1.71977728605270385742e-02) (37, -5.01310564577579498291e-02) (38, 3.32619175314903259277e-02) (39, 9.43756327033042907715e-02) (40, -5.55403493344783782959e-02) (41, -9.44300368428230285645e-02) (42, 6.65670111775398254395e-02) (43, 4.34171780943870544434e-02) (44, -5.58495335280895233154e-02) (45, -1.70283019542694091797e-03) (46, -9.71152484416961669922e-02) (47, 2.09853649139404296875e-02) (48, 8.84959846735000610352e-03) (49, 4.25128266215324401855e-02) (50, 9.37727913260459899902e-02) (51, -6.58067613840103149414e-02) (52, -4.74011972546577453613e-02) (53, 6.06919005513191223145e-02) (54, 5.70787861943244934082e-02) (55, 1.83671265840530395508e-02) (56, 7.73200318217277526855e-02) (57, -8.87748524546623229980e-02) (58, 2.18358412384986877441e-02) (59, -9.21689718961715698242e-02) (60, -5.53898029029369354248e-02) (61, -6.40797093510627746582e-02) (62, 3.68889644742012023926e-02) (63, 5.88351860642433166504e-02) (64, 6.35280236601829528809e-02) (65, 5.20070865750312805176e-02) (66, -2.74583101272583007812e-02) (67, -1.92741900682449340820e-02) (68, -9.81239676475524902344e-02) (69, -9.41963866353034973145e-02) (70, -2.48985588550567626953e-02) (71, -5.36643192172050476074e-02) (72, -8.86264294385910034180e-02) (73, -5.83315566182136535645e-02) (74, 8.97528603672981262207e-02) (75, -4.44759540259838104248e-02) (76, 3.99656221270561218262e-02) (77, 9.26376059651374816895e-02) (78, 7.65094086527824401855e-02) (79, -5.11847883462905883789e-02) (80, 3.51504310965538024902e-02) (81, 7.02821984887123107910e-02) (82, -1.69915407896041870117e-02) (83, 8.77492353320121765137e-02) (84, 3.09740975499153137207e-02) (85, -5.99127672612667083740e-02) (86, 6.11635297536849975586e-03) (87, 8.29412788152694702148e-03) (88, -4.86876145005226135254e-02) (89, -7.20477998256683349609e-02) (90, 1.61251574754714965820e-02) (91, -4.07741963863372802734e-03) (92, -3.61275076866149902344e-02) (93, -4.69858758151531219482e-02) (94, -4.52422313392162322998e-02) (95, -7.25994855165481567383e-02) (96, -9.49787944555282592773e-02) (97, 2.72994711995124816895e-02) (98, 8.12631845474243164062e-03) (99, -9.31027606129646301270e-02) (100, 3.31030711531639099121e-02) (0, 8.32277610898017883301e-02) (1, -4.67670820653438568115e-02) (2, 4.44766357541084289551e-02) (3, -7.51037970185279846191e-02) (4, -5.70142231881618499756e-02) (5, -9.99993160367012023926e-02) (6, 6.48618265986442565918e-02) (7, -6.43766149878501892090e-02) (8, 7.65100941061973571777e-02) (9, -8.63229706883430480957e-02) (10, 7.07738175988197326660e-02) (11, 4.67922911047935485840e-02) (12, -3.31450998783111572266e-03) (13, 5.85230514407157897949e-02) (14, -2.22336053848266601562e-02) (15, 3.67727354168891906738e-02) (16, -3.53605970740318298340e-02) (17, 8.60605314373970031738e-02) (18, 8.80851224064826965332e-02) (19, -7.40840286016464233398e-03) (20, 2.18567997217178344727e-03) (21, -1.59922987222671508789e-02) (22, 5.64640834927558898926e-02) (23, 5.51998093724250793457e-02) (24, 3.87654677033424377441e-02) (25, 8.38646069169044494629e-02) (26, 6.02210089564323425293e-02) (27, -3.39350774884223937988e-02) (28, -8.00907611846923828125e-03) (29, 6.71182498335838317871e-02) (30, 9.91679951548576354980e-02) (31, -2.47813239693641662598e-02) (32, -7.96488299965858459473e-02) (33, 4.36446443200111389160e-02) (34, 1.14880502223968505859e-04) (35, -3.66630554199218750000e-02) (36, 4.36453297734260559082e-02) (37, -3.50232943892478942871e-02) (38, -1.03966891765594482422e-03) (39, 2.01554149389266967773e-02) (40, -2.13462635874748229980e-02) (41, -3.02658528089523315430e-02) (42, -3.30522879958152770996e-02) (43, 7.53392204642295837402e-02) (44, -7.17428103089332580566e-02) (45, 4.47141006588935852051e-02) (46, 1.21119469404220581055e-02) (47, -7.10341334342956542969e-03) (48, 3.07746306061744689941e-02) (49, 1.97052955627441406250e-04) (50, 8.54881927371025085449e-02) (51, -6.70396909117698669434e-02) (52, 8.42047557234764099121e-02) (53, 4.19522747397422790527e-02) (54, 8.81601050496101379395e-02) (55, 2.29702219367027282715e-02) (56, 2.58168801665306091309e-02) (57, 4.83811125159263610840e-02) (58, 8.90351459383964538574e-02) (59, -8.21922048926353454590e-02) (60, 1.54993683099746704102e-02) (61, 8.82031396031379699707e-02) (62, -6.97351992130279541016e-03) (63, 3.58505323529243469238e-02) (64, 3.18477824330329895020e-02) (65, 9.31413695216178894043e-02) (66, 9.91874858736991882324e-02) (67, -2.45069041848182678223e-02) (68, -4.18819375336170196533e-02) (69, -1.85219198465347290039e-03) (70, 9.56485196948051452637e-02) (71, 3.67717966437339782715e-02) (72, 6.78819492459297180176e-02) (73, -3.74037697911262512207e-02) (74, 1.21110230684280395508e-02) (75, 9.61391404271125793457e-02) (76, -9.26896631717681884766e-02) (77, -7.57770389318466186523e-02) (78, -1.09642744064331054688e-02) (79, 3.80849763751029968262e-02) (80, 2.44200229644775390625e-02) (81, -2.54760906100273132324e-02) (82, 7.10452869534492492676e-02) (83, 8.62476974725723266602e-03) (84, -8.35238173604011535645e-02) (85, 5.92053905129432678223e-02) (86, -6.84050098061561584473e-02) (87, 4.22930642962455749512e-02) (88, 7.58651643991470336914e-03) (89, -7.93698653578758239746e-02) (90, 6.01008608937263488770e-02) (91, -7.69141241908073425293e-02) (92, -9.11667272448539733887e-02) (93, -4.68726642429828643799e-02) (94, 5.89364096522331237793e-02) (95, 4.06810566782951354980e-02) (96, -5.37313036620616912842e-02) (97, 5.81238940358161926270e-02) (98, -8.38258564472198486328e-02) (99, 4.38676029443740844727e-03) (100, -4.37283031642436981201e-02) (0, -8.81773382425308227539e-02) (1, -5.88414482772350311279e-02) (2, -7.58463516831398010254e-02) (3, -2.55811065435409545898e-02) (4, 5.32695725560188293457e-02) (5, -7.97072201967239379883e-02) (6, -1.82707607746124267578e-02) (7, 7.74925425648689270020e-02) (8, 9.32850688695907592773e-03) (9, -8.01857858896255493164e-02) (10, 1.91254913806915283203e-03) (11, 8.38524177670478820801e-02) (12, 9.08594951033592224121e-02) (13, -8.94626751542091369629e-02) (14, -9.96714010834693908691e-02) (15, 5.00648841261863708496e-02) (16, -5.78676834702491760254e-02) (17, 4.26216647028923034668e-02) (18, -4.23486009240150451660e-02) (19, -3.72375473380088806152e-02) (20, 2.72251665592193603516e-03) (21, -1.92627161741256713867e-02) (22, -2.84042805433273315430e-02) (23, 5.58498576283454895020e-02) (24, -6.03263080120086669922e-02) (25, -8.77232253551483154297e-02) (26, -9.78814512491226196289e-02) (27, 9.77975800633430480957e-02) (28, -7.15490803122520446777e-02) (29, 6.50529563426971435547e-03) (30, -4.59307245910167694092e-02) (31, -5.97264133393764495850e-02) (32, 4.76638600230216979980e-02) (33, -2.17770785093307495117e-02) (34, 1.46924853324890136719e-02) (35, 9.33423638343811035156e-04) (36, -1.48428976535797119141e-03) (37, 9.64217260479927062988e-02) (38, -2.15740427374839782715e-02) (39, -9.21557843685150146484e-02) (40, -8.37640613317489624023e-02) (41, 8.03385004401206970215e-02) (42, 9.16966274380683898926e-02) (43, -9.29045677185058593750e-02) (44, 9.08758267760276794434e-02) (45, 9.20252278447151184082e-02) (46, 5.71603253483772277832e-02) (47, -6.69918507337570190430e-02) (48, 3.46468910574913024902e-02) (49, -8.51882770657539367676e-02) (50, -4.22939658164978027344e-03) (51, -6.26305937767028808594e-02) (52, -4.45099174976348876953e-03) (53, 6.73663243651390075684e-02) (54, 9.32192578911781311035e-02) (55, 3.52227017283439636230e-02) (56, 7.96430930495262145996e-02) (57, 9.53378155827522277832e-02) (58, 3.30202654004096984863e-02) (59, -9.19059813022613525391e-02) (60, 1.84310972690582275391e-03) (61, 8.70895460247993469238e-02) (62, -5.16323931515216827393e-02) (63, -5.04930354654788970947e-02) (64, -3.46875265240669250488e-02) (65, 6.30600973963737487793e-02) (66, 5.04403784871101379395e-02) (67, 6.38281777501106262207e-02) (68, 5.94818070530891418457e-02) (69, -7.11336582899093627930e-02) (70, 7.16723874211311340332e-02) (71, 7.57177546620368957520e-02) (72, -9.07951518893241882324e-02) (73, 6.33690282702445983887e-02) (74, 8.28131809830665588379e-02) (75, -9.99193191528320312500e-02) (76, 5.53942546248435974121e-02) (77, 3.99735048413276672363e-02) (78, -6.69111683964729309082e-02) (79, -9.95884835720062255859e-03) (80, 5.47852292656898498535e-02) (81, 2.88594439625740051270e-02) (82, 2.74105742573738098145e-02) (83, -4.96657676994800567627e-02) (84, -3.77424061298370361328e-03) (85, 2.06298232078552246094e-02) (86, 8.55569317936897277832e-02) (87, -2.41311416029930114746e-02) (88, 1.59676298499107360840e-02) (89, 1.85772031545639038086e-02) (90, -1.60371214151382446289e-02) (91, -8.21892619132995605469e-02) (92, 5.66675513982772827148e-03) (93, 3.23304906487464904785e-02) (94, -3.26822921633720397949e-02) (95, 7.09792450070381164551e-02) (96, -4.60942089557647705078e-03) (97, -8.22419077157974243164e-02) (98, 3.48074063658714294434e-02) (99, -4.51276078820228576660e-02) (100, -5.33755607903003692627e-02) (0, 6.47981464862823486328e-03) (1, -6.94098547101020812988e-02) (2, -4.41707074642181396484e-02) (3, -3.01511660218238830566e-02) (4, -8.65966752171516418457e-02) (5, -4.40900288522243499756e-02) (6, -7.47569054365158081055e-02) (7, 5.33768311142921447754e-02) (8, -1.10011920332908630371e-02) (9, 1.52842551469802856445e-02) (10, 8.16205888986587524414e-03) (11, -8.21417570114135742188e-02) (12, -5.73051907122135162354e-02) (13, 5.84963038563728332520e-02) (14, 1.40839964151382446289e-02) (15, 6.33246377110481262207e-02) (16, 4.40532341599464416504e-02) (17, 8.99528488516807556152e-02) (18, -2.07077339291572570801e-02) (19, -3.73695641756057739258e-02) (20, -2.60842666029930114746e-02) (21, -2.89698690176010131836e-03) (22, 6.82971999049186706543e-02) (23, -9.37537848949432373047e-02) (24, 6.44207075238227844238e-02) (25, 3.92764285206794738770e-02) (26, 1.63678824901580810547e-03) (27, 8.21788236498832702637e-02) (28, -2.59161591529846191406e-02) (29, 5.65091893076896667480e-02) (30, -7.11967498064041137695e-02) (31, 8.05636420845985412598e-02) (32, 8.70993211865425109863e-02) (33, -1.53674557805061340332e-02) (34, -4.95875179767608642578e-02) (35, -9.94973480701446533203e-02) (36, 4.05425205826759338379e-02) (37, -2.43444293737411499023e-02) (38, 5.38794919848442077637e-02) (39, -7.04586729407310485840e-02) (40, 9.09398272633552551270e-02) (41, -3.79584506154060363770e-02) (42, -5.26004321873188018799e-02) (43, -6.63653686642646789551e-02) (44, -7.94621556997299194336e-02) (45, 6.14835694432258605957e-02) (46, 9.69592705368995666504e-02) (47, 6.45910724997520446777e-02) (48, 5.14364317059516906738e-02) (49, -2.37484648823738098145e-02) (50, -7.27784857153892517090e-02) (51, -7.46478438377380371094e-02) (52, 7.33545497059822082520e-02) (53, 9.55187156796455383301e-02) (54, -6.84016346931457519531e-02) (55, 3.77752706408500671387e-02) (56, 3.47951427102088928223e-02) (57, 3.32351550459861755371e-02) (58, 1.99540704488754272461e-02) (59, -9.11210253834724426270e-02) (60, -1.02556571364402770996e-02) (61, 4.87573221325874328613e-02) (62, 8.94426181912422180176e-02) (63, -2.31563299894332885742e-02) (64, -6.66101276874542236328e-02) (65, -6.01448975503444671631e-02) (66, -2.26536765694618225098e-02) (67, 7.39324018359184265137e-02) (68, 1.55106782913208007812e-02) (69, -6.87741860747337341309e-02) (70, -9.65262725949287414551e-02) (71, 6.45049661397933959961e-03) (72, -6.73263520002365112305e-03) (73, -4.91267032921314239502e-02) (74, 4.00851443409919738770e-02) (75, 1.38052105903625488281e-02) (76, -8.76431390643119812012e-02) (77, 3.70444133877754211426e-02) (78, -2.16037109494209289551e-02) (79, 6.37932792305946350098e-02) (80, -8.67040604352951049805e-02) (81, 5.61781227588653564453e-03) (82, 8.91454294323921203613e-02) (83, 8.66504833102226257324e-02) (84, 1.13651901483535766602e-03) (85, -7.92561993002891540527e-02) (86, 2.44257450103759765625e-02) (87, -6.40683472156524658203e-02) (88, 5.39789721369743347168e-02) (89, -5.56201785802841186523e-02) (90, -5.51893673837184906006e-02) (91, -5.62766939401626586914e-02) (92, 9.31371524930000305176e-02) (93, -6.57467469573020935059e-02) (94, 2.05669775605201721191e-02) (95, -7.34729692339897155762e-02) (96, -2.58916467428207397461e-02) (97, 9.79133024811744689941e-02) (98, -9.95405688881874084473e-02) (99, 8.96190479397773742676e-02) (100, -7.08608850836753845215e-02) (0, -9.60668474435806274414e-02) (1, -3.93046438694000244141e-03) (2, 2.24064812064170837402e-02) (3, -4.51935492455959320068e-02) (4, -6.38453289866447448730e-02) (5, -6.37883096933364868164e-02) (6, -3.28366905450820922852e-02) (7, 7.31990858912467956543e-02) (8, 1.46079808473587036133e-02) (9, -6.90434053540229797363e-02) (10, 8.64950194954872131348e-02) (11, -7.97742158174514770508e-02) (12, -7.98979699611663818359e-02) (13, 7.31455013155937194824e-02) (14, 2.13623046875000000000e-02) (15, -5.91541640460491180420e-02) (16, -2.42875516414642333984e-03) (17, 5.72939589619636535645e-02) (18, 9.48247984051704406738e-02) (19, 4.19510677456855773926e-02) (20, -9.78954136371612548828e-02) (21, -6.14518970251083374023e-02) (22, 3.50882187485694885254e-02) (23, -6.36421591043472290039e-02) (24, 5.91150745749473571777e-02) (25, 6.16152510046958923340e-02) (26, 1.04662030935287475586e-02) (27, 5.70283755660057067871e-02) (28, 6.20746836066246032715e-02) (29, 8.52346420288085937500e-05) (30, 8.61674919724464416504e-02) (31, 6.60078451037406921387e-02) (32, 9.61547717452049255371e-02) (33, 8.57397168874740600586e-03) (34, -7.91857093572616577148e-02) (35, -6.76905512809753417969e-02) (36, 4.47856709361076354980e-02) (37, -1.20223909616470336914e-02) (38, -9.44914743304252624512e-02) (39, -4.06063497066497802734e-02) (40, 1.89342051744461059570e-02) (41, 9.20035317540168762207e-02) (42, -2.03805640339851379395e-02) (43, 3.90362367033958435059e-02) (44, 6.51490315794944763184e-02) (45, -9.90182608366012573242e-02) (46, 7.98820778727531433105e-02) (47, -3.72797176241874694824e-02) (48, 5.82757070660591125488e-02) (49, 7.47068747878074645996e-02) (50, -9.53286513686180114746e-02) (51, 6.03802874684333801270e-02) (52, -8.67450237274169921875e-02) (53, 3.97595688700675964355e-02) (54, 9.67381373047828674316e-02) (55, 7.23700597882270812988e-02) (56, 1.37481838464736938477e-03) (57, 7.20433890819549560547e-03) (58, 2.93984487652778625488e-02) (59, -3.65504994988441467285e-02) (60, -9.27104204893112182617e-02) (61, 1.55659317970275878906e-02) (62, -7.05426558852195739746e-02) (63, -9.65556427836418151855e-02) (64, -7.58600980043411254883e-02) (65, -4.97283637523651123047e-02) (66, -6.42461925745010375977e-02) (67, 6.89255669713020324707e-02) (68, 3.82492467761039733887e-02) (69, -5.87376728653907775879e-02) (70, -7.16807842254638671875e-02) (71, -4.28165569901466369629e-02) (72, -6.67341351509094238281e-02) (73, 7.93866068124771118164e-03) (74, 9.62196812033653259277e-02) (75, 9.84149053692817687988e-02) (76, 8.92039388418197631836e-03) (77, 7.61017426848411560059e-02) (78, -3.88648174703121185303e-02) (79, -3.28039005398750305176e-02) (80, 5.08086159825325012207e-02) (81, -3.41934710741043090820e-02) (82, -7.24236071109771728516e-02) (83, 6.40636011958122253418e-02) (84, -9.44339036941528320312e-02) (85, -7.56854638457298278809e-02) (86, 3.64336445927619934082e-02) (87, 6.94092363119125366211e-03) (88, 3.15188840031623840332e-02) (89, -3.41679155826568603516e-02) (90, 7.03904256224632263184e-02) (91, 3.88084575533866882324e-02) (92, 8.13980177044868469238e-02) (93, 9.98477712273597717285e-02) (94, 4.22528162598609924316e-02) (95, -9.44620743393898010254e-02) (96, -4.98805940151214599609e-02) (97, 7.80066177248954772949e-02) (98, 7.44634941220283508301e-02) (99, 8.83686468005180358887e-02) (100, -8.07310566306114196777e-02) (0, -9.72172841429710388184e-02) (1, -5.44479154050350189209e-02) (2, -4.74651865661144256592e-02) (3, 1.07213705778121948242e-02) (4, -5.82282356917858123779e-02) (5, -4.90502826869487762451e-02) (6, -8.03582295775413513184e-02) (7, -8.21264907717704772949e-02) (8, 1.20849013328552246094e-02) (9, -1.31621211767196655273e-02) (10, 6.86821416020393371582e-02) (11, 7.78914317488670349121e-02) (12, 1.44142732024192810059e-02) (13, 3.27457264065742492676e-02) (14, 8.34575369954109191895e-02) (15, 3.87288108468055725098e-02) (16, -3.08206230401992797852e-02) (17, -9.60154831409454345703e-03) (18, -2.97523140907287597656e-02) (19, 3.50114628672599792480e-02) (20, -3.92111241817474365234e-02) (21, -9.09438580274581909180e-02) (22, 1.64094790816307067871e-02) (23, -3.93633618950843811035e-02) (24, 5.13089522719383239746e-02) (25, 2.19474062323570251465e-02) (26, 1.07560381293296813965e-02) (27, 2.93155834078788757324e-02) (28, -3.58910113573074340820e-03) (29, -8.75309109687805175781e-04) (30, 4.85845282673835754395e-02) (31, -8.06383788585662841797e-04) (32, 4.46767881512641906738e-02) (33, -9.88806709647178649902e-02) (34, -9.00850147008895874023e-02) (35, 8.64485427737236022949e-02) (36, -4.79309558868408203125e-02) (37, -7.04432427883148193359e-02) (38, -9.56779494881629943848e-02) (39, 6.41539469361305236816e-02) (40, 1.63946300745010375977e-02) (41, 7.30041936039924621582e-02) (42, 4.20453771948814392090e-02) (43, -6.91910982131958007812e-02) (44, 5.74990361928939819336e-03) (45, 2.55029127001762390137e-02) (46, 6.95377066731452941895e-02) (47, 7.49292895197868347168e-02) (48, -8.40986445546150207520e-02) (49, -6.02146089076995849609e-02) (50, 9.94074344635009765625e-03) (51, -2.33097672462463378906e-02) (52, -5.11584691703319549561e-02) (53, -7.36497789621353149414e-02) (54, 3.73268797993659973145e-02) (55, -9.98495146632194519043e-02) (56, 4.82976213097572326660e-02) (57, -5.19170835614204406738e-02) (58, 2.94660553336143493652e-02) (59, -5.52914775907993316650e-02) (60, 4.72076013684272766113e-02) (61, -2.19494253396987915039e-02) (62, 4.39021363854408264160e-02) (63, -8.11561942100524902344e-03) (64, -2.08300873637199401855e-02) (65, 5.38171306252479553223e-02) (66, -2.16670781373977661133e-02) (67, 3.12389656901359558105e-02) (68, 8.33738818764686584473e-02) (69, -1.73450261354446411133e-02) (70, -4.60709631443023681641e-03) (71, -2.31489539146423339844e-04) (72, -4.43408451974391937256e-02) (73, -6.25617206096649169922e-02) (74, 3.05774286389350891113e-02) (75, 6.14090636372566223145e-02) (76, 6.29412010312080383301e-02) (77, 1.15118920803070068359e-04) (78, 3.63383516669273376465e-02) (79, 7.88425430655479431152e-02) (80, 3.99005189538002014160e-02) (81, -5.37209063768386840820e-02) (82, -4.44672219455242156982e-02) (83, 8.87420400977134704590e-02) (84, -2.73706838488578796387e-02) (85, 9.28596481680870056152e-02) (86, 8.88925269246101379395e-02) (87, -7.90730565786361694336e-02) (88, -5.90574294328689575195e-02) (89, 1.83585882186889648438e-02) (90, -3.43645364046096801758e-02) (91, 8.81501808762550354004e-02) (92, 9.64091643691062927246e-02) (93, -9.04623940587043762207e-02) (94, -1.99654400348663330078e-02) (95, -2.44209170341491699219e-02) (96, 6.33547380566596984863e-02) (97, 5.83674833178520202637e-02) (98, -9.31819602847099304199e-02) (99, 4.67286184430122375488e-02) (100, -5.89775480329990386963e-02) (0, 2.21093744039535522461e-03) (1, -5.35028800368309020996e-02) (2, -3.31839174032211303711e-03) (3, 3.96492257714271545410e-02) (4, 7.70745351910591125488e-02) (5, -4.19093333184719085693e-02) (6, 2.59041786193847656250e-03) (7, -2.28103399276733398438e-02) (8, 9.44290235638618469238e-02) (9, -1.85670405626296997070e-02) (10, -8.29098224639892578125e-02) (11, -5.92918880283832550049e-02) (12, 3.69657352566719055176e-02) (13, -9.41677838563919067383e-02) (14, 1.33374333381652832031e-02) (15, 2.98253968358039855957e-02) (16, 9.47247520089149475098e-02) (17, 3.42643782496452331543e-02) (18, 7.07679614424705505371e-02) (19, 1.30833387374877929688e-02) (20, 9.98998358845710754395e-02) (21, 5.89181408286094665527e-02) (22, 9.49251651763916015625e-03) (23, -9.05625522136688232422e-02) (24, -6.10472969710826873779e-02) (25, 8.50715860724449157715e-02) (26, 7.27921798825263977051e-02) (27, 9.73201915621757507324e-02) (28, 9.18896272778511047363e-02) (29, 1.95207819342613220215e-02) (30, -6.16573654115200042725e-02) (31, -5.89942932128906250000e-03) (32, 6.60179033875465393066e-02) (33, 3.50242331624031066895e-02) (34, -6.62502050399780273438e-02) (35, 4.30924370884895324707e-02) (36, 9.31149199604988098145e-02) (37, 3.63402143120765686035e-02) (38, -7.97178968787193298340e-02) (39, 8.75439271330833435059e-02) (40, -8.22268277406692504883e-02) (41, -6.26277178525924682617e-02) (42, -7.17479512095451354980e-02) (43, 5.47389164566993713379e-02) (44, -5.67955039441585540771e-02) (45, 4.15894761681556701660e-02) (46, -1.54356881976127624512e-02) (47, -6.20707534253597259521e-02) (48, -2.41461470723152160645e-02) (49, -4.46677207946777343750e-02) (50, 5.10125830769538879395e-02) (51, -2.42463052272796630859e-02) (52, -8.57495814561843872070e-02) (53, -3.94948981702327728271e-02) (54, -1.48088559508323669434e-02) (55, -4.67968769371509552002e-02) (56, -5.44233061373233795166e-02) (57, -4.20166850090026855469e-02) (58, -4.94766905903816223145e-02) (59, -6.25336766242980957031e-02) (60, 7.75041058659553527832e-02) (61, -1.11340582370758056641e-02) (62, 3.15668955445289611816e-02) (63, 4.35220077633857727051e-02) (64, -7.61098116636276245117e-02) (65, 6.53166994452476501465e-02) (66, -1.33855491876602172852e-02) (67, -8.29949006438255310059e-02) (68, 1.65691226720809936523e-03) (69, 6.89655542373657226562e-03) (70, -9.54509675502777099609e-02) (71, 1.94300860166549682617e-02) (72, 4.42688390612602233887e-02) (73, -6.71989172697067260742e-02) (74, -2.58309990167617797852e-02) (75, 8.74733254313468933105e-02) (76, 7.43905529379844665527e-02) (77, 5.87333068251609802246e-02) (78, -7.45974257588386535645e-02) (79, -4.97555844485759735107e-02) (80, -8.59344080090522766113e-02) (81, 7.64151588082313537598e-02) (82, 2.59981080889701843262e-02) (83, -7.16839879751205444336e-02) (84, -6.30797371268272399902e-02) (85, -8.88107493519783020020e-02) (86, -1.84808596968650817871e-02) (87, -1.75030380487442016602e-02) (88, -3.08274328708648681641e-02) (89, 3.20424512028694152832e-02) (90, 1.99632868170738220215e-02) (91, -5.33233359456062316895e-02) (92, -7.90916085243225097656e-02) (93, -4.84698191285133361816e-02) (94, 9.01986733078956604004e-02) (95, -5.52014224231243133545e-02) (96, -8.31531211733818054199e-02) (97, -2.31868848204612731934e-02) (98, -3.81963253021240234375e-02) (99, 1.85038000345230102539e-02) (100, 8.37096646428108215332e-02) (0, -3.36472913622856140137e-02) (1, -6.20661266148090362549e-02) (2, 2.79784873127937316895e-02) (3, -8.46214592456817626953e-04) (4, 1.21028795838356018066e-02) (5, 1.54518261551856994629e-02) (6, -2.64556556940078735352e-02) (7, -2.91638150811195373535e-02) (8, 4.08544018864631652832e-02) (9, 2.37887650728225708008e-02) (10, -1.50982216000556945801e-02) (11, 1.72695666551589965820e-02) (12, -5.02131357789039611816e-02) (13, 1.32177919149398803711e-02) (14, 5.41898235678672790527e-02) (15, -3.90238836407661437988e-02) (16, 9.47369411587715148926e-02) (17, -6.33132159709930419922e-02) (18, 3.01486924290657043457e-02) (19, 2.67793759703636169434e-02) (20, 5.66500648856163024902e-02) (21, 7.68253430724143981934e-02) (22, 4.76877763867378234863e-02) (23, -9.18197482824325561523e-02) (24, 6.70240148901939392090e-02) (25, 9.24863442778587341309e-02) (26, -7.49728679656982421875e-02) (27, -5.61628676950931549072e-02) (28, -4.57099787890911102295e-02) (29, 4.35309335589408874512e-02) (30, -7.24532008171081542969e-02) (31, 2.06427350640296936035e-02) (32, 8.14648047089576721191e-02) (33, 5.55252954363822937012e-02) (34, -8.02034810185432434082e-02) (35, -6.43232464790344238281e-03) (36, -2.90228873491287231445e-02) (37, -6.65913522243499755859e-03) (38, 6.44038692116737365723e-02) (39, -8.81684944033622741699e-02) (40, -8.28703790903091430664e-02) (41, -5.06943576037883758545e-02) (42, 2.91010811924934387207e-02) (43, -3.30835133790969848633e-02) (44, 6.25234320759773254395e-02) (45, -1.67091041803359985352e-02) (46, 2.78925970196723937988e-02) (47, 5.72603717446327209473e-02) (48, 1.99776738882064819336e-02) (49, -4.19587157666683197021e-02) (50, -1.59602612257003784180e-02) (51, -2.33722552657127380371e-02) (52, -6.51333630084991455078e-02) (53, -6.82724863290786743164e-02) (54, -1.51920020580291748047e-02) (55, -9.81093421578407287598e-02) (56, -7.57861435413360595703e-02) (57, 9.83513891696929931641e-03) (58, -5.42722083628177642822e-02) (59, -2.14961171150207519531e-02) (60, -4.66339401900768280029e-02) (61, -2.67254039645195007324e-02) (62, 9.91466119885444641113e-02) (63, -6.51691406965255737305e-02) (64, -7.12001100182533264160e-02) (65, -8.10568705201148986816e-02) (66, 2.83985361456871032715e-02) (67, -2.22995877265930175781e-04) (68, 1.22839957475662231445e-02) (69, -7.19759613275527954102e-03) (70, 1.16085186600685119629e-02) (71, 2.94136181473731994629e-02) (72, 4.21080514788627624512e-02) (73, -5.92904202640056610107e-02) (74, 9.63301137089729309082e-02) (75, 4.63148206472396850586e-03) (76, 2.40004807710647583008e-02) (77, 2.42227092385292053223e-02) (78, -3.81081514060497283936e-02) (79, -5.60218542814254760742e-02) (80, 8.22639986872673034668e-02) (81, 4.59315851330757141113e-02) (82, 2.06058844923973083496e-02) (83, -8.28693658113479614258e-02) (84, 7.76591077446937561035e-02) (85, -9.45861190557479858398e-02) (86, -8.09787064790725708008e-02) (87, -9.81270372867584228516e-02) (88, 1.52490139007568359375e-02) (89, -3.52509170770645141602e-02) (90, -1.96231454610824584961e-02) (91, 6.86150863766670227051e-02) (92, 3.80236729979515075684e-02) (93, -2.04765349626541137695e-02) (94, -9.65540632605552673340e-02) (95, 6.68235644698143005371e-02) (96, -1.53340399265289306641e-03) (97, 3.18444892764091491699e-02) (98, -3.33994328975677490234e-02) (99, -8.92494171857833862305e-02) (100, -7.53531157970428466797e-02) (0, 7.82090798020362854004e-02) (1, 4.01642099022865295410e-02) (2, 6.67549446225166320801e-02) (3, -8.10813382267951965332e-02) (4, 3.64943072199821472168e-02) (5, -2.86135822534561157227e-02) (6, 4.29191365838050842285e-02) (7, -3.92829887568950653076e-02) (8, 3.32782641053199768066e-02) (9, 8.68972763419151306152e-02) (10, -5.70189915597438812256e-02) (11, -2.07901448011398315430e-02) (12, 7.50317424535751342773e-03) (13, -3.98883596062660217285e-02) (14, -4.31310348212718963623e-02) (15, 1.29170566797256469727e-02) (16, -2.08670645952224731445e-02) (17, -4.12580668926239013672e-02) (18, -7.18339234590530395508e-02) (19, 4.38820198178291320801e-02) (20, 3.91187742352485656738e-02) (21, 9.67811569571495056152e-02) (22, -1.80943086743354797363e-02) (23, -8.13577622175216674805e-02) (24, -9.97729077935218811035e-02) (25, -5.12707419693470001221e-02) (26, 1.71088352799415588379e-02) (27, 3.20715829730033874512e-02) (28, 1.53298228979110717773e-02) (29, 2.78594270348548889160e-02) (30, 5.67184612154960632324e-02) (31, -6.46109133958816528320e-03) (32, -3.19763720035552978516e-02) (33, 2.34733968973159790039e-02) (34, 1.24575719237327575684e-02) (35, -9.54820662736892700195e-02) (36, 9.48598161339759826660e-02) (37, -4.46232929825782775879e-02) (38, -3.47650572657585144043e-02) (39, 2.81380787491798400879e-02) (40, -5.77260069549083709717e-02) (41, 8.21594893932342529297e-03) (42, -9.26520600914955139160e-02) (43, 4.97771576046943664551e-02) (44, 6.83275982737541198730e-02) (45, -3.57830971479415893555e-02) (46, -3.73057797551155090332e-02) (47, -5.25394789874553680420e-02) (48, 2.29588374495506286621e-02) (49, -9.13970172405242919922e-03) (50, 9.13425460457801818848e-02) (51, -3.79223898053169250488e-02) (52, -1.23585462570190429688e-02) (53, -2.67517641186714172363e-02) (54, -1.92801430821418762207e-02) (55, -1.21314525604248046875e-02) (56, 2.19774991273880004883e-02) (57, 9.78286936879158020020e-02) (58, -8.00598785281181335449e-02) (59, -6.26926794648170471191e-02) (60, 2.56881192326545715332e-02) (61, 7.66585841774940490723e-02) (62, 3.08462306857109069824e-02) (63, 9.37117412686347961426e-02) (64, 1.31979584693908691406e-04) (65, -5.66961951553821563721e-02) (66, 9.82296690344810485840e-02) (67, -5.00821322202682495117e-03) (68, -1.31948292255401611328e-03) (69, -3.65353822708129882812e-02) (70, -7.68701359629631042480e-02) (71, 4.09545078873634338379e-02) (72, 7.16805681586265563965e-02) (73, -6.95222020149230957031e-02) (74, -9.26832854747772216797e-03) (75, 4.00081649422645568848e-02) (76, -5.30529767274856567383e-03) (77, 5.34259006381034851074e-02) (78, 8.74686911702156066895e-02) (79, -8.23464617133140563965e-02) (80, -5.57137988507747650146e-02) (81, 7.88112357258796691895e-02) (82, -2.02688425779342651367e-02) (83, 3.19276526570320129395e-02) (84, -4.79405410587787628174e-02) (85, 6.04510083794593811035e-02) (86, -8.02038013935089111328e-02) (87, 7.40369632840156555176e-02) (88, 5.82797005772590637207e-02) (89, -6.02636784315109252930e-02) (90, -8.86557251214981079102e-02) (91, -1.60321816802024841309e-02) (92, -8.36051031947135925293e-02) (93, 4.21904996037483215332e-02) (94, -2.23204344511032104492e-02) (95, 1.65268629789352416992e-02) (96, 8.54943171143531799316e-02) (97, -2.40907594561576843262e-02) (98, -8.84813442826271057129e-02) (99, -1.58251672983169555664e-02) (100, 3.93738523125648498535e-02) (0, -6.53514862060546875000e-02) (1, -7.48706609010696411133e-02) (2, 1.10544189810752868652e-02) (3, -3.48736792802810668945e-02) (4, 1.58610120415687561035e-02) (5, -4.89374175667762756348e-02) (6, 5.98210170865058898926e-02) (7, -3.07130813598632812500e-02) (8, -6.14687316119670867920e-02) (9, 7.74745568633079528809e-02) (10, 1.35731250047683715820e-02) (11, -8.26575085520744323730e-02) (12, -4.27942872047424316406e-02) (13, -5.44992312788963317871e-02) (14, -3.05980518460273742676e-02) (15, -8.23432803153991699219e-02) (16, -3.47030311822891235352e-02) (17, -5.65610937774181365967e-02) (18, 7.59364292025566101074e-02) (19, 5.03329187631607055664e-03) (20, -4.52168248593807220459e-02) (21, -4.00957651436328887939e-02) (22, 2.14281901717185974121e-02) (23, 9.69736948609352111816e-02) (24, 3.75837907195091247559e-02) (25, -6.20449371635913848877e-02) (26, 8.24679955840110778809e-02) (27, -8.65069702267646789551e-02) (28, -5.05262836813926696777e-02) (29, -3.33571657538414001465e-02) (30, 5.28668835759162902832e-02) (31, -1.58777683973312377930e-02) (32, -8.22783261537551879883e-03) (33, -3.60786840319633483887e-02) (34, 4.92485538125038146973e-02) (35, -9.23668146133422851562e-02) (36, 1.49839073419570922852e-02) (37, 9.06957685947418212891e-03) (38, -2.30798944830894470215e-02) (39, 5.35151734948158264160e-02) (40, -1.34558677673339843750e-02) (41, 9.04932245612144470215e-02) (42, 7.08576515316963195801e-02) (43, 4.37498465180397033691e-02) (44, -6.40060082077980041504e-02) (45, -5.97403906285762786865e-02) (46, 6.14065602421760559082e-02) (47, 1.29096210002899169922e-03) (48, -1.63014903664588928223e-02) (49, 3.73429730534553527832e-02) (50, -9.36757475137710571289e-02) (51, 3.84816899895668029785e-02) (52, 9.72472205758094787598e-02) (53, 2.77524515986442565918e-02) (54, 3.54553833603858947754e-02) (55, 3.48310098052024841309e-02) (56, 6.57075121998786926270e-02) (57, 1.79233774542808532715e-02) (58, 4.83240559697151184082e-02) (59, -8.48187804222106933594e-02) (60, 8.45662131905555725098e-02) (61, 1.19093805551528930664e-03) (62, -6.96539878845214843750e-04) (63, -2.36616209149360656738e-02) (64, 6.51122406125068664551e-02) (65, -5.14479875564575195312e-02) (66, -1.60284265875816345215e-02) (67, -1.99038535356521606445e-02) (68, 5.76215907931327819824e-02) (69, 6.08916804194450378418e-02) (70, -6.63886815309524536133e-02) (71, -5.58342821896076202393e-02) (72, 5.13849034905433654785e-02) (73, -9.55310314893722534180e-02) (74, 8.79155620932579040527e-02) (75, 8.73788818717002868652e-02) (76, -5.52714169025421142578e-02) (77, 4.93221357464790344238e-02) (78, -1.13301500678062438965e-02) (79, 2.84270867705345153809e-02) (80, -1.33348926901817321777e-02) (81, -5.00589609146118164062e-03) (82, -3.30912172794342041016e-02) (83, -1.60876736044883728027e-02) (84, -7.72534534335136413574e-02) (85, -9.76358354091644287109e-02) (86, -8.12566652894020080566e-02) (87, 8.84540602564811706543e-02) (88, 2.02875509858131408691e-02) (89, 6.70673921704292297363e-02) (90, -9.63647216558456420898e-02) (91, 4.85376268625259399414e-03) (92, -3.17416787147521972656e-02) (93, 2.93873250484466552734e-03) (94, 8.11921432614326477051e-02) (95, -6.66294246912002563477e-02) (96, 5.14907464385032653809e-02) (97, -3.48362922668457031250e-02) (98, 1.34667158126831054688e-02) (99, 9.11233574151992797852e-03) (100, -7.39446133375167846680e-02) (0, 4.70780357718467712402e-02) (1, 5.32780513167381286621e-02) (2, 7.74402841925621032715e-02) (3, 5.15470132231712341309e-02) (4, 4.11936119198799133301e-02) (5, 6.48191645741462707520e-02) (6, 9.62755903601646423340e-02) (7, -9.48426127433776855469e-03) (8, -4.65109832584857940674e-02) (9, 2.47026905417442321777e-02) (10, 7.71808400750160217285e-02) (11, 4.84831258654594421387e-02) (12, 9.16114673018455505371e-02) (13, -3.89068387448787689209e-02) (14, 7.12296739220619201660e-02) (15, 9.39756408333778381348e-02) (16, -2.01634913682937622070e-02) (17, 5.96837326884269714355e-02) (18, 1.42631754279136657715e-02) (19, -5.30961118638515472412e-02) (20, 6.33190050721168518066e-02) (21, -8.08830633759498596191e-02) (22, 1.51622071862220764160e-02) (23, -3.37422639131546020508e-02) (24, -9.96909216046333312988e-02) (25, 4.85327914357185363770e-02) (26, -8.22515189647674560547e-02) (27, -3.45272123813629150391e-02) (28, -3.80004942417144775391e-02) (29, 2.68608108162879943848e-02) (30, -8.47182422876358032227e-03) (31, -9.09224599599838256836e-02) (32, -1.98611393570899963379e-02) (33, -3.10315415263175964355e-02) (34, 6.06245473027229309082e-02) (35, -7.86675289273262023926e-02) (36, -6.62123709917068481445e-02) (37, 5.69001510739326477051e-02) (38, 1.18482112884521484375e-02) (39, -1.27233564853668212891e-02) (40, -1.83971673250198364258e-02) (41, -1.09709426760673522949e-02) (42, -6.42402321100234985352e-02) (43, -2.67856940627098083496e-02) (44, 5.01222237944602966309e-02) (45, -9.30105671286582946777e-02) (46, -3.28100547194480895996e-02) (47, -7.00412765145301818848e-02) (48, 6.66731670498847961426e-02) (49, 8.14531221985816955566e-02) (50, -2.31373831629753112793e-02) (51, 2.99921706318855285645e-02) (52, -9.94299352169036865234e-02) (53, 9.20248255133628845215e-02) (54, 9.62498858571052551270e-02) (55, -9.91208553314208984375e-02) (56, 4.05576005578041076660e-02) (57, -8.60016271471977233887e-02) (58, -3.36480662226676940918e-02) (59, -9.74428951740264892578e-02) (60, 4.08591851592063903809e-02) (61, 5.78801110386848449707e-02) (62, -8.83653536438941955566e-02) (63, -7.90019482374191284180e-02) (64, -7.31514319777488708496e-02) (65, 7.22591951489448547363e-02) (66, -5.76694756746292114258e-02) (67, -3.93638089299201965332e-02) (68, 2.91593447327613830566e-02) (69, 5.41787371039390563965e-02) (70, 4.79128435254096984863e-02) (71, -8.92378240823745727539e-02) (72, -5.67922107875347137451e-02) (73, 8.36726054549217224121e-02) (74, -1.60235166549682617188e-02) (75, 9.33300182223320007324e-02) (76, 9.06620398163795471191e-02) (77, 5.11664226651191711426e-02) (78, -7.67112672328948974609e-02) (79, 5.73352053761482238770e-02) (80, 3.26195433735847473145e-02) (81, 1.51351094245910644531e-04) (82, -1.26726403832435607910e-02) (83, 3.31896170973777770996e-02) (84, -7.82383233308792114258e-03) (85, -1.64227485656738281250e-02) (86, 3.40687707066535949707e-02) (87, -6.72662258148193359375e-02) (88, -2.42437422275543212891e-03) (89, -9.95793044567108154297e-02) (90, -6.47091194987297058105e-02) (91, -6.15651868283748626709e-02) (92, 5.83008006215095520020e-02) (93, -5.30744716525077819824e-02) (94, -4.05671373009681701660e-02) (95, 8.51493701338768005371e-02) (96, -8.08152705430984497070e-02) (97, 1.76338851451873779297e-03) (98, -5.42144402861595153809e-02) (99, 4.83440831303596496582e-02) (100, -4.40578721463680267334e-02) (0, 9.36983898282051086426e-02) (1, 5.91062530875205993652e-02) (2, -8.50081443786621093750e-04) (3, 7.73710086941719055176e-02) (4, -5.69172613322734832764e-02) (5, -7.52006471157073974609e-03) (6, 6.80330470204353332520e-02) (7, 9.42491665482521057129e-02) (8, 1.57686695456504821777e-02) (9, 2.53682360053062438965e-02) (10, 2.68687233328819274902e-02) (11, -8.40799883008003234863e-02) (12, -8.73044058680534362793e-02) (13, -3.99416647851467132568e-02) (14, 8.09618085622787475586e-03) (15, -3.72715294361114501953e-03) (16, 9.41270962357521057129e-02) (17, 4.08299639821052551270e-02) (18, 9.38484743237495422363e-02) (19, 9.45478007197380065918e-02) (20, 7.61208459734916687012e-02) (21, -6.77167102694511413574e-02) (22, 5.28485998511314392090e-02) (23, -7.69536346197128295898e-02) (24, -8.28383862972259521484e-03) (25, 3.79979684948921203613e-02) (26, -5.77689036726951599121e-02) (27, 9.34795513749122619629e-02) (28, 8.37835296988487243652e-02) (29, 9.05751660466194152832e-02) (30, -5.05783222615718841553e-02) (31, 7.74819329380989074707e-02) (32, 4.96814325451850891113e-02) (33, 4.85715940594673156738e-02) (34, 5.48529252409934997559e-02) (35, 9.27641764283180236816e-02) (36, -5.89484721422195434570e-02) (37, 2.28859558701515197754e-02) (38, 8.70133414864540100098e-02) (39, 5.68201914429664611816e-02) (40, -5.17458133399486541748e-02) (41, 1.38820558786392211914e-02) (42, 7.27402046322822570801e-02) (43, -3.90502214431762695312e-02) (44, 7.39404037594795227051e-02) (45, -1.91636085510253906250e-02) (46, 5.72226271033287048340e-02) (47, 6.80674985051155090332e-02) (48, -7.83336460590362548828e-02) (49, 5.10710999369621276855e-02) (50, 6.26152828335762023926e-02) (51, 9.77871939539909362793e-02) (52, 8.33543911576271057129e-02) (53, 1.54638737440109252930e-02) (54, -7.91664347052574157715e-02) (55, -2.49294489622116088867e-02) (56, -4.65381518006324768066e-02) (57, -3.69353443384170532227e-02) (58, -3.14498990774154663086e-02) (59, -6.27546161413192749023e-02) (60, -4.63601648807525634766e-02) (61, 1.79717764258384704590e-02) (62, -8.52726921439170837402e-02) (63, -9.66787412762641906738e-02) (64, -3.34566310048103332520e-02) (65, 6.95802345871925354004e-02) (66, 9.60854366421699523926e-02) (67, 7.59489834308624267578e-03) (68, -7.53381848335266113281e-03) (69, 8.30987766385078430176e-02) (70, -3.55849117040634155273e-02) (71, 4.07203659415245056152e-02) (72, -3.01916897296905517578e-03) (73, -6.28447011113166809082e-02) (74, -9.83298495411872863770e-02) (75, -2.90787816047668457031e-02) (76, 1.79916992783546447754e-02) (77, 5.88927790522575378418e-02) (78, -6.10112920403480529785e-02) (79, 3.96580472588539123535e-02) (80, 9.96388494968414306641e-03) (81, -9.83960106968879699707e-02) (82, 3.74452397227287292480e-02) (83, -6.68172538280487060547e-03) (84, 1.70678719878196716309e-02) (85, 5.82788065075874328613e-02) (86, 6.83888271450996398926e-02) (87, 7.05297216773033142090e-02) (88, -7.86565393209457397461e-02) (89, -6.30610883235931396484e-02) (90, -9.22248885035514831543e-02) (91, -2.50167027115821838379e-02) (92, 5.49106821417808532715e-02) (93, -7.74975866079330444336e-02) (94, -2.16954350471496582031e-02) (95, -7.85459429025650024414e-02) (96, 9.20826420187950134277e-02) (97, -2.56100073456764221191e-02) (98, 2.90489569306373596191e-02) (99, -1.54511705040931701660e-02) (100, -4.25112359225749969482e-02) (0, 9.34640541672706604004e-02) (1, -7.47307986021041870117e-02) (2, 5.44695928692817687988e-02) (3, -6.93806558847427368164e-02) (4, -7.30606466531753540039e-02) (5, -7.46091902256011962891e-02) (6, 4.86110523343086242676e-02) (7, 8.58321413397789001465e-02) (8, -3.56204807758331298828e-02) (9, -1.17309093475341796875e-02) (10, -4.20398265123367309570e-03) (11, -3.40164899826049804688e-02) (12, -7.42856711149215698242e-02) (13, 8.91142860054969787598e-02) (14, 8.30513909459114074707e-02) (15, 8.39931443333625793457e-02) (16, 5.75031116604804992676e-02) (17, 5.35811260342597961426e-02) (18, -9.46634039282798767090e-02) (19, 9.44420173764228820801e-02) (20, 6.13562241196632385254e-02) (21, -1.96800976991653442383e-02) (22, 4.93527129292488098145e-02) (23, 8.38586464524269104004e-02) (24, 5.86244538426399230957e-02) (25, 7.08067640662193298340e-02) (26, 7.59412869811058044434e-02) (27, -6.69855475425720214844e-02) (28, -1.44280493259429931641e-04) (29, -3.95098812878131866455e-02) (30, -9.49677824974060058594e-03) (31, -6.68023526668548583984e-03) (32, -1.42406746745109558105e-02) (33, -5.50271868705749511719e-02) (34, 2.39391177892684936523e-02) (35, 1.26986876130104064941e-02) (36, -2.96363756060600280762e-02) (37, -2.74498462677001953125e-02) (38, -1.46917998790740966797e-03) (39, 3.47431376576423645020e-02) (40, 6.08192458748817443848e-02) (41, 9.43268463015556335449e-02) (42, -9.92733463644981384277e-02) (43, 8.65335687994956970215e-02) (44, 8.34411308169364929199e-02) (45, 8.37780460715293884277e-02) (46, 7.05267116427421569824e-02) (47, 4.09442260861396789551e-02) (48, 3.73591557145118713379e-02) (49, 7.58633092045783996582e-02) (50, 3.53862419724464416504e-02) (51, -1.28461420536041259766e-03) (52, -4.38168011605739593506e-02) (53, -1.52610614895820617676e-02) (54, -1.74259692430496215820e-02) (55, -8.51923376321792602539e-02) (56, -4.44542951881885528564e-02) (57, -4.14846837520599365234e-02) (58, -5.21778874099254608154e-02) (59, 5.54014220833778381348e-02) (60, 1.90054401755332946777e-02) (61, 3.83253321051597595215e-02) (62, -5.12788109481334686279e-02) (63, -9.52352359890937805176e-02) (64, 8.32981541752815246582e-02) (65, 7.26603046059608459473e-02) (66, 1.74634456634521484375e-02) (67, -4.63382303714752197266e-02) (68, -5.47895394265651702881e-02) (69, -8.40057358145713806152e-02) (70, 8.84049162268638610840e-02) (71, -9.39702987670898437500e-02) (72, -8.96788984537124633789e-02) (73, 8.91315713524818420410e-02) (74, 9.25632789731025695801e-02) (75, 9.37622264027595520020e-02) (76, 7.29096010327339172363e-02) (77, 6.30899742245674133301e-02) (78, 3.47064509987831115723e-02) (79, 1.02687701582908630371e-02) (80, 3.89532968401908874512e-02) (81, -2.99073085188865661621e-02) (82, -9.10158529877662658691e-02) (83, 9.51364859938621520996e-02) (84, 5.48316314816474914551e-02) (85, -8.44182074069976806641e-03) (86, -9.00558531284332275391e-02) (87, -8.96226689219474792480e-02) (88, 5.00734969973564147949e-02) (89, -4.22337353229522705078e-02) (90, 6.57787546515464782715e-02) (91, -3.09210643172264099121e-02) (92, 9.60916057229042053223e-02) (93, -8.55000615119934082031e-02) (94, -2.61563062667846679688e-02) (95, 7.93897584080696105957e-02) (96, 8.71602371335029602051e-02) (97, 9.13071408867835998535e-02) (98, -6.69484809041023254395e-02) (99, -6.76293000578880310059e-02) (100, -9.26985889673233032227e-02) (0, -7.85435661673545837402e-02) (1, -6.15995936095714569092e-02) (2, -8.23774859309196472168e-02) (3, -8.94119963049888610840e-02) (4, -6.90363198518753051758e-02) (5, -8.86152610182762145996e-02) (6, 8.34976062178611755371e-02) (7, 9.40536782145500183105e-02) (8, 4.60911914706230163574e-02) (9, -6.23361766338348388672e-03) (10, 3.30069586634635925293e-02) (11, -8.38161259889602661133e-02) (12, 2.75053083896636962891e-03) (13, 2.81434431672096252441e-02) (14, 7.10154995322227478027e-02) (15, 9.43087115883827209473e-02) (16, 3.80875989794731140137e-02) (17, 8.13928321003913879395e-02) (18, 4.43822070956230163574e-02) (19, 9.58538725972175598145e-02) (20, 4.71716001629829406738e-02) (21, -8.65388661623001098633e-02) (22, 9.19454619288444519043e-02) (23, 6.16715326905250549316e-02) (24, -1.26951709389686584473e-02) (25, 7.13352039456367492676e-02) (26, 4.88317683339118957520e-02) (27, -2.13880240917205810547e-02) (28, -9.56132709980010986328e-02) (29, 8.12024697661399841309e-02) (30, -1.40866190195083618164e-02) (31, -7.41568356752395629883e-02) (32, -8.03971216082572937012e-02) (33, 3.53590399026870727539e-03) (34, -6.35688304901123046875e-02) (35, -4.94334362447261810303e-02) (36, 1.49206370115280151367e-02) (37, -8.00712183117866516113e-02) (38, -5.53797706961631774902e-02) (39, -3.89881804585456848145e-02) (40, 1.36951655149459838867e-02) (41, 7.76271894574165344238e-02) (42, -2.28043049573898315430e-02) (43, -8.35542976856231689453e-02) (44, 5.77063858509063720703e-03) (45, -5.17888031899929046631e-02) (46, -8.92455875873565673828e-02) (47, -5.61417713761329650879e-02) (48, -7.03959614038467407227e-02) (49, 5.51366284489631652832e-02) (50, -6.02879114449024200439e-02) (51, 7.67756178975105285645e-02) (52, 6.85977563261985778809e-02) (53, -6.83424472808837890625e-02) (54, 3.84471490979194641113e-02) (55, -4.40974123775959014893e-02) (56, -9.70072373747825622559e-02) (57, -1.27210766077041625977e-02) (58, 3.45145687460899353027e-02) (59, -9.26204994320869445801e-02) (60, -3.15186008810997009277e-02) (61, -7.95720517635345458984e-02) (62, -6.67773336172103881836e-02) (63, -1.19157284498214721680e-02) (64, 2.39638462662696838379e-02) (65, -3.03461626172065734863e-02) (66, 3.86508479714393615723e-02) (67, -6.11155144870281219482e-02) (68, -1.04173794388771057129e-02) (69, 8.32710787653923034668e-02) (70, -1.03697180747985839844e-04) (71, -9.67222079634666442871e-02) (72, 6.08982518315315246582e-02) (73, 7.70919993519783020020e-02) (74, -8.02765041589736938477e-02) (75, -3.33311036229133605957e-02) (76, -7.46967941522598266602e-02) (77, -6.95220977067947387695e-02) (78, 1.05271190404891967773e-02) (79, -4.50927615165710449219e-02) (80, 8.56145247817039489746e-02) (81, 5.02392128109931945801e-02) (82, -6.83171451091766357422e-02) (83, 5.42122796177864074707e-02) (84, 8.18967744708061218262e-02) (85, 7.01300129294395446777e-02) (86, -8.98851379752159118652e-02) (87, 8.48895385861396789551e-02) (88, -4.25910651683807373047e-02) (89, 4.46294322609901428223e-02) (90, 9.22690406441688537598e-02) (91, 2.58903279900550842285e-02) (92, 6.50573894381523132324e-02) (93, -7.45082944631576538086e-02) (94, -8.60253944993019104004e-02) (95, -1.09787732362747192383e-02) (96, -4.85445559024810791016e-03) (97, 5.26254549622535705566e-02) (98, 2.79057100415229797363e-02) (99, 8.47281739115715026855e-02) (100, 3.58965322375297546387e-02) (0, -7.21979811787605285645e-02) (1, 8.80059674382209777832e-02) (2, -3.20521742105484008789e-03) (3, -9.51059758663177490234e-02) (4, -9.22705456614494323730e-02) (5, 6.34636804461479187012e-02) (6, -6.98027759790420532227e-02) (7, -6.17926418781280517578e-02) (8, -2.60091871023178100586e-02) (9, -1.48955434560775756836e-02) (10, -7.61781185865402221680e-02) (11, -7.57699757814407348633e-02) (12, 1.67873278260231018066e-02) (13, 7.80341699719429016113e-02) (14, -9.38732102513313293457e-02) (15, -1.30826681852340698242e-02) (16, 8.81490185856819152832e-02) (17, 9.10163298249244689941e-02) (18, 4.43262681365013122559e-02) (19, 3.27784493565559387207e-02) (20, 8.32853689789772033691e-02) (21, -2.97834053635597229004e-02) (22, -2.16416269540786743164e-03) (23, -9.12229344248771667480e-02) (24, -1.58087983727455139160e-02) (25, 8.68570730090141296387e-02) (26, 3.92261892557144165039e-03) (27, -6.31833523511886596680e-02) (28, 1.47627815604209899902e-02) (29, -1.13492161035537719727e-02) (30, 7.27131739258766174316e-02) (31, 4.25648018717765808105e-02) (32, -2.33432576060295104980e-02) (33, -3.04920375347137451172e-02) (34, 4.74588200449943542480e-02) (35, -1.56138017773628234863e-02) (36, -6.70283585786819458008e-02) (37, 7.76560381054878234863e-02) (38, 2.25935578346252441406e-02) (39, 6.96245580911636352539e-03) (40, -3.72394993901252746582e-02) (41, 4.64154407382011413574e-02) (42, 3.11924740672111511230e-02) (43, 7.95478299260139465332e-02) (44, 2.44495868682861328125e-02) (45, 3.73192653059959411621e-02) (46, -3.35348397493362426758e-02) (47, 1.25986188650131225586e-02) (48, 2.83355936408042907715e-02) (49, -8.92085805535316467285e-02) (50, -5.46229295432567596436e-02) (51, 1.16209611296653747559e-02) (52, -1.89919844269752502441e-02) (53, 4.32128980755805969238e-02) (54, 2.03980356454849243164e-02) (55, 6.51992186903953552246e-02) (56, 3.00699695944786071777e-02) (57, -7.56793618202209472656e-02) (58, -9.79841202497482299805e-02) (59, -5.51672503352165222168e-02) (60, 1.29714235663414001465e-02) (61, 7.47290626168251037598e-02) (62, 8.73975530266761779785e-02) (63, 8.96281674504280090332e-02) (64, -5.57629801332950592041e-02) (65, 3.48563715815544128418e-02) (66, -2.59856358170509338379e-02) (67, -2.27913409471511840820e-02) (68, 1.25124081969261169434e-02) (69, 9.66079309582710266113e-02) (70, 8.41711238026618957520e-02) (71, 7.52729251980781555176e-02) (72, 4.30233553051948547363e-02) (73, 1.53635889291763305664e-02) (74, 5.48207387328147888184e-02) (75, -3.25270518660545349121e-02) (76, -4.73171435296535491943e-02) (77, -7.87141025066375732422e-02) (78, 8.00715759396553039551e-02) (79, 8.10184553265571594238e-02) (80, -6.79226815700531005859e-02) (81, -7.45513662695884704590e-02) (82, -7.36058503389358520508e-03) (83, 1.30853429436683654785e-02) (84, 6.86615481972694396973e-02) (85, -8.69625583291053771973e-02) (86, -2.17154324054718017578e-02) (87, -1.26848369836807250977e-03) (88, -6.26419186592102050781e-02) (89, -1.96995586156845092773e-02) (90, 4.35642674565315246582e-02) (91, 5.03295138478279113770e-02) (92, -4.49704937636852264404e-02) (93, 3.09618189930915832520e-02) (94, 3.99576798081398010254e-02) (95, -7.33479857444763183594e-04) (96, -3.41818109154701232910e-02) (97, -8.60279574990272521973e-02) (98, 7.64751955866813659668e-02) (99, 7.83305987715721130371e-02) (100, -8.94200429320335388184e-02) (0, 6.06463029980659484863e-02) (1, 5.36035224795341491699e-02) (2, 5.36033138632774353027e-02) (3, -2.39901095628738403320e-02) (4, 8.42425972223281860352e-03) (5, -7.89237320423126220703e-02) (6, 2.86927595734596252441e-02) (7, 2.97101661562919616699e-02) (8, -9.88521724939346313477e-02) (9, 9.71120595932006835938e-03) (10, 6.17874935269355773926e-02) (11, -7.34035372734069824219e-02) (12, -9.76493731141090393066e-02) (13, -2.51271799206733703613e-02) (14, 9.52580049633979797363e-02) (15, -8.46119299530982971191e-02) (16, 5.31573966145515441895e-02) (17, -6.01047277450561523438e-03) (18, -4.72538433969020843506e-02) (19, -6.65421634912490844727e-02) (20, -6.24462030827999114990e-02) (21, -9.69243347644805908203e-02) (22, -1.15126594901084899902e-02) (23, 6.85156211256980895996e-02) (24, 4.30333539843559265137e-02) (25, 8.77538695931434631348e-02) (26, -6.56661987304687500000e-02) (27, 5.70053830742835998535e-02) (28, 6.42290487885475158691e-02) (29, -8.73355939984321594238e-02) (30, 6.75853565335273742676e-02) (31, 2.48753577470779418945e-02) (32, 6.62679299712181091309e-02) (33, 2.11886614561080932617e-02) (34, -9.91147458553314208984e-02) (35, -2.53078117966651916504e-02) (36, 4.22649309039115905762e-02) (37, 2.95780077576637268066e-02) (38, -9.55976545810699462891e-02) (39, 4.34127524495124816895e-02) (40, -6.07107840478420257568e-02) (41, 6.61898329854011535645e-02) (42, 7.00092241168022155762e-02) (43, -5.83601556718349456787e-02) (44, -5.89373521506786346436e-02) (45, 6.52672275900840759277e-02) (46, -4.29720841348171234131e-02) (47, 9.42200496792793273926e-02) (48, -4.07432429492473602295e-02) (49, 9.77407395839691162109e-03) (50, -7.23221302032470703125e-02) (51, -3.18944454193115234375e-03) (52, 1.28497481346130371094e-02) (53, 1.61652117967605590820e-02) (54, -3.46738249063491821289e-02) (55, -4.41169105470180511475e-02) (56, 3.91907989978790283203e-03) (57, -3.40022146701812744141e-04) (58, -8.71115252375602722168e-02) (59, -3.18518728017807006836e-02) (60, 1.23243778944015502930e-02) (61, 8.04738178849220275879e-02) (62, 9.30234864354133605957e-02) (63, -2.14076861739158630371e-02) (64, 1.66247785091400146484e-03) (65, 9.39087346196174621582e-02) (66, 5.32845035195350646973e-02) (67, -5.60725890100002288818e-02) (68, 2.34867483377456665039e-02) (69, 5.76868578791618347168e-02) (70, 8.73401686549186706543e-02) (71, 6.27759769558906555176e-02) (72, 2.38766819238662719727e-02) (73, 5.73493912816047668457e-02) (74, -9.55841913819313049316e-02) (75, 6.49393275380134582520e-02) (76, 2.26166099309921264648e-02) (77, -3.85562740266323089600e-02) (78, 5.91593608260154724121e-02) (79, 8.18733647465705871582e-02) (80, 7.12178125977516174316e-02) (81, 8.68372395634651184082e-02) (82, -2.13160663843154907227e-02) (83, -1.59324482083320617676e-02) (84, 3.00244987010955810547e-03) (85, 4.40101101994514465332e-02) (86, 3.99506464600563049316e-02) (87, -9.30784717202186584473e-02) (88, -5.63299208879470825195e-02) (89, 5.28391078114509582520e-02) (90, -2.49303430318832397461e-02) (91, 5.59944584965705871582e-02) (92, 3.33129391074180603027e-02) (93, -3.19068580865859985352e-02) (94, -6.54132217168807983398e-02) (95, -6.50245845317840576172e-02) (96, -3.79981212317943572998e-02) (97, 8.78712758421897888184e-02) (98, -2.10971683263778686523e-02) (99, 8.54886248707771301270e-02) (100, 4.55581322312355041504e-02) (0, -3.37570086121559143066e-02) (1, 4.82645854353904724121e-02) (2, -3.05651947855949401855e-02) (3, -7.64076262712478637695e-02) (4, 5.26803955435752868652e-02) (5, -6.56258761882781982422e-02) (6, 4.62089851498603820801e-02) (7, -8.58758687973022460938e-02) (8, 9.35334935784339904785e-02) (9, 2.80823782086372375488e-02) (10, 8.53419378399848937988e-02) (11, 8.03707316517829895020e-02) (12, -9.32337045669555664062e-02) (13, -3.05905118584632873535e-02) (14, -1.66268125176429748535e-02) (15, 5.07763996720314025879e-02) (16, -9.06398668885231018066e-02) (17, -9.70529019832611083984e-03) (18, 9.44464877247810363770e-02) (19, 6.21992424130439758301e-02) (20, 6.53643682599067687988e-02) (21, 5.04409447312355041504e-02) (22, -4.48781251907348632812e-03) (23, -6.65424913167953491211e-02) (24, 8.50277170538902282715e-02) (25, 3.04876044392585754395e-02) (26, -4.54060733318328857422e-03) (27, 7.28989914059638977051e-02) (28, -9.06095653772354125977e-02) (29, -1.90519839525222778320e-02) (30, 1.84571295976638793945e-02) (31, -2.43665724992752075195e-02) (32, -7.07874000072479248047e-02) (33, 8.78919437527656555176e-02) (34, -7.74189829826354980469e-04) (35, 8.18930044770240783691e-02) (36, -7.77339339256286621094e-02) (37, -5.45652024447917938232e-02) (38, 9.60171297192573547363e-02) (39, -8.42004418373107910156e-02) (40, 7.35171660780906677246e-02) (41, 8.13590660691261291504e-02) (42, 9.61702987551689147949e-02) (43, 8.02834704518318176270e-02) (44, -4.92314398288726806641e-02) (45, -2.04565152525901794434e-02) (46, 3.10598686337471008301e-02) (47, -3.98713052272796630859e-02) (48, 6.98381885886192321777e-02) (49, 2.55063399672508239746e-02) (50, -7.76720568537712097168e-02) (51, 3.52025702595710754395e-02) (52, -2.40527242422103881836e-02) (53, 1.78401321172714233398e-02) (54, 6.86600878834724426270e-02) (55, -3.90250049531459808350e-02) (56, -5.16722612082958221436e-02) (57, -3.58805358409881591797e-02) (58, -6.61260038614273071289e-02) (59, -4.22818250954151153564e-02) (60, 4.50674816966056823730e-02) (61, 5.23311272263526916504e-02) (62, 3.33516076207160949707e-02) (63, 7.42800757288932800293e-02) (64, 4.02230694890022277832e-02) (65, -6.74225911498069763184e-02) (66, 5.61730787158012390137e-02) (67, 6.24891296029090881348e-02) (68, 