FANN_FLO_2.1
num_layers=3
learning_rate=0.700000
connection_rate=1.000000
network_type=1
learning_momentum=0.000000
training_algorithm=2
train_error_function=1
train_stop_function=0
cascade_output_change_fraction=0.010000
quickprop_decay=-0.000100
quickprop_mu=1.750000
rprop_increase_factor=1.200000
rprop_decrease_factor=0.500000
rprop_delta_min=0.000000
rprop_delta_max=50.000000
rprop_delta_zero=0.100000
cascade_output_stagnation_epochs=12
cascade_candidate_change_fraction=0.010000
cascade_candidate_stagnation_epochs=12
cascade_max_out_epochs=150
cascade_max_cand_epochs=150
cascade_num_candidate_groups=2
bit_fail_limit=3.49999994039535522461e-01
cascade_candidate_limit=1.00000000000000000000e+03
cascade_weight_multiplier=4.00000005960464477539e-01
cascade_activation_functions_count=10
cascade_activation_functions=3 5 7 8 10 11 14 15 16 17 
cascade_activation_steepnesses_count=4
cascade_activation_steepnesses=2.50000000000000000000e-01 5.00000000000000000000e-01 7.50000000000000000000e-01 1.00000000000000000000e+00 
layer_sizes=101 50 1 
scale_included=0
neurons (num_inputs, activation_function, activation_steepness)=(0, 0, 0.00000000000000000000e+00) (0, 0, 0.00000000000000000000e+00) (0, 0, 0.00000000000000000000e+00) (0, 0, 0.00000000000000000000e+00) (0, 0, 0.00000000000000000000e+00) (0, 0, 0.00000000000000000000e+00) (0, 0, 0.00000000000000000000e+00) (0, 0, 0.00000000000000000000e+00) (0, 0, 0.00000000000000000000e+00) (0, 0, 0.00000000000000000000e+00) (0, 0, 0.00000000000000000000e+00) (0, 0, 0.00000000000000000000e+00) (0, 0, 0.00000000000000000000e+00) (0, 0, 0.00000000000000000000e+00) (0, 0, 0.00000000000000000000e+00) (0, 0, 0.00000000000000000000e+00) (0, 0, 0.00000000000000000000e+00) (0, 0, 0.00000000000000000000e+00) (0, 0, 0.00000000000000000000e+00) (0, 0, 0.00000000000000000000e+00) (0, 0, 0.00000000000000000000e+00) (0, 0, 0.00000000000000000000e+00) (0, 0, 0.00000000000000000000e+00) (0, 0, 0.00000000000000000000e+00) (0, 0, 0.00000000000000000000e+00) (0, 0, 0.00000000000000000000e+00) (0, 0, 0.00000000000000000000e+00) (0, 0, 0.00000000000000000000e+00) (0, 0, 0.00000000000000000000e+00) (0, 0, 0.00000000000000000000e+00) (0, 0, 0.00000000000000000000e+00) (0, 0, 0.00000000000000000000e+00) (0, 0, 0.00000000000000000000e+00) (0, 0, 0.00000000000000000000e+00) (0, 0, 0.00000000000000000000e+00) (0, 0, 0.00000000000000000000e+00) (0, 0, 0.00000000000000000000e+00) (0, 0, 0.00000000000000000000e+00) (0, 0, 0.00000000000000000000e+00) (0, 0, 0.00000000000000000000e+00) (0, 0, 0.00000000000000000000e+00) (0, 0, 0.00000000000000000000e+00) (0, 0, 0.00000000000000000000e+00) (0, 0, 0.00000000000000000000e+00) (0, 0, 0.00000000000000000000e+00) (0, 0, 0.00000000000000000000e+00) (0, 0, 0.00000000000000000000e+00) (0, 0, 0.00000000000000000000e+00) (0, 0, 0.00000000000000000000e+00) (0, 0, 0.00000000000000000000e+00) (0, 0, 0.00000000000000000000e+00) (0, 0, 0.00000000000000000000e+00) (0, 0, 0.00000000000000000000e+00) (0, 0, 0.00000000000000000000e+00) (0, 0, 0.00000000000000000000e+00) (0, 0, 0.00000000000000000000e+00) (0, 0, 0.00000000000000000000e+00) (0, 0, 0.00000000000000000000e+00) (0, 0, 0.00000000000000000000e+00) (0, 0, 0.00000000000000000000e+00) (0, 0, 0.00000000000000000000e+00) (0, 0, 0.00000000000000000000e+00) (0, 0, 0.00000000000000000000e+00) (0, 0, 0.00000000000000000000e+00) (0, 0, 0.00000000000000000000e+00) (0, 0, 0.00000000000000000000e+00) (0, 0, 0.00000000000000000000e+00) (0, 0, 0.00000000000000000000e+00) (0, 0, 0.00000000000000000000e+00) (0, 0, 0.00000000000000000000e+00) (0, 0, 0.00000000000000000000e+00) (0, 0, 0.00000000000000000000e+00) (0, 0, 0.00000000000000000000e+00) (0, 0, 0.00000000000000000000e+00) (0, 0, 0.00000000000000000000e+00) (0, 0, 0.00000000000000000000e+00) (0, 0, 0.00000000000000000000e+00) (0, 0, 0.00000000000000000000e+00) (0, 0, 0.00000000000000000000e+00) (0, 0, 0.00000000000000000000e+00) (0, 0, 0.00000000000000000000e+00) (0, 0, 0.00000000000000000000e+00) (0, 0, 0.00000000000000000000e+00) (0, 0, 0.00000000000000000000e+00) (0, 0, 0.00000000000000000000e+00) (0, 0, 0.00000000000000000000e+00) (0, 0, 0.00000000000000000000e+00) (0, 0, 0.00000000000000000000e+00) (0, 0, 0.00000000000000000000e+00) (0, 0, 0.00000000000000000000e+00) (0, 0, 0.00000000000000000000e+00) (0, 0, 0.00000000000000000000e+00) (0, 0, 0.00000000000000000000e+00) (0, 0, 0.00000000000000000000e+00) (0, 0, 0.00000000000000000000e+00) (0, 0, 0.00000000000000000000e+00) (0, 0, 0.00000000000000000000e+00) (0, 0, 0.00000000000000000000e+00) (0, 0, 0.00000000000000000000e+00) (0, 0, 0.00000000000000000000e+00) (0, 0, 0.00000000000000000000e+00) (101, 3, 5.00000000000000000000e-01) (101, 3, 5.00000000000000000000e-01) (101, 3, 5.00000000000000000000e-01) (101, 3, 5.00000000000000000000e-01) (101, 3, 5.00000000000000000000e-01) (101, 3, 5.00000000000000000000e-01) (101, 3, 5.00000000000000000000e-01) (101, 3, 5.00000000000000000000e-01) (101, 3, 5.00000000000000000000e-01) (101, 3, 5.00000000000000000000e-01) (101, 3, 5.00000000000000000000e-01) (101, 3, 5.00000000000000000000e-01) (101, 3, 5.00000000000000000000e-01) (101, 3, 5.00000000000000000000e-01) (101, 3, 5.00000000000000000000e-01) (101, 3, 5.00000000000000000000e-01) (101, 3, 5.00000000000000000000e-01) (101, 3, 5.00000000000000000000e-01) (101, 3, 5.00000000000000000000e-01) (101, 3, 5.00000000000000000000e-01) (101, 3, 5.00000000000000000000e-01) (101, 3, 5.00000000000000000000e-01) (101, 3, 5.00000000000000000000e-01) (101, 3, 5.00000000000000000000e-01) (101, 3, 5.00000000000000000000e-01) (101, 3, 5.00000000000000000000e-01) (101, 3, 5.00000000000000000000e-01) (101, 3, 5.00000000000000000000e-01) (101, 3, 5.00000000000000000000e-01) (101, 3, 5.00000000000000000000e-01) (101, 3, 5.00000000000000000000e-01) (101, 3, 5.00000000000000000000e-01) (101, 3, 5.00000000000000000000e-01) (101, 3, 5.00000000000000000000e-01) (101, 3, 5.00000000000000000000e-01) (101, 3, 5.00000000000000000000e-01) (101, 3, 5.00000000000000000000e-01) (101, 3, 5.00000000000000000000e-01) (101, 3, 5.00000000000000000000e-01) (101, 3, 5.00000000000000000000e-01) (101, 3, 5.00000000000000000000e-01) (101, 3, 5.00000000000000000000e-01) (101, 3, 5.00000000000000000000e-01) (101, 3, 5.00000000000000000000e-01) (101, 3, 5.00000000000000000000e-01) (101, 3, 5.00000000000000000000e-01) (101, 3, 5.00000000000000000000e-01) (101, 3, 5.00000000000000000000e-01) (101, 3, 5.00000000000000000000e-01) (101, 3, 5.00000000000000000000e-01) (151, 3, 5.00000000000000000000e-01) 
connections (connected_to_neuron, weight)=(0, 3.85944575071334838867e-01) (1, 1.62556362152099609375e+00) (2, 8.81752446293830871582e-02) (3, -4.83868986368179321289e-01) (4, -3.94989162683486938477e-01) (5, -4.58448141813278198242e-01) (6, -9.27557563781738281250e+00) (7, -4.00963401794433593750e+00) (8, -1.21921372413635253906e+00) (9, -9.87605857849121093750e+00) (10, -4.20019388198852539062e+00) (11, -3.93777942657470703125e+00) (12, -2.52578878402709960938e+00) (13, -4.03327274322509765625e+00) (14, -2.10974168777465820312e+00) (15, -1.06470322608947753906e+00) (16, -2.64636993408203125000e+00) (17, -6.47232627868652343750e+00) (18, 1.76389440894126892090e-02) (19, 5.88039577007293701172e-01) (20, 1.20092380046844482422e+00) (21, 2.63571786880493164062e+00) (22, 2.57493400573730468750e+00) (23, 7.74887943267822265625e+00) (24, 7.83128309249877929688e+00) (25, 2.40887928009033203125e+00) (26, 3.36047053337097167969e+00) (27, 3.38774514198303222656e+00) (28, 2.81723046302795410156e+00) (29, 3.41102933883666992188e+00) (30, 1.02086424827575683594e+00) (31, 8.10133159160614013672e-01) (32, -2.72730231285095214844e-01) (33, -5.46906590461730957031e-01) (34, -4.96861368417739868164e-01) (35, -6.85331201553344726562e+00) (36, 1.06899850070476531982e-01) (37, -1.47077250480651855469e+00) (38, -1.56161470413208007812e+01) (39, -4.89925527572631835938e+00) (40, -9.40441608428955078125e-01) (41, 4.11873531341552734375e+00) (42, 9.72733855247497558594e-01) (43, -2.16411441564559936523e-01) (44, 3.61244988441467285156e+00) (45, -6.56615734100341796875e-01) (46, -1.76977813243865966797e-02) (47, 7.34674036502838134766e-02) (48, -5.55307388305664062500e+00) (49, -1.19251632690429687500e+00) (50, -3.73129919171333312988e-02) (51, -1.38059532642364501953e+00) (52, -6.30931854248046875000e-01) (53, -3.37130934000015258789e-01) (54, 2.38439366221427917480e-02) (55, 2.49077588319778442383e-01) (56, 3.55038791894912719727e-03) (57, 1.51116833090782165527e-01) (58, 9.80126142501831054688e-01) (59, 1.61441707611083984375e+00) (60, 2.03082919120788574219e+00) (61, 6.12343132495880126953e-01) (62, 7.49133527278900146484e-01) (63, 8.86447012424468994141e-01) (64, 1.34649038314819335938e+00) (65, 1.87167811393737792969e+00) (66, 4.56590318679809570312e+00) (67, 2.90890216827392578125e+00) (68, 5.45162200927734375000e+00) (69, 9.45555090904235839844e-01) (70, -5.82569217681884765625e+00) (71, -9.12328004837036132812e-01) (72, -2.94446349143981933594e+00) (73, -3.06598973274230957031e+00) (74, -2.18117642402648925781e+00) (75, -1.82868976593017578125e+01) (76, -8.24275732040405273438e-01) (77, -5.75761365890502929688e+00) (78, -5.82497119903564453125e+00) (79, -7.83867311477661132812e+00) (80, -7.29393339157104492188e+00) (81, -6.58702969551086425781e-01) (82, 6.06349527835845947266e-01) (83, 5.27665205299854278564e-02) (84, 8.97779092192649841309e-02) (85, 9.08424928784370422363e-02) (86, -1.00678034126758575439e-01) (87, -4.96525829657912254333e-03) (88, 1.78796797990798950195e-01) (89, 4.07113999128341674805e-01) (90, 6.20892405509948730469e-01) (91, 5.80579638481140136719e-01) (92, -1.85327738523483276367e-01) (93, -2.15485244989395141602e-01) (94, -3.33323478698730468750e+01) (95, -6.97924256324768066406e-01) (96, -4.74011600017547607422e-01) (97, -6.01001262664794921875e-01) (98, -5.14054596424102783203e-01) (99, -3.04309797286987304688e+00) (100, 2.17908620834350585938e-01) (0, 1.16997833251953125000e+01) (1, 6.10407495498657226562e+00) (2, 1.12267410755157470703e+00) (3, 1.08983063697814941406e+00) (4, 1.61115437746047973633e-01) (5, 2.11610376834869384766e-01) (6, 4.11046773195266723633e-01) (7, 3.74561131000518798828e-01) (8, 5.00621974468231201172e-01) (9, 3.36139559745788574219e-01) (10, 2.85328030586242675781e-01) (11, 2.42285519838333129883e-01) (12, 4.48569625616073608398e-01) (13, 3.54180872440338134766e-01) (14, 2.39275813102722167969e-01) (15, -1.61291801929473876953e+00) (16, 1.49413681030273437500e+00) (17, -1.62586994171142578125e+01) (18, -9.48500871658325195312e-01) (19, -1.29814481735229492188e+00) (20, -1.21325073242187500000e+01) (21, -4.97801685333251953125e+00) (22, -5.48385739326477050781e-01) (23, -4.60996198654174804688e+00) (24, -1.42512977123260498047e+00) (25, -8.77162098884582519531e-01) (26, -2.06938886642456054688e+00) (27, -5.49916386604309082031e-01) (28, 2.48450338840484619141e-01) (29, 1.40967297554016113281e+00) (30, 5.98635387420654296875e+00) (31, 7.57306158542633056641e-01) (32, 5.30347704887390136719e-01) (33, 2.37308049201965332031e+00) (34, 4.33917665481567382812e+00) (35, -1.59816578030586242676e-01) (36, 8.03977966308593750000e-01) (37, 1.52236902713775634766e+00) (38, 8.05900171399116516113e-02) (39, -3.68133783340454101562e-01) (40, 4.62572872638702392578e-01) (41, -4.03680689632892608643e-02) (42, 9.76859107613563537598e-02) (43, -5.14344796538352966309e-02) (44, -2.96609073877334594727e-01) (45, 2.95067220926284790039e-01) (46, 9.20378267765045166016e-01) (47, 2.30036950111389160156e+00) (48, 9.53483104705810546875e+00) (49, 3.22533454895019531250e+01) (50, 6.35331916809082031250e+00) (51, 5.43314099311828613281e-01) (52, 1.36748409271240234375e+00) (53, 1.50439310073852539062e+00) (54, 1.76653361320495605469e+00) (55, 3.29496002197265625000e+00) (56, 1.24396526813507080078e+00) (57, 3.06907033920288085938e+00) (58, 6.28035664558410644531e-01) (59, 1.30814218521118164062e+00) (60, -4.53482240438461303711e-01) (61, -2.59713816642761230469e+00) (62, -3.60305500030517578125e+00) (63, -3.78992891311645507812e+00) (64, -1.33512437343597412109e+00) (65, -1.62237381935119628906e+00) (66, -6.08819246292114257812e-01) (67, -8.80981254577636718750e+00) (68, -2.26510238647460937500e+01) (69, -3.33042144775390625000e+01) (70, -8.74016094207763671875e+00) (71, -9.66710984706878662109e-01) (72, 2.11086606979370117188e+00) (73, 1.83258934020996093750e+01) (74, 1.60151648521423339844e+00) (75, -1.52607870101928710938e+00) (76, 2.19741034507751464844e+00) (77, 7.00956916809082031250e+00) (78, 1.04404964447021484375e+01) (79, 3.91626739501953125000e+01) (80, 8.02945196628570556641e-01) (81, 7.95330584049224853516e-01) (82, 7.55280375480651855469e-01) (83, 7.37183141708374023438e+00) (84, 6.03031396865844726562e+00) (85, 2.81479430198669433594e+00) (86, 3.26463317871093750000e+00) (87, 1.93323063850402832031e+00) (88, 1.49023556709289550781e+00) (89, 8.59775722026824951172e-01) (90, 4.01656210422515869141e-01) (91, 3.01865160465240478516e-01) (92, 2.11665540933609008789e-01) (93, -4.05189782381057739258e-01) (94, 1.02850627899169921875e+00) (95, 3.98916482925415039062e-01) (96, 2.18309745192527770996e-01) (97, 5.55050671100616455078e-01) (98, -8.36630444973707199097e-03) (99, -2.73571133613586425781e-01) (100, 4.93388593196868896484e-01) (0, -3.01076024770736694336e-01) (1, 1.23023629188537597656e-01) (2, 2.42949604988098144531e-01) (3, 1.73629951477050781250e+00) (4, 7.55780637264251708984e-01) (5, 4.16260927915573120117e-01) (6, 3.76561164855957031250e+00) (7, 1.65062642097473144531e+00) (8, 1.44224047660827636719e+00) (9, 5.92823410034179687500e+00) (10, 1.03234090805053710938e+01) (11, 6.33197307586669921875e+00) (12, 1.12170648574829101562e+00) (13, 8.92537236213684082031e-01) (14, 1.12860751152038574219e+00) (15, 1.22079753875732421875e+00) (16, 1.55183279514312744141e+00) (17, 1.56973624229431152344e+00) (18, 1.11406481266021728516e+00) (19, 2.55846351385116577148e-01) (20, 1.62805393338203430176e-01) (21, 4.63873259723186492920e-02) (22, 1.94481536746025085449e-02) (23, -6.82755053043365478516e-01) (24, 1.34877935051918029785e-01) (25, 4.84212487936019897461e-01) (26, 6.78300619125366210938e-01) (27, 5.51166355609893798828e-01) (28, 1.18952858448028564453e+00) (29, 1.65132439136505126953e+00) (30, -1.40919787809252738953e-02) (31, 1.77909974008798599243e-02) (32, -6.03233315050601959229e-02) (33, 6.31257519125938415527e-02) (34, 2.01791692525148391724e-02) (35, 1.15650787949562072754e-01) (36, -4.81539607048034667969e-01) (37, -3.81902843713760375977e-01) (38, -2.05156111717224121094e+00) (39, -3.30366551876068115234e-01) (40, -3.95281815528869628906e+00) (41, -6.92989587783813476562e-01) (42, -2.74294471740722656250e+00) (43, -3.11641216278076171875e+00) (44, -6.32439470291137695312e+00) (45, -1.31803202629089355469e+00) (46, 1.98606938123703002930e-01) (47, 2.06632733345031738281e+00) (48, 3.24231177568435668945e-01) (49, 5.90273022651672363281e-01) (50, 1.11098659038543701172e+00) (51, 9.67209219932556152344e-01) (52, 1.13674449920654296875e+00) (53, 3.64447295665740966797e-01) (54, 6.48070335388183593750e-01) (55, 1.76274180412292480469e-01) (56, -1.07108876109123229980e-01) (57, -3.53327870368957519531e-01) (58, -2.57478952407836914062e-01) (59, -4.01802867650985717773e-01) (60, 9.91306781768798828125e-01) (61, -1.05957150459289550781e+00) (62, -7.29133367538452148438e-01) (63, 2.80575776100158691406e+00) (64, 7.48023128509521484375e+00) (65, -3.14839005470275878906e-01) (66, -1.26534104347229003906e+00) (67, -4.08791393041610717773e-01) (68, -9.19368341565132141113e-02) (69, -1.46218717098236083984e-01) (70, 1.47101685404777526855e-01) (71, 1.27161085605621337891e-01) (72, 1.69326037168502807617e-01) (73, 8.27602326869964599609e-01) (74, 1.92330145835876464844e+00) (75, 1.36520357131958007812e+01) (76, 2.49392485618591308594e+00) (77, 1.57170486450195312500e+00) (78, 3.20036172866821289062e+00) (79, 2.73410177230834960938e+00) (80, 6.41748094558715820312e+00) (81, 1.06020283699035644531e+00) (82, -1.70134735107421875000e+00) (83, 3.18508535623550415039e-01) (84, 8.85155081748962402344e-01) (85, 5.05720734596252441406e-01) (86, 2.68360316753387451172e-01) (87, -1.92454122006893157959e-02) (88, -1.23706787824630737305e-01) (89, -1.74865514039993286133e-01) (90, -3.40305596590042114258e-01) (91, -1.27480313181877136230e-01) (92, -4.78624328970909118652e-02) (93, -5.24995207786560058594e-01) (94, 1.94832384586334228516e-01) (95, 5.98009347915649414062e-01) (96, 3.85453164577484130859e-01) (97, 4.91868495941162109375e-01) (98, 4.73571449518203735352e-01) (99, 3.29395866394042968750e+00) (100, 1.26485419273376464844e+00) (0, 3.25231742858886718750e+01) (1, 3.59796829223632812500e+01) (2, 1.64231815338134765625e+01) (3, 6.38836479187011718750e+00) (4, 2.28634214401245117188e+00) (5, 1.09088869094848632812e+01) (6, 5.74945330619812011719e-01) (7, 1.24418318271636962891e+00) (8, 1.87158489227294921875e+01) (9, 4.06627893447875976562e+00) (10, 1.50261468887329101562e+01) (11, 9.65079593658447265625e+00) (12, 7.08491849899291992188e+00) (13, 1.28576059341430664062e+01) (14, 3.36111187934875488281e+00) (15, 2.84172987937927246094e+00) (16, 1.41258168220520019531e+00) (17, 1.98388731479644775391e+00) (18, 1.95145332813262939453e+00) (19, 1.06386888027191162109e+00) (20, 7.73977577686309814453e-01) (21, 5.59543371200561523438e-01) (22, 1.41848504543304443359e-01) (23, -1.64035451412200927734e+00) (24, -2.32744050025939941406e+00) (25, -5.49225711822509765625e+00) (26, -3.15726146697998046875e+01) (27, -3.42827749252319335938e+00) (28, -1.65590929985046386719e+00) (29, 9.73609805107116699219e-01) (30, 2.94938087463378906250e-01) (31, -6.85421228408813476562e-01) (32, -9.29167556762695312500e+00) (33, -9.27091503143310546875e+00) (34, -1.81104624271392822266e+00) (35, -2.92983078956604003906e+00) (36, -1.69095385074615478516e+00) (37, -1.21542227268218994141e+00) (38, -4.03592623770236968994e-02) (39, 7.77107954025268554688e-01) (40, 5.66539096832275390625e+00) (41, 4.72865638732910156250e+01) (42, 1.05120372772216796875e+01) (43, 2.68820118904113769531e+00) (44, 1.91666686534881591797e+00) (45, 1.60033798217773437500e+00) (46, 8.53779494762420654297e-01) (47, 1.48015439510345458984e-01) (48, 3.76191258430480957031e-01) (49, 1.26148843765258789062e+00) (50, 2.77850121259689331055e-01) (51, 6.99388074874877929688e+00) (52, 2.29683418273925781250e+01) (53, 1.47035627365112304688e+01) (54, 3.63310279846191406250e+01) (55, 8.77481460571289062500e+00) (56, 3.16486299037933349609e-01) (57, -1.25266283750534057617e-01) (58, -4.97231185436248779297e-01) (59, 3.09769821166992187500e+00) (60, 3.45761799812316894531e+00) (61, 4.33165460824966430664e-01) (62, 2.30198407173156738281e+00) (63, 3.99803090095520019531e+00) (64, -1.16231724619865417480e-01) (65, 9.10690188407897949219e-01) (66, 1.65963459014892578125e+00) (67, 5.73435163497924804688e+00) (68, 3.35973024368286132812e+00) (69, -9.34749412536621093750e+00) (70, -3.88708543777465820312e+00) (71, 5.41753673553466796875e+00) (72, 7.83504629135131835938e+00) (73, 5.75785751342773437500e+01) (74, 1.50955162048339843750e+01) (75, -6.77782669067382812500e+01) (76, 2.71436595916748046875e+01) (77, 2.39919929504394531250e+01) (78, 1.08601980209350585938e+01) (79, 1.65298843383789062500e+00) (80, 8.12418103218078613281e-01) (81, 1.00296187400817871094e+00) (82, 1.07017719745635986328e+00) (83, 4.09160465002059936523e-01) (84, 1.15712858736515045166e-01) (85, -3.50960403680801391602e-01) (86, 3.55621069669723510742e-01) (87, 1.78961426019668579102e-01) (88, 2.72347718477249145508e-01) (89, 8.81166696548461914062e-01) (90, 1.31809592247009277344e+00) (91, -6.15577176213264465332e-02) (92, -2.16742828488349914551e-01) (93, 3.07229137420654296875e+00) (94, 5.97491145133972167969e-01) (95, 6.64482116699218750000e-01) (96, -4.15743231773376464844e-01) (97, -4.30004894733428955078e-01) (98, -6.27428472042083740234e-01) (99, -9.49150681495666503906e-01) (100, 8.10417383909225463867e-02) (0, -4.34438467025756835938e-01) (1, -4.57248955965042114258e-01) (2, -5.94511210918426513672e-01) (3, -1.48886665701866149902e-01) (4, 7.38043785095214843750e-02) (5, 1.43379199504852294922e+00) (6, -1.14468705654144287109e+00) (7, 1.40303313732147216797e+00) (8, 1.97319579124450683594e+00) (9, 1.34870326519012451172e+00) (10, 4.37375164031982421875e+00) (11, 4.25835800170898437500e+00) (12, 1.18173944950103759766e+00) (13, 1.08174860477447509766e+00) (14, 1.60094118118286132812e+00) (15, 2.31893941760063171387e-01) (16, -5.06873846054077148438e-01) (17, -7.31534719467163085938e-01) (18, 3.18612903356552124023e-01) (19, 6.09337508678436279297e-01) (20, 1.59656435251235961914e-01) (21, 4.20414477586746215820e-01) (22, 6.14673423767089843750e+00) (23, 8.13865089416503906250e+00) (24, 3.73950886726379394531e+00) (25, 3.94625633955001831055e-01) (26, 9.64015960693359375000e-01) (27, 3.64787960052490234375e+00) (28, 2.62558507919311523438e+00) (29, 6.28084993362426757812e+00) (30, 3.55112051963806152344e+00) (31, 1.87260985374450683594e+00) (32, 1.39674139022827148438e+00) (33, 6.38999104499816894531e-01) (34, 2.02160453796386718750e+01) (35, -8.11194515228271484375e+00) (36, 2.05302149057388305664e-01) (37, 1.32896184921264648438e+00) (38, 3.92588019371032714844e-01) (39, 1.65913696289062500000e+01) (40, 1.39339418411254882812e+01) (41, 7.03006982803344726562e+00) (42, 8.45663356781005859375e+00) (43, 3.90155792236328125000e+00) (44, 1.24128599166870117188e+01) (45, 2.05831203460693359375e+01) (46, 1.41075134277343750000e+00) (47, -9.75593626499176025391e-01) (48, -3.10086905956268310547e-01) (49, 4.01384025812149047852e-01) (50, 3.38800501823425292969e+00) (51, 5.43798446655273437500e-01) (52, 4.55442543029785156250e+01) (53, 3.64492225646972656250e+01) (54, 8.88840007781982421875e+00) (55, 1.60648956298828125000e+01) (56, 8.07207393646240234375e+00) (57, 3.64053010940551757812e-01) (58, 1.97860682010650634766e+00) (59, 1.21637258529663085938e+01) (60, 1.00696594238281250000e+02) (61, 7.19324797391891479492e-02) (62, 1.74551773071289062500e+00) (63, 8.31310391426086425781e-01) (64, -8.43172490596771240234e-01) (65, -5.45351982116699218750e-01) (66, -7.73203802108764648438e+00) (67, -8.06394290924072265625e+00) (68, -3.31894421577453613281e+00) (69, -1.49150598049163818359e+00) (70, -2.00041025876998901367e-01) (71, 2.21001510620117187500e+01) (72, 4.48028869628906250000e+01) (73, 5.02715377807617187500e+01) (74, 1.60167331695556640625e+01) (75, -6.66712722778320312500e+01) (76, 1.73374156951904296875e+01) (77, 3.08262386322021484375e+01) (78, 2.27462463378906250000e+01) (79, 3.77389001846313476562e+00) (80, 1.22883832454681396484e+00) (81, 1.78180992603302001953e+00) (82, 9.31825459003448486328e-01) (83, 2.62509733438491821289e-01) (84, 1.78320288658142089844e-01) (85, -1.44317805767059326172e-01) (86, 2.77014732360839843750e-01) (87, 1.68535172939300537109e-01) (88, 6.36059403419494628906e-01) (89, 8.40520262718200683594e-01) (90, 2.76344239711761474609e-01) (91, -6.01840987801551818848e-02) (92, -2.03595548868179321289e-01) (93, 4.87680053710937500000e+00) (94, 7.93703198432922363281e-01) (95, 5.18450677394866943359e-01) (96, -2.78469592332839965820e-01) (97, -2.37854972481727600098e-01) (98, -5.48877120018005371094e-01) (99, -8.20547223091125488281e-01) (100, 1.11886389553546905518e-01) (0, 7.88224315643310546875e+00) (1, 5.30618095397949218750e+01) (2, 2.94868040084838867188e+00) (3, 5.57981312274932861328e-01) (4, 1.16421449184417724609e+00) (5, 1.24005722999572753906e+00) (6, 2.45360061526298522949e-01) (7, 9.52000021934509277344e-01) (8, -1.42043903470039367676e-01) (9, -3.17645519971847534180e-02) (10, 1.08558736741542816162e-01) (11, -8.11103701591491699219e-01) (12, -1.70883268117904663086e-01) (13, 2.91249947622418403625e-03) (14, -3.85304713249206542969e+00) (15, -4.45198392868041992188e+00) (16, -3.99157643318176269531e+00) (17, -8.78018760681152343750e+00) (18, -8.75652503967285156250e+00) (19, -3.72236943244934082031e+00) (20, -1.50943202972412109375e+01) (21, -6.23306369781494140625e+00) (22, -3.96604204177856445312e+00) (23, 1.09238791465759277344e+00) (24, 1.19091582298278808594e+00) (25, -6.17248249053955078125e+00) (26, -5.56150376796722412109e-01) (27, 7.56354480981826782227e-02) (28, 8.66237841546535491943e-03) (29, 6.96447342634201049805e-02) (30, 1.79053544998168945312e-02) (31, 3.15065383911132812500e-02) (32, -6.15348100662231445312e-01) (33, -1.26201820373535156250e+00) (34, -1.41151297092437744141e+00) (35, -2.32508325576782226562e+00) (36, -6.65757513046264648438e+00) (37, 1.91266268491744995117e-01) (38, -1.24362730979919433594e+00) (39, 1.08618237078189849854e-01) (40, 1.36873507499694824219e+00) (41, -2.77316689491271972656e-01) (42, -1.80584526062011718750e+00) (43, 1.68115660548210144043e-01) (44, -1.58637523651123046875e-01) (45, 2.14723944664001464844e-01) (46, 1.35282325744628906250e+01) (47, 7.84060382843017578125e+00) (48, 8.03704643249511718750e+00) (49, 1.56192958354949951172e+00) (50, 8.28574466705322265625e+00) (51, 8.83149623870849609375e-01) (52, 1.84855329990386962891e+00) (53, 5.09330272674560546875e-01) (54, 1.57681894302368164062e+00) (55, 2.46836495399475097656e+00) (56, 3.51877498626708984375e+00) (57, 2.90444684028625488281e+00) (58, 1.03231639862060546875e+01) (59, 8.99850921630859375000e+01) (60, 3.19156738281250000000e+02) (61, 5.52072753906250000000e+01) (62, 2.58835544586181640625e+01) (63, -1.70007839202880859375e+01) (64, -1.43668699264526367188e+00) (65, -9.13946688175201416016e-01) (66, -4.86995652318000793457e-02) (67, -2.63418436050415039062e-01) (68, -4.49626922607421875000e-01) (69, -8.75427484512329101562e-01) (70, -1.70315399765968322754e-01) (71, 8.60747545957565307617e-02) (72, 1.57439202070236206055e-01) (73, 3.25027561187744140625e+00) (74, 2.38731384277343750000e+01) (75, 2.35276103019714355469e+00) (76, 4.57640600204467773438e+00) (77, 1.00901077270507812500e+02) (78, 1.41610586643218994141e+00) (79, 9.13253688812255859375e+00) (80, 4.26513791084289550781e-01) (81, 4.86538976430892944336e-01) (82, 2.18415641784667968750e+01) (83, 1.77710304260253906250e+01) (84, 4.73710489273071289062e+00) (85, 6.18680715560913085938e-01) (86, 3.97324848175048828125e+00) (87, 9.18810248374938964844e-01) (88, 6.49320721626281738281e-01) (89, 6.03199005126953125000e-01) (90, 8.71389687061309814453e-01) (91, 6.68714940547943115234e-01) (92, -5.55800944566726684570e-02) (93, -8.71239280700683593750e+00) (94, 6.93424493074417114258e-02) (95, 5.52363358438014984131e-02) (96, 2.63664782047271728516e-01) (97, -7.51097649335861206055e-02) (98, -2.46307790279388427734e-01) (99, -7.23668992519378662109e-01) (100, 1.32097852230072021484e+00) (0, 6.85291213989257812500e+01) (1, 1.89239826202392578125e+01) (2, 1.44900236129760742188e+01) (3, 2.08733201026916503906e+00) (4, 2.08509612083435058594e+00) (5, 3.48967838287353515625e+00) (6, 2.29250073432922363281e+00) (7, 5.26287984848022460938e+00) (8, 7.61363267898559570312e+00) (9, 2.67460012435913085938e+00) (10, 6.31031179428100585938e+00) (11, 2.34539489746093750000e+01) (12, 8.42007350921630859375e+00) (13, 2.59682731628417968750e+01) (14, 3.22255020141601562500e+01) (15, 1.04648265838623046875e+01) (16, 4.62330856323242187500e+01) (17, 1.51339950561523437500e+01) (18, 1.22466242313385009766e+00) (19, 2.31700611114501953125e+00) (20, 1.36564457416534423828e+00) (21, 8.41756820678710937500e-01) (22, 9.03184354305267333984e-01) (23, 1.65059447288513183594e+00) (24, 8.07743549346923828125e+00) (25, 2.25719356536865234375e+00) (26, 2.03065824508666992188e+00) (27, 8.76573181152343750000e+00) (28, -7.71532207727432250977e-02) (29, 9.63719964027404785156e-01) (30, -5.94348764419555664062e+00) (31, -2.09254860877990722656e+00) (32, -1.58515107631683349609e+00) (33, -3.89529943466186523438e+00) (34, 5.83023428916931152344e-01) (35, -9.77202206850051879883e-02) (36, 4.12159949541091918945e-01) (37, 5.26046800613403320312e+00) (38, 2.38818001747131347656e+00) (39, 2.26176586151123046875e+01) (40, 1.01455612182617187500e+01) (41, 1.08046331405639648438e+01) (42, 2.31321601867675781250e+01) (43, 4.90170431137084960938e+00) (44, 1.15097725391387939453e+00) (45, 9.66773211956024169922e-01) (46, 8.42864513397216796875e-01) (47, -7.79691815376281738281e-01) (48, -1.66209673881530761719e+00) (49, -1.49328756332397460938e+00) (50, -1.20334637165069580078e+00) (51, -2.35029816627502441406e+00) (52, 6.45733070373535156250e+00) (53, 5.89575231075286865234e-01) (54, 6.76667690277099609375e+00) (55, 2.58144116401672363281e+00) (56, -3.49564015865325927734e-01) (57, 2.33862206339836120605e-01) (58, 1.19368875026702880859e+00) (59, 8.91986560821533203125e+00) (60, 9.04443073272705078125e+00) (61, 8.34024548530578613281e-01) (62, 1.85511505603790283203e+00) (63, 9.68425035476684570312e-01) (64, 2.59325432777404785156e+00) (65, 2.40579676628112792969e+00) (66, 2.54388117790222167969e+00) (67, 1.16545903682708740234e+00) (68, 1.98669683933258056641e+00) (69, -9.36791181564331054688e-01) (70, -1.24412879943847656250e+01) (71, 8.92893695831298828125e+00) (72, 1.11916160583496093750e+01) (73, 6.37472610473632812500e+01) (74, 2.56461296081542968750e+01) (75, -9.54012527465820312500e+01) (76, 5.74884033203125000000e+01) (77, 1.73009185791015625000e+01) (78, 9.80674552917480468750e+00) (79, 1.55646276473999023438e+00) (80, 1.22908484935760498047e+00) (81, 7.85275518894195556641e-01) (82, 8.03934454917907714844e-01) (83, 7.56345272064208984375e-01) (84, 1.04831956326961517334e-01) (85, -4.36980649828910827637e-03) (86, 6.11592650413513183594e-01) (87, -5.69302551448345184326e-02) (88, 2.80757367610931396484e-01) (89, 8.55494379997253417969e-01) (90, 3.79299558699131011963e-02) (91, 2.38943845033645629883e-01) (92, -4.00533437728881835938e-01) (93, 1.26863956451416015625e+01) (94, -1.23009264469146728516e-01) (95, -1.16600254550576210022e-02) (96, -5.98002612590789794922e-01) (97, -5.55689990520477294922e-01) (98, -9.49068129062652587891e-01) (99, -1.02916598320007324219e+00) (100, -5.15229590237140655518e-02) (0, 1.23363714218139648438e+01) (1, 9.70954799652099609375e+00) (2, 1.13986968994140625000e+00) (3, 1.09939980506896972656e+00) (4, 4.54129600524902343750e+00) (5, 1.82970094680786132812e+00) (6, 5.87529301643371582031e-01) (7, 3.77838134765625000000e+00) (8, 5.69067001342773437500e+00) (9, 4.59917068481445312500e+00) (10, 4.67702436447143554688e+00) (11, 4.72967958450317382812e+00) (12, 6.02386569976806640625e+00) (13, 7.35370397567749023438e+00) (14, 1.52683467864990234375e+01) (15, 8.59667420387268066406e-01) (16, 5.62265932559967041016e-01) (17, -5.60677719116210937500e+00) (18, 1.15783500671386718750e+00) (19, 6.84885740280151367188e-01) (20, 9.86476898193359375000e-01) (21, 1.12382364273071289062e+00) (22, 9.70956206321716308594e-01) (23, 9.55386698246002197266e-01) (24, 1.71706604957580566406e+00) (25, -3.59920144081115722656e-01) (26, -4.05795007944107055664e-01) (27, 9.96986091136932373047e-01) (28, 5.89815497398376464844e-01) (29, 6.44482994079589843750e+00) (30, 9.31103587150573730469e-01) (31, 7.00082302093505859375e-01) (32, 5.37249922752380371094e-01) (33, 1.64275109767913818359e+00) (34, 7.45844364166259765625e-01) (35, 2.98380881547927856445e-01) (36, 1.00842297077178955078e+00) (37, 1.17598807811737060547e+00) (38, 1.02140069007873535156e+00) (39, 1.83719253540039062500e+00) (40, 1.76861977577209472656e+00) (41, 2.21210765838623046875e+00) (42, 4.00754183530807495117e-01) (43, 8.72794032096862792969e-01) (44, 5.60062587261199951172e-01) (45, 1.00934982299804687500e+00) (46, 7.28198111057281494141e-01) (47, -2.37464338541030883789e-01) (48, -3.43117642402648925781e+00) (49, -3.19646358489990234375e+00) (50, -4.44555711746215820312e+00) (51, -3.38013052940368652344e+00) (52, -2.25134634971618652344e+00) (53, 1.41337509155273437500e+01) (54, 1.53509664535522460938e+01) (55, 1.95681629180908203125e+01) (56, 1.47631913423538208008e-01) (57, 2.12810710072517395020e-01) (58, 2.57237815856933593750e+00) (59, 3.33113121986389160156e+00) (60, 9.67450022697448730469e-01) (61, 4.48907941579818725586e-01) (62, 1.64400458335876464844e+00) (63, 3.76086044311523437500e+00) (64, 6.47274971008300781250e-01) (65, 1.13909232616424560547e+00) (66, 1.90526545047760009766e+00) (67, 5.47228860855102539062e+00) (68, 3.49137872457504272461e-01) (69, -1.22687935829162597656e+00) (70, -3.16002106666564941406e+00) (71, 9.80712985992431640625e+00) (72, -9.71016120910644531250e+00) (73, 4.47178802490234375000e+01) (74, 2.06644554138183593750e+01) (75, -7.97625122070312500000e+01) (76, 2.42969951629638671875e+01) (77, 5.39583778381347656250e+01) (78, 9.52285110950469970703e-01) (79, 9.00326728820800781250e-01) (80, 4.40618544816970825195e-01) (81, 7.54773974418640136719e-01) (82, 1.04058229923248291016e+00) (83, 7.80478835105895996094e-01) (84, 8.29728960990905761719e-01) (85, 1.66639298200607299805e-01) (86, 4.63333755731582641602e-01) (87, 8.74989926815032958984e-02) (88, 1.14853715896606445312e+00) (89, 9.73689913749694824219e-01) (90, 8.43176960945129394531e-01) (91, 5.43559074401855468750e-01) (92, 1.66256451606750488281e+00) (93, 1.18223261833190917969e+00) (94, 1.20127952098846435547e+00) (95, 1.01639401912689208984e+00) (96, 1.09926283359527587891e+00) (97, 5.23940145969390869141e-01) (98, -8.91893684864044189453e-01) (99, -1.64373564720153808594e+00) (100, 1.83839902281761169434e-01) (0, 4.53073740005493164062e+00) (1, 1.21983633041381835938e+01) (2, 9.72669124603271484375e+00) (3, 1.99939870834350585938e+00) (4, 1.06820452213287353516e+00) (5, 2.29237031936645507812e+00) (6, 2.85638713836669921875e+00) (7, 1.56436753273010253906e+00) (8, 1.48998270034790039062e+01) (9, 3.45577478408813476562e+00) (10, 4.88191604614257812500e+00) (11, 3.28313255310058593750e+01) (12, 8.87854766845703125000e+00) (13, 1.60195102691650390625e+01) (14, 4.49837799072265625000e+01) (15, 3.61938261985778808594e+00) (16, 1.15388774871826171875e+00) (17, 2.68419909477233886719e+00) (18, 1.35653865337371826172e+00) (19, 1.78570699691772460938e+00) (20, 7.38104701042175292969e-01) (21, 7.90801703929901123047e-01) (22, 1.06901872158050537109e+00) (23, 1.35918641090393066406e+00) (24, 2.07886481285095214844e+00) (25, 9.30925130844116210938e-01) (26, 6.11953377723693847656e-01) (27, 1.66225194931030273438e-01) (28, 8.31981897354125976562e-01) (29, 4.84043359756469726562e+00) (30, -1.47911155223846435547e+00) (31, -1.16114211082458496094e+00) (32, -3.23540240526199340820e-01) (33, 5.16982614994049072266e-01) (34, 1.28146433830261230469e+00) (35, -8.62024188041687011719e-01) (36, 3.99629443883895874023e-01) (37, 4.17118310928344726562e+00) (38, 2.68456125259399414062e+00) (39, 2.81359243392944335938e+00) (40, 5.77791357040405273438e+00) (41, 1.69581317901611328125e+01) (42, 1.31464357376098632812e+01) (43, 9.77443885803222656250e+00) (44, 2.86679196357727050781e+00) (45, 4.74277257919311523438e+00) (46, 6.07954931259155273438e+00) (47, 2.77712774276733398438e+00) (48, -4.34516668319702148438e+00) (49, -2.60199695825576782227e-01) (50, -2.18507796525955200195e-01) (51, -5.48165082931518554688e-01) (52, 1.07477498054504394531e+00) (53, 3.16446691751480102539e-01) (54, 5.59791994094848632812e+00) (55, 1.67008342742919921875e+01) (56, 4.24165219068527221680e-01) (57, 2.34859681129455566406e+00) (58, 6.01474761962890625000e-01) (59, 7.35215377807617187500e+00) (60, 7.32479190826416015625e+00) (61, 8.07424068450927734375e-01) (62, 1.65097999572753906250e+00) (63, -1.27701669931411743164e-01) (64, -2.03203821182250976562e+00) (65, -1.26470774412155151367e-02) (66, 2.50563311576843261719e+00) (67, 1.55192196369171142578e+00) (68, 5.64637124538421630859e-01) (69, 3.56412380933761596680e-01) (70, -1.54621810913085937500e+01) (71, 1.74770140647888183594e+00) (72, 7.18744993209838867188e+00) (73, 4.93607559204101562500e+01) (74, 4.05878410339355468750e+01) (75, -6.66396179199218750000e+01) (76, 5.18866615295410156250e+01) (77, 2.06002368927001953125e+01) (78, 3.61546277999877929688e+00) (79, 1.61539185047149658203e+00) (80, 2.90327757596969604492e-01) (81, 1.16429269313812255859e+00) (82, 8.28738629817962646484e-01) (83, 2.05537289381027221680e-01) (84, 9.08574387431144714355e-02) (85, 3.52073580026626586914e-01) (86, 2.37189114093780517578e-01) (87, 1.43547179177403450012e-02) (88, -7.59292766451835632324e-03) (89, 1.03839862346649169922e+00) (90, 1.51998102664947509766e-01) (91, 3.37312906980514526367e-01) (92, -3.30634802579879760742e-01) (93, 1.17636814117431640625e+01) (94, 7.25249886512756347656e-01) (95, 3.07669818401336669922e-01) (96, -6.59044325351715087891e-01) (97, -7.01214849948883056641e-01) (98, -7.74530470371246337891e-01) (99, -1.69442510604858398438e+00) (100, 3.60701791942119598389e-02) (0, -1.91784977912902832031e-01) (1, 7.77013320475816726685e-03) (2, 2.22108557820320129395e-01) (3, 2.56672173738479614258e-01) (4, 1.15821532905101776123e-01) (5, 4.35093529522418975830e-02) (6, 1.85212507843971252441e-01) (7, 6.00691325962543487549e-02) (8, -1.22161678969860076904e-01) (9, 1.24985240399837493896e-02) (10, 7.46883749961853027344e-02) (11, -3.21988552808761596680e-01) (12, -4.79981899261474609375e-01) (13, -3.32001209259033203125e-01) (14, -9.99821007251739501953e-01) (15, -2.60671734809875488281e+00) (16, -2.13381886482238769531e-01) (17, -6.10794425010681152344e-01) (18, 3.69020327925682067871e-02) (19, -1.91420227289199829102e-01) (20, 7.43960812687873840332e-02) (21, -7.22804963588714599609e-02) (22, -2.64522999525070190430e-01) (23, 8.03425163030624389648e-03) (24, -9.08599942922592163086e-02) (25, 2.01057165861129760742e-01) (26, 2.88246810436248779297e-01) (27, 1.79141551256179809570e-01) (28, 2.57996380329132080078e-01) (29, 1.19603089988231658936e-01) (30, 2.70519047975540161133e-01) (31, 7.25572258234024047852e-02) (32, -4.58656437695026397705e-02) (33, 9.97569710016250610352e-02) (34, 1.86099886894226074219e-01) (35, -2.38105398602783679962e-03) (36, -7.93101266026496887207e-02) (37, 2.67041444778442382812e-01) (38, 2.07440316677093505859e-01) (39, 4.12054479122161865234e-01) (40, 1.78674191236495971680e-01) (41, -1.98045194149017333984e-01) (42, -4.16320943832397460938e+00) (43, -1.54221311211585998535e-01) (44, -1.70987799763679504395e-01) (45, -3.54175180196762084961e-01) (46, 3.38952779769897460938e-01) (47, 5.16111373901367187500e-01) (48, 4.66278016567230224609e-01) (49, 1.80501207709312438965e-01) (50, 3.26567381620407104492e-01) (51, 3.21601688861846923828e-01) (52, 4.75376218557357788086e-01) (53, 1.78831964731216430664e-01) (54, 5.06000757217407226562e-01) (55, 9.46880221366882324219e-01) (56, 3.12808752059936523438e-01) (57, 2.24107503890991210938e-01) (58, 1.65452301502227783203e-01) (59, 7.06732422113418579102e-02) (60, 7.17616438865661621094e-01) (61, -2.45897948741912841797e-01) (62, -1.64787545800209045410e-01) (63, 9.03029859066009521484e-01) (64, 2.42511391639709472656e+00) (65, 7.03497767448425292969e-01) (66, 4.83356982469558715820e-01) (67, 2.45300665497779846191e-01) (68, 2.37239181995391845703e-01) (69, 2.70102351903915405273e-01) (70, -1.83849602937698364258e-01) (71, 1.77672490477561950684e-01) (72, 6.62844181060791015625e-02) (73, -5.71214020252227783203e-01) (74, 1.09070412814617156982e-01) (75, 5.58685660362243652344e-01) (76, -4.50377076864242553711e-01) (77, -7.35303640365600585938e-01) (78, 2.00084614753723144531e+00) (79, -7.17279091477394104004e-02) (80, -2.06435564905405044556e-02) (81, 1.09473496675491333008e-01) (82, 1.49856835603713989258e-01) (83, 6.20058238506317138672e-01) (84, 2.00025990605354309082e-01) (85, 8.49307537078857421875e-01) (86, -2.86464571952819824219e-01) (87, 1.05940461158752441406e-01) (88, 1.89486712217330932617e-01) (89, -1.98536741733551025391e+00) (90, -3.07924062013626098633e-01) (91, -9.16457269340753555298e-03) (92, 1.03854931890964508057e-01) (93, 3.73597443103790283203e-01) (94, -3.26893299818038940430e-01) (95, -2.22876295447349548340e-01) (96, -1.65731281042098999023e-01) (97, 6.97409687563776969910e-03) (98, 1.89594656229019165039e-01) (99, 3.18831396102905273438e+00) (100, 3.45012366771697998047e-01) (0, 1.74360132217407226562e+00) (1, 4.71590191125869750977e-01) (2, 1.42226028442382812500e+00) (3, 6.13310098648071289062e-01) (4, 4.16057050228118896484e-01) (5, 3.20146232843399047852e-01) (6, -1.98686644434928894043e-02) (7, 6.51906207203865051270e-02) (8, 2.22133666276931762695e-01) (9, 1.54269158840179443359e-01) (10, 4.23851191997528076172e-01) (11, 4.37014520168304443359e-01) (12, 6.15468323230743408203e-01) (13, 1.34679520130157470703e+00) (14, 2.21979212760925292969e+00) (15, 2.77159905433654785156e+00) (16, 1.80734717845916748047e+00) (17, 6.02824568748474121094e-01) (18, 4.62370932102203369141e-01) (19, 2.24540665745735168457e-01) (20, 3.68853777647018432617e-01) (21, 2.64793366193771362305e-01) (22, 8.10194551944732666016e-01) (23, 2.70012646913528442383e-01) (24, 1.00800640881061553955e-01) (25, 1.29902586340904235840e-01) (26, 1.14554703235626220703e-01) (27, 1.67954772710800170898e-01) (28, -7.99831986427307128906e-01) (29, 3.19995969533920288086e-01) (30, -5.42597293853759765625e-01) (31, -1.65838317871093750000e+01) (32, -2.80554032325744628906e+00) (33, -4.04817676544189453125e+00) (34, -6.04292869567871093750e-01) (35, -2.39239186048507690430e-01) (36, -1.53569862246513366699e-01) (37, -2.01326072216033935547e-01) (38, 6.91470280289649963379e-02) (39, -2.31277614831924438477e-01) (40, -1.85049563646316528320e-01) (41, -1.62688747048377990723e-01) (42, 7.79887974262237548828e-01) (43, 8.18134129047393798828e-01) (44, 8.61296653747558593750e-01) (45, 7.18300521373748779297e-01) (46, 1.20983552932739257812e+00) (47, 4.12170022726058959961e-01) (48, 1.52731746435165405273e-01) (49, 2.70265460014343261719e-01) (50, 3.90348643064498901367e-01) (51, 6.74391269683837890625e-01) (52, 3.43716114759445190430e-01) (53, -6.37354180216789245605e-02) (54, -1.96183025836944580078e-02) (55, 2.94347167015075683594e-01) (56, 5.18367178738117218018e-02) (57, -7.12874794006347656250e+00) (58, -9.26281452178955078125e-01) (59, 4.34480309486389160156e-01) (60, 6.60021066665649414062e-01) (61, 1.04897975921630859375e+00) (62, 8.73469293117523193359e-01) (63, 7.55618751049041748047e-01) (64, 1.07667434215545654297e+00) (65, 1.00928318500518798828e+00) (66, 1.21355473995208740234e+00) (67, 6.85046625137329101562e+00) (68, 5.92538881301879882812e+00) (69, 6.08309626579284667969e-01) (70, 5.32689988613128662109e-01) (71, 9.41572546958923339844e-01) (72, 2.78789132833480834961e-01) (73, 3.60799044370651245117e-01) (74, -5.43108224868774414062e-01) (75, -2.31447291374206542969e+00) (76, -4.06163781881332397461e-02) (77, 1.22947357594966888428e-01) (78, -3.46147584915161132812e+00) (79, -2.44005608558654785156e+00) (80, -1.01497673988342285156e+00) (81, -8.61661612987518310547e-01) (82, -2.10280239582061767578e-01) (83, -1.92291903495788574219e+00) (84, 2.82243359833955764771e-02) (85, 2.66444776207208633423e-02) (86, 1.23874098062515258789e-01) (87, 3.44454169273376464844e-01) (88, 1.15482282638549804688e+00) (89, 1.30661332607269287109e+00) (90, 1.21732461452484130859e+00) (91, 9.78588402271270751953e-01) (92, 1.12879407405853271484e+00) (93, 5.71265268325805664062e+00) (94, 9.53885354101657867432e-03) (95, -1.66623950004577636719e-01) (96, -7.10209608078002929688e-01) (97, -6.72049820423126220703e-01) (98, -9.44414854049682617188e-01) (99, -3.05938005447387695312e+00) (100, 3.78722161054611206055e-01) (0, 9.98974800109863281250e+00) (1, 5.74543809890747070312e+00) (2, 5.55517148971557617188e+00) (3, 1.04411935806274414062e+00) (4, 1.08393704891204833984e+00) (5, 3.63856554031372070312e-01) (6, 2.89455950260162353516e-01) (7, 2.24650129675865173340e-01) (8, 2.44249030947685241699e-01) (9, 3.28572243452072143555e-01) (10, 1.52855053544044494629e-01) (11, -7.61894732713699340820e-02) (12, 2.22456887364387512207e-01) (13, 2.57709801197052001953e-01) (14, -6.97716176509857177734e-02) (15, -8.37983512878417968750e+00) (16, -1.01595783233642578125e+01) (17, -1.02025318145751953125e+01) (18, -1.55587446689605712891e+00) (19, -8.94433403015136718750e+00) (20, -6.39109516143798828125e+00) (21, -2.49262332916259765625e+00) (22, -6.12751483917236328125e+00) (23, -6.22724914550781250000e+00) (24, 2.61925482749938964844e+00) (25, -1.62818050384521484375e+00) (26, -6.20463311672210693359e-01) (27, 6.81591629981994628906e-02) (28, 5.29508441686630249023e-02) (29, 1.21319048106670379639e-01) (30, 7.77299702167510986328e-02) (31, -1.47373795509338378906e-01) (32, -3.82898867130279541016e-01) (33, -6.16049289703369140625e-01) (34, 1.19438469409942626953e-01) (35, -4.83131408691406250000e-02) (36, -2.83391147851943969727e-01) (37, 3.02520900964736938477e-01) (38, -7.04034686088562011719e-01) (39, -6.93466782569885253906e-01) (40, 2.35429793596267700195e-01) (41, 5.52422142028808593750e+00) (42, -5.00458218157291412354e-02) (43, -5.67608535289764404297e-01) (44, 8.84706377983093261719e-01) (45, -3.38406950235366821289e-01) (46, -1.85330450534820556641e-01) (47, 3.31006217002868652344e+00) (48, 1.16695785522460937500e+00) (49, 3.73449492454528808594e+00) (50, 1.97797431945800781250e+01) (51, 6.67266488075256347656e-01) (52, 4.31365311145782470703e-01) (53, 4.58884626626968383789e-01) (54, 4.82254934310913085938e+00) (55, 1.16766386032104492188e+01) (56, 2.78043308258056640625e+01) (57, 1.08653097152709960938e+01) (58, 1.59623374938964843750e+01) (59, 2.37982215881347656250e+01) (60, 6.38298492431640625000e+01) (61, 3.43591117858886718750e+01) (62, 1.88734951019287109375e+01) (63, 1.50287055969238281250e+00) (64, -1.36858820915222167969e+00) (65, 5.41543722152709960938e-01) (66, 3.66880418732762336731e-03) (67, -2.21539273858070373535e-01) (68, -5.19208252429962158203e-01) (69, -1.50488328933715820312e+00) (70, -1.92400276660919189453e+00) (71, 1.06608867645263671875e-03) (72, 9.87803936004638671875e-01) (73, 1.54355514049530029297e+00) (74, 1.29076647758483886719e+00) (75, 4.84899610280990600586e-01) (76, 3.50333905220031738281e+00) (77, 2.48006706237792968750e+01) (78, -4.11567211151123046875e-01) (79, 5.17803311347961425781e-01) (80, -1.86525195837020874023e-01) (81, -1.83784976601600646973e-01) (82, 7.84031748771667480469e-01) (83, 1.82639942169189453125e+01) (84, 5.08454084396362304688e+00) (85, 5.24321794509887695312e-01) (86, 4.88933324813842773438e+00) (87, 9.18843150138854980469e-01) (88, 7.57482230663299560547e-01) (89, 6.54666423797607421875e-01) (90, 5.08802056312561035156e-01) (91, 8.12676310539245605469e-01) (92, -3.38991433382034301758e-01) (93, -5.89521360397338867188e+00) (94, -6.15730024874210357666e-02) (95, 2.57246959954500198364e-02) (96, -7.20904693007469177246e-02) (97, -1.58941507339477539062e-01) (98, -6.64300382137298583984e-01) (99, -8.60130488872528076172e-01) (100, 1.31120216846466064453e+00) (0, 7.56585597991943359375e+00) (1, 3.93593811988830566406e+00) (2, 2.29339933395385742188e+00) (3, 3.64409476518630981445e-01) (4, 1.59406602382659912109e-01) (5, 2.10956469178199768066e-01) (6, 1.22797019779682159424e-01) (7, 3.15855830907821655273e-01) (8, -6.46634697914123535156e-02) (9, -4.09273743629455566406e-01) (10, 9.36074703931808471680e-02) (11, -1.17045998573303222656e+00) (12, -5.77100813388824462891e-02) (13, 1.57306623458862304688e+00) (14, -1.07453787326812744141e+00) (15, -3.65894484519958496094e+00) (16, -3.29285836219787597656e+00) (17, -1.03937690734863281250e+02) (18, -1.20795021057128906250e+01) (19, -5.33665275573730468750e+00) (20, -5.25033473968505859375e+00) (21, -5.11695671081542968750e+00) (22, -1.20181522369384765625e+01) (23, -9.13128376007080078125e+00) (24, 1.48764598369598388672e+00) (25, -1.67701327800750732422e+00) (26, -4.24888163805007934570e-01) (27, 4.15924727916717529297e-01) (28, 6.75190806388854980469e-01) (29, 1.95384156703948974609e+00) (30, 2.77634119987487792969e+00) (31, 8.00053834915161132812e-01) (32, 1.13617420196533203125e-01) (33, 3.55363041162490844727e-01) (34, 1.14210760593414306641e+00) (35, 8.36072206497192382812e-01) (36, 1.20169568061828613281e+00) (37, 1.26596462726593017578e+00) (38, 9.77699875831604003906e-01) (39, 9.69419479370117187500e-01) (40, 2.59878902435302734375e+01) (41, 3.46048092842102050781e+00) (42, 1.76945257186889648438e+00) (43, 1.55490660667419433594e+00) (44, 1.36041855812072753906e+00) (45, 1.76226842403411865234e+00) (46, 8.75745296478271484375e-01) (47, 2.24728655815124511719e+00) (48, 2.04050960540771484375e+01) (49, 8.72351074218750000000e+00) (50, 2.04701461791992187500e+01) (51, 2.04437103271484375000e+01) (52, 8.84456157684326171875e+00) (53, 1.08241176605224609375e+00) (54, 7.62157678604125976562e-01) (55, 4.31459474563598632812e+00) (56, 3.92948951721191406250e+01) (57, 1.36881141662597656250e+01) (58, 2.01906871795654296875e+01) (59, 2.13406944274902343750e+01) (60, 2.14844436645507812500e+01) (61, 3.59907188415527343750e+01) (62, 2.50687885284423828125e+00) (63, 3.44931006431579589844e-01) (64, 5.77023439109325408936e-03) (65, -7.35855400562286376953e-02) (66, -6.74441039562225341797e-01) (67, -3.16297016143798828125e+01) (68, -1.18258867263793945312e+01) (69, -8.40496540069580078125e+00) (70, -8.44157886505126953125e+00) (71, -3.51514649391174316406e+00) (72, -1.35111880302429199219e+00) (73, 1.23460114002227783203e+00) (74, 2.48880103230476379395e-01) (75, -1.97511047124862670898e-01) (76, 1.26465892791748046875e+00) (77, 9.76569747924804687500e+00) (78, 2.89205938577651977539e-01) (79, -3.59427779912948608398e-02) (80, 3.54302711784839630127e-02) (81, 5.38230733945965766907e-03) (82, 1.54129564762115478516e+00) (83, 1.83545703887939453125e+01) (84, 1.42594900131225585938e+01) (85, 1.51610887050628662109e+00) (86, 8.04167842864990234375e+00) (87, 8.47929716110229492188e-01) (88, 6.50209546089172363281e-01) (89, 6.97704732418060302734e-01) (90, 7.43893563747406005859e-01) (91, 7.34353065490722656250e-01) (92, 3.33322048187255859375e-01) (93, -1.15375328063964843750e+01) (94, -5.01768477261066436768e-02) (95, -1.15340404212474822998e-01) (96, -5.12606687843799591064e-02) (97, -1.09068639576435089111e-01) (98, -4.89413350820541381836e-01) (99, -7.04802513122558593750e-01) (100, 1.33285772800445556641e+00) (0, -1.37983351945877075195e-01) (1, 1.81425258517265319824e-01) (2, 2.09556013345718383789e-01) (3, 9.35044169425964355469e-01) (4, 5.95547020435333251953e-01) (5, 5.80522418022155761719e-03) (6, 5.51043152809143066406e-01) (7, 1.63975155353546142578e+00) (8, 2.48161506652832031250e+00) (9, 7.98126840591430664062e+00) (10, 4.86242485046386718750e+00) (11, 2.36727452278137207031e+00) (12, -4.97378301620483398438e+00) (13, 6.33731484413146972656e-01) (14, 9.58317518234252929688e-01) (15, 1.13399469852447509766e+00) (16, 6.39839053153991699219e-01) (17, 9.92207229137420654297e-01) (18, 8.78011107444763183594e-01) (19, 3.83770912885665893555e-01) (20, 1.49732664227485656738e-01) (21, -9.68646910041570663452e-03) (22, 8.39487910270690917969e-01) (23, 4.49086278676986694336e-01) (24, 1.14335894584655761719e-01) (25, 3.77537727355957031250e-01) (26, 5.97245037555694580078e-01) (27, 5.13350605964660644531e-01) (28, 9.36853051185607910156e-01) (29, 4.86574113368988037109e-01) (30, 4.58025671541690826416e-02) (31, -3.82536873221397399902e-02) (32, 8.96084681153297424316e-02) (33, -6.19612559676170349121e-02) (34, -1.25340193510055541992e-01) (35, -1.25553156249225139618e-03) (36, -2.40386039018630981445e-01) (37, -1.07700014114379882812e+00) (38, -4.48142945766448974609e-01) (39, -3.42573344707489013672e-01) (40, 1.33823060989379882812e+00) (41, 1.96006989479064941406e+00) (42, -4.13548135757446289062e+00) (43, -1.15481269359588623047e+00) (44, -3.04484963417053222656e+00) (45, -8.65485906600952148438e-01) (46, -2.84427195787429809570e-01) (47, 2.20860219001770019531e+00) (48, 2.95419484376907348633e-01) (49, 5.86959123611450195312e-01) (50, 2.98585629463195800781e+00) (51, 8.82783055305480957031e-01) (52, 7.07343459129333496094e-01) (53, 2.21519872546195983887e-01) (54, 1.88500240445137023926e-01) (55, 4.49468106031417846680e-01) (56, -1.12009271979331970215e-01) (57, -1.97849765419960021973e-01) (58, -2.75225132703781127930e-01) (59, -4.21489566564559936523e-01) (60, 8.68572831153869628906e-01) (61, 2.12643909454345703125e+00) (62, 4.13554698228836059570e-01) (63, 3.16645526885986328125e+00) (64, 2.07401409149169921875e+01) (65, 9.28424060344696044922e-01) (66, -7.88339972496032714844e-01) (67, -1.58176603317260742188e+01) (68, -8.67109060287475585938e-01) (69, -8.96531462669372558594e-01) (70, -2.13308818638324737549e-02) (71, 1.40637844800949096680e-01) (72, 2.15682908892631530762e-02) (73, 3.29851180315017700195e-01) (74, 2.52345621585845947266e-01) (75, 2.03533577919006347656e+00) (76, -4.59361404180526733398e-01) (77, 4.33185547590255737305e-01) (78, 8.29997634887695312500e+00) (79, 3.22609329223632812500e+00) (80, 1.55432796478271484375e+00) (81, 2.94015258550643920898e-01) (82, 3.23485881090164184570e-01) (83, 9.00696277618408203125e-01) (84, 1.21785736083984375000e+00) (85, 5.14897584915161132812e-01) (86, 5.83068847656250000000e-01) (87, 1.60307168960571289062e-01) (88, -3.54968830943107604980e-02) (89, -2.19025552272796630859e-01) (90, -1.81108891963958740234e-01) (91, -1.14536821842193603516e-01) (92, -2.35949568450450897217e-02) (93, -3.50212049484252929688e+00) (94, -2.61433333158493041992e-01) (95, 5.83269357681274414062e-01) (96, 5.92978477478027343750e-01) (97, 6.22010946273803710938e-01) (98, 6.31377220153808593750e-01) (99, 2.71005463600158691406e+00) (100, 1.24191009998321533203e+00) (0, 4.89792674779891967773e-01) (1, 5.13412773609161376953e-01) (2, 8.99960622191429138184e-02) (3, -1.47022557258605957031e+00) (4, -1.51410388946533203125e+00) (5, -1.36126136779785156250e+00) (6, -2.37598824501037597656e+00) (7, -8.37495684623718261719e-01) (8, -1.45487785339355468750e+00) (9, -1.44524393081665039062e+01) (10, -6.76019132137298583984e-01) (11, -7.69681811332702636719e-01) (12, -6.47312283515930175781e-01) (13, -2.76380360126495361328e-01) (14, -1.78166151046752929688e+00) (15, -2.32731744647026062012e-01) (16, -9.78945791721343994141e-02) (17, 1.24984097480773925781e+00) (18, 8.87867927551269531250e-01) (19, 1.75919786095619201660e-01) (20, 5.54250895977020263672e-01) (21, 1.00093495845794677734e+00) (22, 1.21053600311279296875e+00) (23, 2.04866099357604980469e+00) (24, 1.20176362991333007812e+00) (25, 3.27971160411834716797e-01) (26, 8.47779035568237304688e-01) (27, 3.53447943925857543945e-01) (28, 6.43706679344177246094e-01) (29, 7.12266504764556884766e-01) (30, 3.02058488130569458008e-01) (31, 4.62854862213134765625e-01) (32, -8.90740633010864257812e-01) (33, 2.10324406623840332031e-01) (34, 4.98302608728408813477e-01) (35, -5.95643818378448486328e-01) (36, 2.34458833932876586914e-01) (37, 6.20129048824310302734e-01) (38, 1.62688285112380981445e-01) (39, 5.05544900894165039062e-01) (40, 8.00844490528106689453e-01) (41, 1.62908816337585449219e+00) (42, 2.32740855216979980469e+00) (43, 7.73166954517364501953e-01) (44, 7.39308059215545654297e-01) (45, 3.21217966079711914062e+00) (46, 8.70566070079803466797e-01) (47, 1.90070778131484985352e-01) (48, 1.68242728710174560547e+00) (49, -4.16890293359756469727e-01) (50, -7.31357812881469726562e-01) (51, 8.25637817382812500000e-01) (52, -4.17470708489418029785e-02) (53, -4.51941877603530883789e-01) (54, -3.01319479942321777344e-01) (55, 1.21981233358383178711e-01) (56, 1.05035293102264404297e+00) (57, 4.91413891315460205078e-01) (58, -1.09311714768409729004e-01) (59, 1.59317469596862792969e+00) (60, 3.88868737220764160156e+00) (61, 2.66949445009231567383e-01) (62, 4.38548624515533447266e-01) (63, 1.11776494979858398438e+00) (64, 3.56847822666168212891e-01) (65, 3.73644208908081054688e+00) (66, 2.98573837280273437500e+01) (67, 1.49058847427368164062e+01) (68, 9.90538883209228515625e+00) (69, 5.03273916244506835938e+00) (70, 7.72012281417846679688e+00) (71, 2.27513980865478515625e+00) (72, 5.55161428451538085938e+00) (73, -1.05924758911132812500e+01) (74, 4.34376192092895507812e+00) (75, 1.01455557346343994141e+00) (76, 1.17689549922943115234e-01) (77, 4.78228598833084106445e-01) (78, -7.86314606666564941406e-01) (79, -3.19763040542602539062e+00) (80, -1.66505098342895507812e+00) (81, 3.74081403017044067383e-01) (82, 5.90620398521423339844e-01) (83, -7.46005773544311523438e-02) (84, -3.71012799441814422607e-02) (85, 2.06163465976715087891e-01) (86, -1.84309870004653930664e-01) (87, -9.01161953806877136230e-02) (88, -5.47849833965301513672e-02) (89, 3.81882116198539733887e-02) (90, 1.00861549377441406250e+00) (91, 2.18997955322265625000e-01) (92, -5.50540983676910400391e-02) (93, 9.61681529879570007324e-02) (94, -9.40064620971679687500e+00) (95, -8.57287883758544921875e-01) (96, -8.20957779884338378906e-01) (97, -8.81567180156707763672e-01) (98, -4.75178271532058715820e-01) (99, -2.85890150070190429688e+00) (100, 2.56512224674224853516e-01) (0, 1.08472871780395507812e+00) (1, 9.75058913230895996094e-01) (2, 8.58074188232421875000e-01) (3, -4.97063159942626953125e-01) (4, -1.23786139488220214844e+00) (5, -7.15026795864105224609e-01) (6, -4.07260322570800781250e+00) (7, -4.27904415130615234375e+00) (8, 1.67276096343994140625e+00) (9, -2.25102829933166503906e+00) (10, -2.68371939659118652344e+00) (11, 2.10011005401611328125e+00) (12, -1.01904344558715820312e+00) (13, -2.15568304061889648438e+00) (14, 3.10587668418884277344e+00) (15, 1.83421047404408454895e-03) (16, 1.78826212882995605469e-01) (17, -2.48642182350158691406e+00) (18, -1.41716942191123962402e-01) (19, 3.76368433237075805664e-01) (20, 1.29115986824035644531e+00) (21, 1.47791492938995361328e+00) (22, 1.86750030517578125000e+00) (23, 1.87433028221130371094e+00) (24, 1.39315676689147949219e+00) (25, 1.38730633258819580078e+00) (26, 8.20004940032958984375e-01) (27, 7.03342080116271972656e-01) (28, 9.48332667350769042969e-01) (29, 7.26680755615234375000e-01) (30, 8.49632978439331054688e-01) (31, 6.47453606128692626953e-01) (32, 4.84687745571136474609e-01) (33, -7.31227159500122070312e-01) (34, 4.41379338502883911133e-01) (35, -7.81555294990539550781e-01) (36, -1.39098060131072998047e+00) (37, -1.59907209873199462891e+00) (38, -1.59179079532623291016e+00) (39, -1.49450743198394775391e+00) (40, -7.13608384132385253906e-01) (41, -4.07347393035888671875e+00) (42, 4.25661563873291015625e-01) (43, -1.25665232539176940918e-01) (44, -1.37322902679443359375e+00) (45, -1.70704054832458496094e+00) (46, -2.85322368144989013672e-02) (47, -5.00490367412567138672e-02) (48, -6.43083751201629638672e-02) (49, -2.74437546730041503906e-01) (50, 2.56459593772888183594e-01) (51, -1.49016641080379486084e-02) (52, -7.43213176727294921875e-01) (53, -5.21054506301879882812e-01) (54, -3.30848067998886108398e-01) (55, -1.99873194098472595215e-01) (56, 1.74341416358947753906e+00) (57, 1.53750574588775634766e+00) (58, 4.60856056213378906250e+00) (59, 1.77722346782684326172e+00) (60, 3.78024697303771972656e+00) (61, 9.38820004463195800781e-01) (62, 1.05968022346496582031e+00) (63, 1.73073387145996093750e+00) (64, -2.28756189346313476562e+00) (65, 1.07031250000000000000e+00) (66, -9.01291847229003906250e+00) (67, 1.05667181015014648438e+01) (68, 1.01323595046997070312e+01) (69, 6.52279663085937500000e+00) (70, 4.28366756439208984375e+00) (71, 5.85624694824218750000e+00) (72, 4.47761088609695434570e-01) (73, -8.23307418823242187500e+00) (74, 1.54112279415130615234e-02) (75, -2.41945767402648925781e+00) (76, -4.71178501844406127930e-01) (77, -3.97279173135757446289e-01) (78, -5.59785270690917968750e+00) (79, -2.53944568634033203125e+01) (80, -1.79472217559814453125e+01) (81, -7.83897113800048828125e+00) (82, 6.23740732669830322266e-01) (83, -8.42043235898017883301e-02) (84, -2.15729847550392150879e-02) (85, -1.84343338012695312500e-01) (86, -9.34235230088233947754e-02) (87, -1.50382876396179199219e-01) (88, -4.34464216232299804688e-02) (89, -8.44119936227798461914e-02) (90, 4.12561744451522827148e-01) (91, 6.71785950660705566406e-01) (92, 8.73656868934631347656e-01) (93, 4.89565223455429077148e-01) (94, -3.46798400878906250000e+01) (95, -9.50387597084045410156e-01) (96, -1.11248493194580078125e+00) (97, -1.24668538570404052734e+00) (98, -1.13128268718719482422e+00) (99, -1.53814959526062011719e+00) (100, -3.14315967261791229248e-02) (0, 4.52546405792236328125e+00) (1, 5.01668882369995117188e+00) (2, 5.15444803237915039062e+00) (3, -3.29323299229145050049e-02) (4, 2.31661871075630187988e-01) (5, 3.39774876832962036133e-01) (6, 1.85184204578399658203e+00) (7, 3.96591114997863769531e+00) (8, 1.36743307113647460938e+01) (9, 4.38281965255737304688e+00) (10, 1.36479120254516601562e+01) (11, 1.90978260040283203125e+01) (12, 7.49830198287963867188e+00) (13, 9.31794357299804687500e+00) (14, 1.00756187438964843750e+01) (15, 1.07701647281646728516e+00) (16, 1.78760647773742675781e+00) (17, -3.14210939407348632812e+00) (18, -3.05944830179214477539e-01) (19, 8.42662811279296875000e-01) (20, 8.78382444381713867188e-01) (21, 7.44836688041687011719e-01) (22, 6.01198077201843261719e-01) (23, 1.75106763839721679688e+00) (24, 1.48339116573333740234e+00) (25, 4.09614771604537963867e-01) (26, 3.80390673875808715820e-01) (27, 4.50455427169799804688e-01) (28, 5.80927550792694091797e-01) (29, 1.43834710121154785156e+00) (30, 8.89418900012969970703e-01) (31, -1.36088788509368896484e-01) (32, -3.33962053060531616211e-01) (33, -4.24257457256317138672e-01) (34, 1.13667714595794677734e+00) (35, 7.62946248054504394531e-01) (36, 1.36875545978546142578e+00) (37, 1.37183535099029541016e+00) (38, -1.22731959819793701172e+00) (39, 8.99731826782226562500e+00) (40, 1.80523204803466796875e+01) (41, -5.22819161415100097656e-01) (42, 5.58676540851593017578e-01) (43, 2.49734401702880859375e+00) (44, 2.49209308624267578125e+00) (45, 5.20696067810058593750e+00) (46, 1.01158123016357421875e+01) (47, 5.09978675842285156250e+00) (48, 3.35157394409179687500e+00) (49, 8.65550488233566284180e-02) (50, 9.52011048793792724609e-01) (51, 4.31890058517456054688e+00) (52, 8.70359992980957031250e+00) (53, 1.29260432720184326172e+00) (54, 6.39652967453002929688e-01) (55, 1.92420310974121093750e+01) (56, 2.49484367370605468750e+01) (57, 1.83440189361572265625e+01) (58, 1.79890365600585937500e+01) (59, 7.42712974548339843750e-01) (60, 5.38738727569580078125e+00) (61, 1.33299434185028076172e+00) (62, 2.90964221954345703125e+00) (63, 1.81819689273834228516e+00) (64, -4.18595886230468750000e+00) (65, 1.06702804565429687500e+00) (66, 8.81878757476806640625e+00) (67, 1.37695188522338867188e+01) (68, 1.09121000766754150391e+00) (69, 9.33635771274566650391e-01) (70, 6.06232881546020507812e-01) (71, 6.24534463882446289062e+00) (72, 1.35804338455200195312e+01) (73, 5.48953094482421875000e+01) (74, 4.78623008728027343750e+00) (75, -2.27432823181152343750e+01) (76, 1.93390331268310546875e+01) (77, 1.37548093795776367188e+01) (78, 9.29407119750976562500e+00) (79, 1.93015003204345703125e+00) (80, 1.06033694744110107422e+00) (81, 1.70006465911865234375e+00) (82, 7.54321038722991943359e-01) (83, 2.34301358461380004883e-01) (84, -3.10643732547760009766e-01) (85, -8.95730927586555480957e-02) (86, 3.69730681180953979492e-01) (87, 3.64940851926803588867e-01) (88, 3.19850623607635498047e-01) (89, 1.00647580623626708984e+00) (90, 3.52421134710311889648e-01) (91, 3.14635604619979858398e-01) (92, -8.03126692771911621094e-01) (93, -6.37658953666687011719e-01) (94, 8.01902389526367187500e+00) (95, 6.46605715155601501465e-02) (96, -6.86212062835693359375e-01) (97, -7.62133836746215820312e-01) (98, -8.53662967681884765625e-01) (99, -1.21638166904449462891e+00) (100, 6.49592727422714233398e-02) (0, 3.83562111854553222656e+00) (1, 8.93842816352844238281e-01) (2, 2.40669274330139160156e+00) (3, 2.35361409187316894531e+00) (4, 1.00332045555114746094e+00) (5, 4.17455285787582397461e-01) (6, 3.85023176670074462891e-01) (7, 2.92534202337265014648e-01) (8, 2.29372811317443847656e+00) (9, 6.28971278667449951172e-01) (10, 3.65558594465255737305e-01) (11, 5.17863392829895019531e-01) (12, 3.44922244548797607422e-01) (13, 1.12816452980041503906e-01) (14, -5.52935719490051269531e-01) (15, -1.27759706974029541016e+00) (16, -3.56338888406753540039e-01) (17, -3.41815137863159179688e+00) (18, -8.67804241180419921875e+00) (19, -3.54361104965209960938e+00) (20, -6.05353355407714843750e+00) (21, -6.01767158508300781250e+00) (22, -1.48589057922363281250e+01) (23, -3.55087814331054687500e+01) (24, -7.80001759529113769531e-01) (25, -2.11649303436279296875e+01) (26, -6.49863600730895996094e-01) (27, 3.57892401516437530518e-02) (28, -1.30759119987487792969e-01) (29, -1.05891600251197814941e-01) (30, -6.67960166931152343750e-01) (31, -9.05726194381713867188e-01) (32, -2.39397454261779785156e+00) (33, -2.10811114311218261719e+00) (34, -1.60632336139678955078e+00) (35, -8.06732058525085449219e-01) (36, -1.13269853591918945312e+00) (37, -1.57325732707977294922e+00) (38, -7.92372703552246093750e-01) (39, -5.07109999656677246094e-01) (40, 5.85378885269165039062e-01) (41, -3.02904605865478515625e-01) (42, -2.54718005657196044922e-01) (43, 3.36513817310333251953e-02) (44, -1.68480396270751953125e-01) (45, -1.53707116842269897461e-01) (46, 2.69461601972579956055e-01) (47, 2.37575873732566833496e-01) (48, 4.33793962001800537109e-01) (49, 4.32887315750122070312e-01) (50, 4.40075814723968505859e-01) (51, 8.57410430908203125000e-01) (52, 4.09963560104370117188e+00) (53, 3.19011211395263671875e+00) (54, 7.24564027786254882812e+00) (55, 5.89196586608886718750e+00) (56, 7.44520416259765625000e+01) (57, 3.18354682922363281250e+01) (58, 2.83442516326904296875e+01) (59, 3.15640888214111328125e+01) (60, 4.46703071594238281250e+01) (61, 6.54498291015625000000e+01) (62, 3.39459991455078125000e+01) (63, 2.13103413581848144531e+00) (64, 3.36850374937057495117e-01) (65, 8.16835582256317138672e-01) (66, -1.01046808063983917236e-01) (67, -3.13762187957763671875e-01) (68, -5.86510181427001953125e-01) (69, -9.05235290527343750000e-01) (70, -9.93877768516540527344e-01) (71, 3.49869102239608764648e-01) (72, 5.72962403297424316406e-01) (73, 9.74143505096435546875e-01) (74, 6.78056597709655761719e-01) (75, 5.36170864105224609375e+00) (76, 1.11293780803680419922e+00) (77, 4.36001930236816406250e+01) (78, -1.12118005752563476562e-01) (79, 1.13688923418521881104e-01) (80, -1.75847038626670837402e-01) (81, -1.12881056964397430420e-01) (82, 5.72595715522766113281e-01) (83, 1.77125587463378906250e+01) (84, 3.28828964233398437500e+01) (85, 1.60865151882171630859e+00) (86, 3.69450688362121582031e+00) (87, 6.98142647743225097656e-01) (88, 5.63362538814544677734e-01) (89, 1.32955348491668701172e+00) (90, 9.19382274150848388672e-01) (91, 6.31356298923492431641e-01) (92, 5.65493047237396240234e-01) (93, -1.06899595260620117188e+01) (94, -1.15498133003711700439e-01) (95, 1.12731099128723144531e-01) (96, 1.46816939115524291992e-01) (97, -2.15376615524291992188e-01) (98, -2.67454802989959716797e-01) (99, -3.81983011960983276367e-01) (100, 1.28291511535644531250e+00) (0, 4.85901623964309692383e-01) (1, 2.71920770406723022461e-01) (2, 3.90433192253112792969e+00) (3, 1.71099448204040527344e+00) (4, 1.78920775651931762695e-02) (5, -4.44697923958301544189e-02) (6, -5.27606785297393798828e-01) (7, -2.06641256809234619141e-01) (8, 3.02563041448593139648e-01) (9, 2.12503820657730102539e-01) (10, 1.94327354431152343750e-01) (11, 1.61970451474189758301e-01) (12, 2.75085210800170898438e-01) (13, 2.40774631500244140625e-01) (14, 3.68408352136611938477e-01) (15, 1.50414556264877319336e-01) (16, 2.17795386910438537598e-01) (17, -2.92875671386718750000e+01) (18, -8.81247901916503906250e+00) (19, 5.13541176915168762207e-02) (20, -6.21391677856445312500e+00) (21, -1.50923213958740234375e+01) (22, 9.88572984933853149414e-02) (23, -1.47317657470703125000e+01) (24, -6.16796731948852539062e-01) (25, -3.54068493843078613281e+00) (26, -9.94324564933776855469e-01) (27, -4.24302846193313598633e-01) (28, -8.97422432899475097656e-01) (29, 5.96782803535461425781e-01) (30, 5.07297098636627197266e-01) (31, 2.12083846330642700195e-01) (32, -5.54177798330783843994e-02) (33, 3.77581715583801269531e-01) (34, 6.03849649429321289062e+00) (35, 1.69150090217590332031e+00) (36, 3.67328476905822753906e+00) (37, 1.16426515579223632812e+01) (38, -3.63951277732849121094e+00) (39, -7.93801259994506835938e+00) (40, -1.82496607303619384766e-01) (41, -1.26357259750366210938e+01) (42, 1.32733278274536132812e+01) (43, 2.76766071319580078125e+01) (44, 2.36928691864013671875e+01) (45, 2.27147026062011718750e+01) (46, 2.56481704711914062500e+01) (47, 1.46609449386596679688e+01) (48, 6.72465591430664062500e+01) (49, 3.30698471069335937500e+01) (50, 3.98554158210754394531e+00) (51, 1.55286312103271484375e+01) (52, 1.13601636886596679688e+01) (53, 7.16377973556518554688e+00) (54, 2.23341584205627441406e+00) (55, 1.07981338500976562500e+02) (56, 3.01889743804931640625e+01) (57, 5.58965396881103515625e+00) (58, 8.05928993225097656250e+00) (59, 9.28481960296630859375e+00) (60, 1.32290795445442199707e-01) (61, -1.17102479934692382812e+00) (62, -3.14461970329284667969e+00) (63, -3.78109025955200195312e+00) (64, -1.11896121501922607422e+00) (65, 3.12234997749328613281e-01) (66, -2.63412833213806152344e+00) (67, 1.10864934921264648438e+01) (68, -1.81998348236083984375e+01) (69, -1.23712205886840820312e+01) (70, -2.96626734733581542969e+00) (71, -6.22150301933288574219e-01) (72, -7.80130326747894287109e-02) (73, 1.92532807588577270508e-01) (74, 2.38492786884307861328e-01) (75, -7.69968509674072265625e-01) (76, 2.95674657821655273438e+00) (77, 2.20332126617431640625e+01) (78, 3.84852856397628784180e-01) (79, 2.44187521934509277344e+00) (80, 1.48502588272094726562e-01) (81, 8.48573744297027587891e-02) (82, 1.53380006551742553711e-01) (83, 1.37811536788940429688e+01) (84, 6.37538290023803710938e+00) (85, 3.75672364234924316406e+00) (86, 3.69822740554809570312e+00) (87, 9.76079046726226806641e-01) (88, 5.68568348884582519531e-01) (89, 5.25295019149780273438e-01) (90, 4.63272869586944580078e-01) (91, 7.64955997467041015625e-01) (92, 6.10727906227111816406e-01) (93, -4.35782432556152343750e+00) (94, 1.31623968482017517090e-01) (95, 1.27393782138824462891e-01) (96, 4.33947369456291198730e-02) (97, -3.76135148108005523682e-02) (98, -5.19431710243225097656e-01) (99, -6.80746495723724365234e-01) (100, 1.22290015220642089844e+00) (0, -3.25678894296288490295e-03) (1, 2.52391397953033447266e-01) (2, 3.41768592596054077148e-01) (3, 1.41240656375885009766e+00) (4, 5.19438922405242919922e-01) (5, 7.19764649868011474609e-01) (6, 1.82825803756713867188e+00) (7, 9.27601993083953857422e-01) (8, 1.39021229743957519531e+00) (9, 8.27145290374755859375e+00) (10, 7.92285537719726562500e+00) (11, 3.58894324302673339844e+00) (12, -2.64809417724609375000e+00) (13, 4.51172024011611938477e-01) (14, 5.92357754707336425781e-01) (15, 7.45954871177673339844e-01) (16, 2.87733554840087890625e-01) (17, -3.13875883817672729492e-01) (18, 8.23805332183837890625e-01) (19, 3.83112788200378417969e-01) (20, 2.14809462428092956543e-01) (21, 4.94013488292694091797e-01) (22, 6.29411220550537109375e-01) (23, 5.45639276504516601562e+00) (24, 3.19645255804061889648e-01) (25, 7.17103362083435058594e-01) (26, 6.70940816402435302734e-01) (27, 7.12198197841644287109e-01) (28, 2.41575169563293457031e+00) (29, 3.01867628097534179688e+00) (30, 3.50201614201068878174e-02) (31, 1.64841353893280029297e-01) (32, 2.31046110391616821289e-01) (33, 3.87259051203727722168e-02) (34, -2.67701651901006698608e-02) (35, 8.15508887171745300293e-02) (36, -2.46035195887088775635e-02) (37, -3.16686779260635375977e-01) (38, -2.33912974596023559570e-01) (39, -1.10774683952331542969e+00) (40, -2.25179433822631835938e+00) (41, -5.42547106742858886719e-01) (42, -1.16614246368408203125e+00) (43, -2.45384430885314941406e+00) (44, -2.79453778266906738281e+00) (45, 2.91293549537658691406e+00) (46, 3.55138230323791503906e+00) (47, 1.48869544267654418945e-01) (48, 2.55327761173248291016e-01) (49, 4.37066793441772460938e-01) (50, 4.95448023080825805664e-01) (51, 7.80326843261718750000e-01) (52, 8.80556762218475341797e-01) (53, 2.61126041412353515625e-01) (54, 1.58920809626579284668e-01) (55, 1.82185173034667968750e-01) (56, 5.23338556289672851562e-01) (57, 2.93740063905715942383e-01) (58, 2.46243166923522949219e+00) (59, 1.38482481241226196289e-01) (60, 5.64733028411865234375e-01) (61, 1.84469908475875854492e-01) (62, -7.93904066085815429688e-01) (63, 8.68083000183105468750e+00) (64, 7.31732368469238281250e+00) (65, 6.38781261444091796875e+00) (66, 1.02226233482360839844e+00) (67, -1.02211017608642578125e+01) (68, -4.19905042648315429688e+00) (69, -6.90448403358459472656e-01) (70, 1.67881026864051818848e-01) (71, 7.23587721586227416992e-02) (72, 1.09484225511550903320e-01) (73, 1.27176344394683837891e-01) (74, 2.52392381429672241211e-01) (75, 2.00678610801696777344e+00) (76, -4.20094102621078491211e-01) (77, 8.07937264442443847656e-01) (78, 3.95560145378112792969e+00) (79, 8.09239101409912109375e+00) (80, 4.52140617370605468750e+00) (81, 6.45718872547149658203e-02) (82, 3.46023112535476684570e-01) (83, 7.91920781135559082031e-01) (84, 1.03009390830993652344e+00) (85, 8.71720433235168457031e-01) (86, 4.15194839239120483398e-01) (87, -8.50814431905746459961e-02) (88, -5.37381786853075027466e-03) (89, -3.86639207601547241211e-01) (90, -3.60951691865921020508e-01) (91, -3.61218959093093872070e-01) (92, -2.41348206996917724609e-01) (93, -1.39061486721038818359e+00) (94, 1.76788389682769775391e-01) (95, 5.75119495391845703125e-01) (96, 4.64212775230407714844e-01) (97, 4.32190746068954467773e-01) (98, 5.69838464260101318359e-01) (99, 2.62279582023620605469e+00) (100, 1.36440563201904296875e+00) (0, 1.16113924980163574219e+00) (1, 1.89329516887664794922e+00) (2, 3.53602552413940429688e+00) (3, 2.57072180509567260742e-01) (4, -8.84431824088096618652e-02) (5, 5.43843358755111694336e-02) (6, 4.37824666500091552734e-01) (7, 3.45559215545654296875e+00) (8, 3.01087284088134765625e+00) (9, 1.41098845005035400391e+00) (10, 2.40698814392089843750e+00) (11, 3.85886383056640625000e+00) (12, 1.44170689582824707031e+00) (13, 3.96413993835449218750e+00) (14, 4.34021711349487304688e+00) (15, 6.21228516101837158203e-01) (16, 9.29312646389007568359e-01) (17, 2.19996619224548339844e+00) (18, 1.10487401485443115234e+00) (19, 1.04509913921356201172e+00) (20, 7.62180924415588378906e-01) (21, 6.81356191635131835938e-01) (22, 8.62848103046417236328e-01) (23, 1.37054622173309326172e+00) (24, 2.10636734962463378906e+00) (25, 6.39869868755340576172e-01) (26, 6.55940949916839599609e-01) (27, 5.21321356296539306641e-01) (28, 9.16149839758872985840e-02) (29, 6.26885354518890380859e-01) (30, -5.70432364940643310547e-01) (31, -5.11338829994201660156e-01) (32, -8.56428921222686767578e-01) (33, -8.71423721313476562500e+00) (34, -1.04040801525115966797e+00) (35, -1.30417156219482421875e+00) (36, -5.67904615402221679688e+00) (37, -5.26935243606567382812e+00) (38, -3.22387051582336425781e+00) (39, -5.86428403854370117188e+00) (40, -2.49737429618835449219e+00) (41, -1.91370439529418945312e+00) (42, -4.10263687372207641602e-01) (43, -1.38914394378662109375e+00) (44, -4.32211446762084960938e+00) (45, 1.47495031356811523438e+00) (46, -8.11820507049560546875e+00) (47, -7.20924854278564453125e-01) (48, -5.69420635700225830078e-01) (49, -1.07300829887390136719e+00) (50, -1.01388144493103027344e+00) (51, -6.43078625202178955078e-01) (52, -1.80316329002380371094e+00) (53, -1.11270761489868164062e+00) (54, -1.40619301795959472656e+00) (55, 7.78914153575897216797e-01) (56, -1.09320186078548431396e-01) (57, -6.94090351462364196777e-02) (58, 1.78729772567749023438e-01) (59, -7.17108607292175292969e-01) (60, -6.13488778471946716309e-02) (61, 1.21500521898269653320e-01) (62, 1.55360722541809082031e+00) (63, 4.88768517971038818359e-02) (64, -1.68647575378417968750e+01) (65, 1.33923673629760742188e+00) (66, 2.95570449829101562500e+01) (67, 5.13209724426269531250e+00) (68, 4.74325561523437500000e+00) (69, 2.21028780937194824219e+00) (70, 7.07410573959350585938e+00) (71, 8.70064616203308105469e-01) (72, 2.54128277301788330078e-01) (73, 1.37448382377624511719e+00) (74, 1.26405501365661621094e+00) (75, 6.07212185859680175781e-01) (76, 2.16069793701171875000e+00) (77, 8.71310830116271972656e-01) (78, -1.34079074859619140625e+00) (79, -1.25861430168151855469e+00) (80, -5.55973243713378906250e+00) (81, -6.33868932723999023438e-01) (82, 2.40354314446449279785e-01) (83, 1.48406505584716796875e-01) (84, 9.26798880100250244141e-02) (85, -3.67080122232437133789e-01) (86, 1.97313390672206878662e-02) (87, -1.40523165464401245117e-02) (88, -9.24922302365303039551e-02) (89, 4.00896191596984863281e-01) (90, 1.38486170768737792969e+00) (91, 4.68566745519638061523e-01) (92, 1.01952838897705078125e+00) (93, -1.02840816974639892578e+00) (94, -1.48569726943969726562e+01) (95, -9.59189713001251220703e-01) (96, -9.14808630943298339844e-01) (97, -1.10676765441894531250e+00) (98, -1.15202748775482177734e+00) (99, -1.86514973640441894531e+00) (100, -6.55878856778144836426e-02) (0, 3.21893882751464843750e+00) (1, 4.97703880071640014648e-01) (2, 9.90001082420349121094e-01) (3, 4.10970479249954223633e-01) (4, 1.40127086639404296875e+00) (5, 1.41077995300292968750e+00) (6, 9.19210314750671386719e-01) (7, 7.03888654708862304688e-01) (8, 5.70258975028991699219e-01) (9, 4.20804321765899658203e-01) (10, 5.83504974842071533203e-01) (11, 3.11913758516311645508e-01) (12, 3.02569419145584106445e-01) (13, 5.13170003890991210938e-01) (14, 4.12195533514022827148e-01) (15, 3.30931246280670166016e-02) (16, 2.12592244148254394531e-01) (17, -8.10440826416015625000e+00) (18, -7.22564756870269775391e-02) (19, -8.59800577163696289062e-02) (20, -1.06671512126922607422e+00) (21, -8.29295367002487182617e-02) (22, -1.15909707546234130859e+00) (23, -4.42272573709487915039e-01) (24, 2.24723055958747863770e-01) (25, -6.46096587181091308594e-01) (26, -6.06399059295654296875e+00) (27, 7.23877954483032226562e+00) (28, 9.86359977722167968750e+00) (29, 1.00135383605957031250e+01) (30, 9.95727920532226562500e+00) (31, 6.09808588027954101562e+00) (32, 1.44126546382904052734e+00) (33, 1.65008455514907836914e-02) (34, 1.33798301219940185547e+00) (35, -2.27642774581909179688e+00) (36, -9.35941413044929504395e-02) (37, -8.63537266850471496582e-02) (38, -1.73340821266174316406e+00) (39, -1.29153513908386230469e+00) (40, -2.61060142517089843750e+00) (41, -1.72019157409667968750e+01) (42, -4.27584218978881835938e+00) (43, -7.08157396316528320312e+00) (44, -4.38277578353881835938e+00) (45, -4.50727891921997070312e+00) (46, -4.47688055038452148438e+00) (47, -1.08240785598754882812e+01) (48, 1.05875053405761718750e+01) (49, 1.88635482788085937500e+01) (50, 1.13343095779418945312e+00) (51, 2.93463110923767089844e-01) (52, 4.37364161014556884766e-01) (53, 3.59089672565460205078e-01) (54, 1.64629566669464111328e+00) (55, 1.90228903293609619141e+00) (56, 4.78474378585815429688e+00) (57, 8.62746620178222656250e+00) (58, 1.90142898559570312500e+01) (59, 1.91506156921386718750e+01) (60, 2.30136990547180175781e+00) (61, 1.65925729274749755859e+00) (62, 1.64996776580810546875e+01) (63, -1.68727850914001464844e+00) (64, 2.10390493273735046387e-01) (65, 3.78055065870285034180e-01) (66, -4.53388482332229614258e-01) (67, -1.65549886226654052734e+00) (68, -2.37928791046142578125e+01) (69, -4.16641712188720703125e+00) (70, -1.27481186389923095703e+00) (71, -1.11344739794731140137e-01) (72, 3.19351053237915039062e+00) (73, 9.82818889617919921875e+00) (74, 2.02456307411193847656e+00) (75, -1.42599606513977050781e+00) (76, 3.03595561981201171875e+01) (77, 3.71363449096679687500e+01) (78, 4.16861867904663085938e+00) (79, 4.03209352493286132812e+00) (80, 2.69365042448043823242e-01) (81, 1.71561449766159057617e-01) (82, 2.59409725666046142578e-01) (83, 8.03441047668457031250e+00) (84, 4.65315866470336914062e+00) (85, 1.48431694507598876953e+00) (86, 1.19787578582763671875e+01) (87, 7.05386102199554443359e-01) (88, 5.07966637611389160156e-01) (89, 5.07294714450836181641e-01) (90, 3.45885723829269409180e-01) (91, 3.35295796394348144531e-01) (92, 7.74631723761558532715e-02) (93, 1.40836328268051147461e-01) (94, 1.37108421325683593750e+00) (95, 1.37070155143737792969e+00) (96, 1.49934077262878417969e+00) (97, 5.53432226181030273438e-01) (98, -2.06787943840026855469e-01) (99, -7.31195986270904541016e-01) (100, 2.84171015024185180664e-01) (0, -1.04491837322711944580e-01) (1, 1.84776231646537780762e-01) (2, 1.77155807614326477051e-01) (3, 3.88056874275207519531e-01) (4, 1.63800135254859924316e-01) (5, -4.86667491495609283447e-02) (6, 2.39500045776367187500e-01) (7, 3.47556352615356445312e-01) (8, 1.33666753768920898438e-01) (9, 2.48199760913848876953e-01) (10, 3.36230337619781494141e-01) (11, -5.98062634468078613281e-01) (12, -4.20293398201465606689e-02) (13, -4.18471843004226684570e-01) (14, -3.05879116058349609375e-02) (15, 3.02203893661499023438e-01) (16, -4.64369088411331176758e-01) (17, 5.61327695846557617188e-01) (18, 1.59449502825736999512e-01) (19, 1.11397564411163330078e-01) (20, 1.73889964818954467773e-01) (21, -1.12821936607360839844e-01) (22, -1.29686605930328369141e+00) (23, -5.62105655670166015625e-01) (24, 1.49189502000808715820e-01) (25, 2.97445982694625854492e-01) (26, 4.81702387332916259766e-01) (27, 6.45013332366943359375e-01) (28, 1.32957744598388671875e+00) (29, 6.35669350624084472656e-01) (30, 1.37609720230102539062e-01) (31, 7.92841315269470214844e-02) (32, 3.63022065162658691406e+00) (33, 2.76899158954620361328e-01) (34, 4.45281952619552612305e-01) (35, 5.74427247047424316406e-01) (36, 2.88339287042617797852e-01) (37, 1.62510722875595092773e-01) (38, 5.68247377872467041016e-01) (39, 2.58677035570144653320e-01) (40, 6.83207213878631591797e-01) (41, 3.79943937063217163086e-01) (42, 2.69609785079956054688e+00) (43, -1.38415241241455078125e+00) (44, -3.88165259361267089844e+00) (45, 1.53963303565979003906e+00) (46, 3.10545659065246582031e+00) (47, 8.95102310180664062500e+00) (48, 3.88735222816467285156e+00) (49, 9.23535537719726562500e+00) (50, 9.26213932037353515625e+00) (51, 3.67615699768066406250e-01) (52, 9.96530652046203613281e-01) (53, 9.71469163894653320312e-01) (54, 4.86178308725357055664e-01) (55, 1.30075842142105102539e-01) (56, 2.86572519689798355103e-02) (57, 8.96966680884361267090e-02) (58, -1.30400769412517547607e-02) (59, 1.17372655868530273438e+00) (60, 9.22352313995361328125e-01) (61, -2.51624286174774169922e-01) (62, 4.47151511907577514648e-02) (63, 9.58584308624267578125e+00) (64, 9.25550365447998046875e+00) (65, 1.28283238410949707031e+00) (66, 4.25417184829711914062e+00) (67, -7.25295543670654296875e-02) (68, -2.37151551246643066406e+00) (69, -1.90161585807800292969e+00) (70, -1.90668314695358276367e-01) (71, 8.91104787588119506836e-02) (72, 6.04413710534572601318e-02) (73, 8.42156112194061279297e-02) (74, 3.73682491481304168701e-02) (75, 1.12082868814468383789e-01) (76, -7.10219442844390869141e-02) (77, 1.01225829124450683594e+00) (78, 2.55627346038818359375e+00) (79, 5.07752943038940429688e+00) (80, 3.45323634147644042969e+00) (81, 3.60462284088134765625e+00) (82, 9.82186496257781982422e-01) (83, 1.67543625831604003906e+00) (84, 1.30437719821929931641e+00) (85, 1.80488026142120361328e+00) (86, 9.34353590011596679688e-01) (87, 4.67830270528793334961e-01) (88, 3.96756380796432495117e-01) (89, 1.04048661887645721436e-01) (90, -5.80594278872013092041e-02) (91, -5.55584356188774108887e-02) (92, -1.62455439567565917969e-01) (93, 3.55359554290771484375e+00) (94, 2.40754747390747070312e+00) (95, 5.48036098480224609375e-01) (96, 9.99245524406433105469e-01) (97, 2.15123581886291503906e+00) (98, 1.81476938724517822266e+00) (99, 2.43872261047363281250e+00) (100, 1.10427916049957275391e+00) (0, 3.03465294837951660156e+00) (1, 2.90437102317810058594e+00) (2, 4.40250062942504882812e+00) (3, 1.00520871579647064209e-01) (4, -3.60096581280231475830e-02) (5, -4.19220328330993652344e-01) (6, -5.42416274547576904297e-01) (7, -4.36282902956008911133e-01) (8, -4.12110656499862670898e-01) (9, -4.53610926866531372070e-01) (10, -6.63096666336059570312e-01) (11, -4.65342879295349121094e-01) (12, -6.27696096897125244141e-01) (13, -7.76190042495727539062e-01) (14, -6.62910521030426025391e-01) (15, -8.31183314323425292969e-01) (16, 1.60687756538391113281e+00) (17, 2.33608841896057128906e-01) (18, -1.94087576866149902344e+00) (19, 8.49544346332550048828e-01) (20, 6.17770433425903320312e-01) (21, 8.59164476394653320312e-01) (22, 1.13927030563354492188e+00) (23, 8.28930079936981201172e-01) (24, 1.33528077602386474609e+00) (25, 7.70493268966674804688e-01) (26, 3.49419385194778442383e-01) (27, 1.24791502952575683594e+00) (28, 3.29486399888992309570e-01) (29, 2.35979890823364257812e+00) (30, 2.81317424774169921875e+00) (31, 1.04303121566772460938e+00) (32, 1.65884017944335937500e-01) (33, 7.48125553131103515625e-01) (34, 4.47728881835937500000e+01) (35, 5.50437986850738525391e-01) (36, 8.65398120880126953125e+00) (37, 2.00710201263427734375e+01) (38, 3.15060591697692871094e+00) (39, 3.34135365486145019531e+00) (40, 4.41077804565429687500e+00) (41, 1.61571800708770751953e+00) (42, 2.23370933532714843750e+00) (43, 9.95464861392974853516e-01) (44, 7.72644639015197753906e-01) (45, 2.93555170297622680664e-01) (46, 6.62639021873474121094e-01) (47, -7.17521905899047851562e-01) (48, -1.72483825683593750000e+00) (49, 8.52257847785949707031e-01) (50, -4.16913241147994995117e-01) (51, -5.51324009895324707031e-01) (52, -1.71170032024383544922e+00) (53, 1.44272953271865844727e-01) (54, 1.06329526901245117188e+01) (55, 1.30404067039489746094e+00) (56, -2.86804050207138061523e-01) (57, 6.02176189422607421875e-01) (58, -1.80958256125450134277e-01) (59, 4.46624830365180969238e-02) (60, 9.93999242782592773438e-02) (61, 1.07927605509757995605e-01) (62, 1.97771918773651123047e+00) (63, 1.96517157554626464844e+00) (64, 1.74896502494812011719e+00) (65, 1.31636750698089599609e+00) (66, 1.97270143032073974609e+00) (67, 7.58188486099243164062e+00) (68, -1.02384641766548156738e-01) (69, -6.52475118637084960938e+00) (70, -3.49805831909179687500e+00) (71, 1.20704050064086914062e+01) (72, 1.18301973342895507812e+01) (73, 2.29947013854980468750e+01) (74, 1.96346879005432128906e+00) (75, -5.59455718994140625000e+01) (76, 3.55362243652343750000e+01) (77, 1.50927209854125976562e+01) (78, 1.35454356670379638672e+00) (79, 1.16670012474060058594e+00) (80, 1.66635602712631225586e-01) (81, 4.11522537469863891602e-01) (82, 3.70940148830413818359e-01) (83, 1.52530121803283691406e+00) (84, 5.41960954666137695312e-01) (85, 2.93580055236816406250e-01) (86, 2.80487346649169921875e+00) (87, 2.69245296716690063477e-01) (88, 7.16632902622222900391e-01) (89, 6.22636198997497558594e-01) (90, 1.23978328704833984375e+00) (91, 9.80285823345184326172e-01) (92, -2.15026664733886718750e+00) (93, 2.66156053543090820312e+00) (94, 3.74667549133300781250e+00) (95, 1.83535706996917724609e+00) (96, 3.97394001483917236328e-01) (97, -7.45800018310546875000e-01) (98, -9.56452190876007080078e-01) (99, -2.02463388442993164062e+00) (100, 3.69901806116104125977e-01) (0, -2.00844570994377136230e-01) (1, 6.21316075325012207031e-01) (2, -1.90238207578659057617e-01) (3, -1.97986388206481933594e+00) (4, -3.35252612829208374023e-01) (5, -5.39951801300048828125e-01) (6, -2.27865543365478515625e+01) (7, -2.26594328880310058594e+00) (8, -2.41585040092468261719e+00) (9, -2.12927317619323730469e+00) (10, -2.09696507453918457031e+00) (11, -1.01763761043548583984e+00) (12, -1.12257156372070312500e+01) (13, -5.11160326004028320312e+00) (14, -8.51625442504882812500e-01) (15, -1.74972623586654663086e-01) (16, -8.66943180561065673828e-01) (17, -3.15122991800308227539e-01) (18, 3.55921030044555664062e-01) (19, 3.02950143814086914062e-01) (20, 5.48897504806518554688e-01) (21, 1.40284371376037597656e+00) (22, 6.78845977783203125000e+00) (23, 7.37195825576782226562e+00) (24, 5.54507637023925781250e+00) (25, 1.54327201843261718750e+00) (26, 1.64787483215332031250e+00) (27, 1.60241985321044921875e+00) (28, 4.64123678207397460938e+00) (29, 7.76061916351318359375e+00) (30, 3.38173789978027343750e+01) (31, 1.87517528533935546875e+01) (32, 3.89695453643798828125e+00) (33, 3.66106319427490234375e+00) (34, 3.75053524971008300781e+00) (35, 3.93240547180175781250e+00) (36, 2.24489068984985351562e+00) (37, 1.84545838832855224609e+00) (38, 1.26979625225067138672e+00) (39, 1.81760501861572265625e+00) (40, 1.86274325847625732422e+00) (41, 1.56812310218811035156e+00) (42, 1.47258949279785156250e+00) (43, 3.78609132766723632812e+00) (44, 1.82320761680603027344e+00) (45, 3.35142850875854492188e+00) (46, 9.40234899520874023438e-01) (47, -7.02222347259521484375e-01) (48, -1.42585420608520507812e+00) (49, -2.35797977447509765625e+00) (50, -2.12491178512573242188e+00) (51, -3.08450937271118164062e+00) (52, -1.80108046531677246094e+00) (53, -1.12964916229248046875e+00) (54, -1.18956363201141357422e+00) (55, -1.31123900413513183594e-01) (56, 1.63405978679656982422e+00) (57, 1.34213948249816894531e+00) (58, 1.65466332435607910156e+00) (59, 1.11742770671844482422e+00) (60, 6.61617100238800048828e-01) (61, 4.62542921304702758789e-01) (62, 5.87843537330627441406e-01) (63, -1.13785874843597412109e+00) (64, -9.10878658294677734375e-01) (65, 1.52512836456298828125e+00) (66, 3.16151351928710937500e+01) (67, 1.85242927074432373047e+00) (68, 1.90598547458648681641e+00) (69, 1.41841220855712890625e+00) (70, 1.21204996109008789062e+00) (71, 8.89055848121643066406e-01) (72, 4.32268202304840087891e-01) (73, 3.32783013582229614258e-01) (74, 2.35203802585601806641e-01) (75, -4.65203374624252319336e-01) (76, 6.79662823677062988281e-02) (77, 4.84275847673416137695e-01) (78, -1.26860129833221435547e+00) (79, -6.16222977638244628906e-01) (80, -1.42890498042106628418e-01) (81, 2.62620210647583007812e-01) (82, 8.08312654495239257812e-01) (83, 1.57918453216552734375e-01) (84, 1.05858430266380310059e-01) (85, 3.88327032327651977539e-01) (86, 5.10673224925994873047e-01) (87, 1.42587766051292419434e-01) (88, 2.34718918800354003906e-01) (89, 3.69353175163269042969e-01) (90, 4.38913583755493164062e-01) (91, 3.52499008178710937500e-01) (92, -1.75397098064422607422e-01) (93, -6.98890924453735351562e-01) (94, -3.46675453186035156250e+01) (95, -2.03974455595016479492e-01) (96, -7.45062172412872314453e-01) (97, -2.07008790969848632812e+00) (98, -2.26294803619384765625e+00) (99, -2.30083250999450683594e+00) (100, 1.46639615297317504883e-01) (0, -1.92829564213752746582e-01) (1, 5.89547641575336456299e-02) (2, 2.82167553901672363281e-01) (3, 4.59763675928115844727e-01) (4, 1.26793897151947021484e+00) (5, 1.56970655918121337891e+00) (6, 4.69622468948364257812e+00) (7, 2.02042913436889648438e+00) (8, 2.50330042839050292969e+00) (9, 7.01349878311157226562e+00) (10, 4.56881380081176757812e+00) (11, 3.11764621734619140625e+00) (12, -1.91960990428924560547e+00) (13, 6.47245168685913085938e-01) (14, 1.36353111267089843750e+00) (15, 2.37385368347167968750e+00) (16, 2.49311506748199462891e-01) (17, 1.84866487979888916016e+00) (18, 1.75576078891754150391e+00) (19, 2.34824970364570617676e-01) (20, 1.27129971981048583984e-01) (21, 8.33507478237152099609e-02) (22, -2.00821965932846069336e-01) (23, -7.09388732910156250000e-01) (24, -9.19979531317949295044e-03) (25, 6.82029783725738525391e-01) (26, 5.98719060420989990234e-01) (27, 5.66515922546386718750e-01) (28, 6.52895808219909667969e-01) (29, 5.17431020736694335938e-01) (30, 1.47197648882865905762e-01) (31, -2.84987185150384902954e-02) (32, 1.79037600755691528320e-02) (33, 2.03314814716577529907e-02) (34, -1.58071354031562805176e-01) (35, -2.33224313706159591675e-02) (36, -4.90657705813646316528e-03) (37, -8.78275871276855468750e-01) (38, -2.51499086618423461914e-01) (39, -4.39711473882198333740e-02) (40, 9.28515046834945678711e-02) (41, -1.16499829292297363281e+00) (42, -5.63866758346557617188e+00) (43, -5.27659416198730468750e+00) (44, -1.31874361038208007812e+01) (45, -8.72734129428863525391e-01) (46, 4.84374332427978515625e+00) (47, 1.39073228836059570312e+00) (48, 1.17972898483276367188e+00) (49, 3.37257236242294311523e-01) (50, 2.56818389892578125000e+00) (51, 6.88877165317535400391e-01) (52, 4.40028524398803710938e+00) (53, 7.86156296730041503906e-01) (54, 2.25243926048278808594e-01) (55, 1.24586790800094604492e-01) (56, 2.77256190776824951172e-01) (57, 9.21803712844848632812e-01) (58, -1.58488839864730834961e-01) (59, 2.19536185264587402344e-01) (60, 2.66168737411499023438e+00) (61, -1.32232046127319335938e+00) (62, -4.81182903051376342773e-01) (63, 1.70936405658721923828e+00) (64, 3.26675033569335937500e+00) (65, 1.06520462036132812500e+00) (66, 2.51873469352722167969e+00) (67, -4.88433599472045898438e+00) (68, -3.66144686937332153320e-01) (69, -1.91655680537223815918e-02) (70, 5.31222149729728698730e-02) (71, 3.03587820380926132202e-02) (72, 2.82641291618347167969e-01) (73, 5.22697985172271728516e-01) (74, 1.30642378330230712891e+00) (75, 4.94724893569946289062e+00) (76, 6.15399551391601562500e+00) (77, 2.23261833190917968750e+00) (78, 5.90578985214233398438e+00) (79, 1.79461860656738281250e+00) (80, 1.47623419761657714844e+00) (81, 3.96163851022720336914e-01) (82, 3.82544666528701782227e-01) (83, 1.61903142929077148438e+00) (84, 1.09878504276275634766e+00) (85, 9.88031804561614990234e-01) (86, 8.20273101329803466797e-01) (87, 3.85494112968444824219e-01) (88, 7.55898952484130859375e-02) (89, -3.74042123556137084961e-01) (90, -1.37988224625587463379e-01) (91, -2.96095963567495346069e-02) (92, -1.95712447166442871094e-01) (93, -5.88624328374862670898e-02) (94, 8.27187776565551757812e-01) (95, 4.28053259849548339844e-01) (96, 5.63169360160827636719e-01) (97, 5.70666134357452392578e-01) (98, 1.44476449489593505859e+00) (99, 2.42215085029602050781e+00) (100, 1.36394238471984863281e+00) (0, 1.57526388764381408691e-01) (1, 3.33311438560485839844e-01) (2, 9.65694844722747802734e-01) (3, 1.14589822292327880859e+00) (4, 2.92326235771179199219e+00) (5, 2.33017420768737792969e+00) (6, 1.19479942321777343750e+00) (7, 1.16890656948089599609e+00) (8, 6.22265720367431640625e+00) (9, 4.51880598068237304688e+00) (10, 1.54546296596527099609e+00) (11, 2.96910429000854492188e+00) (12, 7.32859325408935546875e+00) (13, 1.21636283397674560547e+00) (14, 8.22466373443603515625e-01) (15, 1.79433906078338623047e+00) (16, 7.37822771072387695312e-01) (17, 1.32738277316093444824e-01) (18, 2.43878394365310668945e-01) (19, -1.21334977447986602783e-02) (20, 1.02937005460262298584e-01) (21, 2.07894518971443176270e-01) (22, 1.54765903949737548828e-01) (23, -2.34420609474182128906e+00) (24, 1.08624756336212158203e-01) (25, -1.62743777036666870117e-01) (26, 9.98350158333778381348e-02) (27, 1.14051736891269683838e-01) (28, -7.43853598833084106445e-02) (29, 1.54157847166061401367e-01) (30, -2.85426527261734008789e-01) (31, -6.31076812744140625000e-01) (32, -2.82047367095947265625e+00) (33, -1.41347575187683105469e+00) (34, -6.39775753021240234375e-01) (35, -8.87370681762695312500e+00) (36, -2.15270328521728515625e+01) (37, -8.62619590759277343750e+00) (38, -7.87688875198364257812e+00) (39, -7.95875215530395507812e+00) (40, -1.82249116897583007812e+00) (41, -3.45893430709838867188e+00) (42, -1.06703989207744598389e-01) (43, -4.98556792736053466797e-01) (44, 1.54146356508135795593e-02) (45, -2.18716338276863098145e-01) (46, 3.02107989788055419922e-01) (47, 4.21139746904373168945e-01) (48, 6.69269561767578125000e-01) (49, 1.24459075927734375000e+00) (50, 9.32259082794189453125e-01) (51, 4.06802535057067871094e-01) (52, 6.07925176620483398438e-01) (53, 7.69471645355224609375e-01) (54, 1.23518061637878417969e+00) (55, 6.05722475051879882812e+00) (56, 1.50361096858978271484e+00) (57, 1.06180286407470703125e+00) (58, 1.87446117401123046875e+00) (59, 8.00685977935791015625e+00) (60, 1.51381158828735351562e+00) (61, 2.72939062118530273438e+00) (62, 8.68029832839965820312e-01) (63, -7.96486139297485351562e-01) (64, -1.75201416015625000000e+00) (65, -3.71671617031097412109e-01) (66, -1.45401090383529663086e-01) (67, 4.86250109970569610596e-02) (68, -7.39941716194152832031e-01) (69, -2.36712455749511718750e+01) (70, -2.73322181701660156250e+01) (71, -6.94675111770629882812e+00) (72, -1.34249091148376464844e+00) (73, -7.85827755928039550781e-01) (74, -7.32870697975158691406e-01) (75, -1.59430313110351562500e+00) (76, 2.16006889939308166504e-01) (77, 6.30466747283935546875e+00) (78, 4.35927547514438629150e-02) (79, 8.10699164867401123047e-02) (80, -1.88677549362182617188e-01) (81, -2.04958766698837280273e-01) (82, 3.20302814245223999023e-01) (83, 5.73893928527832031250e+00) (84, 3.27280082702636718750e+01) (85, 2.13115215301513671875e-01) (86, 2.36939382553100585938e+00) (87, 8.28878283500671386719e-01) (88, 3.44577372074127197266e-01) (89, 1.34097814559936523438e+00) (90, 7.63644218444824218750e-01) (91, 9.10747230052947998047e-01) (92, 1.45016133785247802734e+00) (93, -1.04640036821365356445e-01) (94, -1.13055314868688583374e-02) (95, 7.37433880567550659180e-02) (96, -9.68682542443275451660e-02) (97, -2.07279086112976074219e-01) (98, -3.67796123027801513672e-01) (99, -4.02825742959976196289e-01) (100, 1.28147721290588378906e+00) (0, -2.71149963140487670898e-01) (1, 6.06095135211944580078e-01) (2, -4.65098544955253601074e-02) (3, -2.87787735462188720703e-01) (4, -1.31904399394989013672e+00) (5, -2.74647545814514160156e+00) (6, -4.35451269149780273438e+00) (7, -6.08923614025115966797e-01) (8, 3.20219606161117553711e-01) (9, -2.71039795875549316406e+00) (10, -8.22672128677368164062e-01) (11, -1.04260444641113281250e-01) (12, -2.06158328056335449219e+00) (13, -5.60010147094726562500e+00) (14, -6.62711560726165771484e-01) (15, 1.98976606130599975586e-01) (16, 5.04413247108459472656e-01) (17, -7.75242805480957031250e-01) (18, 5.61559081077575683594e-01) (19, 9.35358941555023193359e-01) (20, 1.51436460018157958984e+00) (21, 1.58818995952606201172e+00) (22, 6.23237085342407226562e+00) (23, 6.33685445785522460938e+00) (24, 4.52113437652587890625e+00) (25, 1.27505764365196228027e-01) (26, -4.35039788484573364258e-01) (27, 2.97107309103012084961e-01) (28, -7.32259631156921386719e-01) (29, 3.64357143640518188477e-01) (30, 4.01934444904327392578e-01) (31, -1.43664133548736572266e+00) (32, -1.53957998752593994141e+00) (33, -1.49143767356872558594e+00) (34, -4.01549637317657470703e-01) (35, -5.00542163848876953125e-01) (36, 1.70633852481842041016e-01) (37, 4.29951608180999755859e-01) (38, -1.72156333923339843750e-01) (39, -1.31310254335403442383e-01) (40, -2.53061324357986450195e-01) (41, 6.85213059186935424805e-02) (42, -1.75346970558166503906e-01) (43, -5.02001285552978515625e-01) (44, -4.84752267599105834961e-01) (45, 1.69085824489593505859e+00) (46, -3.64466500282287597656e+00) (47, -2.20522904396057128906e+00) (48, 4.30719554424285888672e-01) (49, -3.36094403266906738281e+00) (50, -3.64761042594909667969e+00) (51, 3.45898079872131347656e+00) (52, -2.79605770111083984375e+01) (53, -3.20856046676635742188e+00) (54, -4.23779582977294921875e+00) (55, -5.01836240291595458984e-01) (56, -4.68553394079208374023e-01) (57, -8.70029404759407043457e-02) (58, 4.09856513142585754395e-02) (59, 9.09845829010009765625e-02) (60, 1.55956292152404785156e+00) (61, 7.12117552757263183594e-01) (62, 7.20327377319335937500e-01) (63, 1.03491365909576416016e+00) (64, 5.24213552474975585938e-01) (65, -1.00871562957763671875e+00) (66, -2.93437900543212890625e+01) (67, 1.06245059967041015625e+01) (68, 1.43120422363281250000e+01) (69, 7.00955057144165039062e+00) (70, -3.22438216209411621094e+00) (71, 7.54733741283416748047e-01) (72, -1.04266071319580078125e+00) (73, -2.19913411140441894531e+00) (74, -3.07710671424865722656e+00) (75, 7.06164717674255371094e-01) (76, -4.52207863330841064453e-01) (77, -2.48462110757827758789e-02) (78, -1.42005290985107421875e+01) (79, -1.55025043487548828125e+01) (80, -9.64490795135498046875e+00) (81, -1.18671607971191406250e+00) (82, 