FANN_FLO_2.1
num_layers=3
learning_rate=0.700000
connection_rate=1.000000
network_type=1
learning_momentum=0.000000
training_algorithm=2
train_error_function=1
train_stop_function=0
cascade_output_change_fraction=0.010000
quickprop_decay=-0.000100
quickprop_mu=1.750000
rprop_increase_factor=1.200000
rprop_decrease_factor=0.500000
rprop_delta_min=0.000000
rprop_delta_max=50.000000
rprop_delta_zero=0.100000
cascade_output_stagnation_epochs=12
cascade_candidate_change_fraction=0.010000
cascade_candidate_stagnation_epochs=12
cascade_max_out_epochs=150
cascade_max_cand_epochs=150
cascade_num_candidate_groups=2
bit_fail_limit=3.49999994039535522461e-01
cascade_candidate_limit=1.00000000000000000000e+03
cascade_weight_multiplier=4.00000005960464477539e-01
cascade_activation_functions_count=10
cascade_activation_functions=3 5 7 8 10 11 14 15 16 17 
cascade_activation_steepnesses_count=4
cascade_activation_steepnesses=2.50000000000000000000e-01 5.00000000000000000000e-01 7.50000000000000000000e-01 1.00000000000000000000e+00 
layer_sizes=101 50 1 
scale_included=0
neurons (num_inputs, activation_function, activation_steepness)=(0, 0, 0.00000000000000000000e+00) (0, 0, 0.00000000000000000000e+00) (0, 0, 0.00000000000000000000e+00) (0, 0, 0.00000000000000000000e+00) (0, 0, 0.00000000000000000000e+00) (0, 0, 0.00000000000000000000e+00) (0, 0, 0.00000000000000000000e+00) (0, 0, 0.00000000000000000000e+00) (0, 0, 0.00000000000000000000e+00) (0, 0, 0.00000000000000000000e+00) (0, 0, 0.00000000000000000000e+00) (0, 0, 0.00000000000000000000e+00) (0, 0, 0.00000000000000000000e+00) (0, 0, 0.00000000000000000000e+00) (0, 0, 0.00000000000000000000e+00) (0, 0, 0.00000000000000000000e+00) (0, 0, 0.00000000000000000000e+00) (0, 0, 0.00000000000000000000e+00) (0, 0, 0.00000000000000000000e+00) (0, 0, 0.00000000000000000000e+00) (0, 0, 0.00000000000000000000e+00) (0, 0, 0.00000000000000000000e+00) (0, 0, 0.00000000000000000000e+00) (0, 0, 0.00000000000000000000e+00) (0, 0, 0.00000000000000000000e+00) (0, 0, 0.00000000000000000000e+00) (0, 0, 0.00000000000000000000e+00) (0, 0, 0.00000000000000000000e+00) (0, 0, 0.00000000000000000000e+00) (0, 0, 0.00000000000000000000e+00) (0, 0, 0.00000000000000000000e+00) (0, 0, 0.00000000000000000000e+00) (0, 0, 0.00000000000000000000e+00) (0, 0, 0.00000000000000000000e+00) (0, 0, 0.00000000000000000000e+00) (0, 0, 0.00000000000000000000e+00) (0, 0, 0.00000000000000000000e+00) (0, 0, 0.00000000000000000000e+00) (0, 0, 0.00000000000000000000e+00) (0, 0, 0.00000000000000000000e+00) (0, 0, 0.00000000000000000000e+00) (0, 0, 0.00000000000000000000e+00) (0, 0, 0.00000000000000000000e+00) (0, 0, 0.00000000000000000000e+00) (0, 0, 0.00000000000000000000e+00) (0, 0, 0.00000000000000000000e+00) (0, 0, 0.00000000000000000000e+00) (0, 0, 0.00000000000000000000e+00) (0, 0, 0.00000000000000000000e+00) (0, 0, 0.00000000000000000000e+00) (0, 0, 0.00000000000000000000e+00) (0, 0, 0.00000000000000000000e+00) (0, 0, 0.00000000000000000000e+00) (0, 0, 0.00000000000000000000e+00) (0, 0, 0.00000000000000000000e+00) (0, 0, 0.00000000000000000000e+00) (0, 0, 0.00000000000000000000e+00) (0, 0, 0.00000000000000000000e+00) (0, 0, 0.00000000000000000000e+00) (0, 0, 0.00000000000000000000e+00) (0, 0, 0.00000000000000000000e+00) (0, 0, 0.00000000000000000000e+00) (0, 0, 0.00000000000000000000e+00) (0, 0, 0.00000000000000000000e+00) (0, 0, 0.00000000000000000000e+00) (0, 0, 0.00000000000000000000e+00) (0, 0, 0.00000000000000000000e+00) (0, 0, 0.00000000000000000000e+00) (0, 0, 0.00000000000000000000e+00) (0, 0, 0.00000000000000000000e+00) (0, 0, 0.00000000000000000000e+00) (0, 0, 0.00000000000000000000e+00) (0, 0, 0.00000000000000000000e+00) (0, 0, 0.00000000000000000000e+00) (0, 0, 0.00000000000000000000e+00) (0, 0, 0.00000000000000000000e+00) (0, 0, 0.00000000000000000000e+00) (0, 0, 0.00000000000000000000e+00) (0, 0, 0.00000000000000000000e+00) (0, 0, 0.00000000000000000000e+00) (0, 0, 0.00000000000000000000e+00) (0, 0, 0.00000000000000000000e+00) (0, 0, 0.00000000000000000000e+00) (0, 0, 0.00000000000000000000e+00) (0, 0, 0.00000000000000000000e+00) (0, 0, 0.00000000000000000000e+00) (0, 0, 0.00000000000000000000e+00) (0, 0, 0.00000000000000000000e+00) (0, 0, 0.00000000000000000000e+00) (0, 0, 0.00000000000000000000e+00) (0, 0, 0.00000000000000000000e+00) (0, 0, 0.00000000000000000000e+00) (0, 0, 0.00000000000000000000e+00) (0, 0, 0.00000000000000000000e+00) (0, 0, 0.00000000000000000000e+00) (0, 0, 0.00000000000000000000e+00) (0, 0, 0.00000000000000000000e+00) (0, 0, 0.00000000000000000000e+00) (0, 0, 0.00000000000000000000e+00) (0, 0, 0.00000000000000000000e+00) (0, 0, 0.00000000000000000000e+00) (101, 3, 5.00000000000000000000e-01) (101, 3, 5.00000000000000000000e-01) (101, 3, 5.00000000000000000000e-01) (101, 3, 5.00000000000000000000e-01) (101, 3, 5.00000000000000000000e-01) (101, 3, 5.00000000000000000000e-01) (101, 3, 5.00000000000000000000e-01) (101, 3, 5.00000000000000000000e-01) (101, 3, 5.00000000000000000000e-01) (101, 3, 5.00000000000000000000e-01) (101, 3, 5.00000000000000000000e-01) (101, 3, 5.00000000000000000000e-01) (101, 3, 5.00000000000000000000e-01) (101, 3, 5.00000000000000000000e-01) (101, 3, 5.00000000000000000000e-01) (101, 3, 5.00000000000000000000e-01) (101, 3, 5.00000000000000000000e-01) (101, 3, 5.00000000000000000000e-01) (101, 3, 5.00000000000000000000e-01) (101, 3, 5.00000000000000000000e-01) (101, 3, 5.00000000000000000000e-01) (101, 3, 5.00000000000000000000e-01) (101, 3, 5.00000000000000000000e-01) (101, 3, 5.00000000000000000000e-01) (101, 3, 5.00000000000000000000e-01) (101, 3, 5.00000000000000000000e-01) (101, 3, 5.00000000000000000000e-01) (101, 3, 5.00000000000000000000e-01) (101, 3, 5.00000000000000000000e-01) (101, 3, 5.00000000000000000000e-01) (101, 3, 5.00000000000000000000e-01) (101, 3, 5.00000000000000000000e-01) (101, 3, 5.00000000000000000000e-01) (101, 3, 5.00000000000000000000e-01) (101, 3, 5.00000000000000000000e-01) (101, 3, 5.00000000000000000000e-01) (101, 3, 5.00000000000000000000e-01) (101, 3, 5.00000000000000000000e-01) (101, 3, 5.00000000000000000000e-01) (101, 3, 5.00000000000000000000e-01) (101, 3, 5.00000000000000000000e-01) (101, 3, 5.00000000000000000000e-01) (101, 3, 5.00000000000000000000e-01) (101, 3, 5.00000000000000000000e-01) (101, 3, 5.00000000000000000000e-01) (101, 3, 5.00000000000000000000e-01) (101, 3, 5.00000000000000000000e-01) (101, 3, 5.00000000000000000000e-01) (101, 3, 5.00000000000000000000e-01) (101, 3, 5.00000000000000000000e-01) (151, 3, 5.00000000000000000000e-01) 
connections (connected_to_neuron, weight)=(0, -1.29032135009765625000e-03) (1, -1.96207910776138305664e-02) (2, 8.61960127949714660645e-02) (3, 4.24415245652198791504e-02) (4, 8.42500105500221252441e-02) (5, 7.52582475543022155762e-02) (6, -7.52968937158584594727e-02) (7, 3.47874835133552551270e-02) (8, -6.02655149996280670166e-02) (9, -8.20557847619056701660e-02) (10, 8.31768438220024108887e-02) (11, -1.81955397129058837891e-02) (12, -7.78741687536239624023e-02) (13, -8.54926258325576782227e-02) (14, 5.74027523398399353027e-02) (15, -1.00835710763931274414e-02) (16, 1.04066282510757446289e-02) (17, 5.33159747719764709473e-02) (18, -3.86794470250606536865e-02) (19, -8.75774472951889038086e-02) (20, 9.98337641358375549316e-02) (21, -8.21562036871910095215e-02) (22, -1.13105773925781250000e-02) (23, 4.75163981318473815918e-02) (24, -1.68097391724586486816e-02) (25, -2.29607298970222473145e-02) (26, -9.61897671222686767578e-02) (27, 7.40119591355323791504e-02) (28, 1.74953937530517578125e-02) (29, 2.82237008213996887207e-02) (30, -6.75487518310546875000e-03) (31, -8.37949365377426147461e-02) (32, -9.13970991969108581543e-02) (33, -2.05588489770889282227e-02) (34, 5.86465820670127868652e-02) (35, 9.28529128432273864746e-02) (36, -4.53006140887737274170e-02) (37, 8.33496972918510437012e-02) (38, 2.76403948664665222168e-02) (39, -5.56612759828567504883e-03) (40, -9.87060964107513427734e-02) (41, 1.08172297477722167969e-02) (42, 7.62383416295051574707e-02) (43, -7.65802636742591857910e-02) (44, 2.53246054053306579590e-02) (45, 3.36410924792289733887e-02) (46, 1.33361667394638061523e-02) (47, -6.42687752842903137207e-02) (48, -1.30429416894912719727e-02) (49, 7.46567323803901672363e-02) (50, -5.18462210893630981445e-02) (51, -1.32091790437698364258e-02) (52, 9.25005152821540832520e-02) (53, 3.68432030081748962402e-02) (54, -6.56927898526191711426e-02) (55, -2.43092179298400878906e-02) (56, -8.61175283789634704590e-02) (57, -6.18825517594814300537e-02) (58, -5.02972640097141265869e-02) (59, 3.13778594136238098145e-02) (60, 6.63411393761634826660e-02) (61, 4.29478660225868225098e-02) (62, 4.75829318165779113770e-02) (63, 7.49440267682075500488e-02) (64, -7.76109918951988220215e-02) (65, 6.22951984405517578125e-03) (66, 6.77969530224800109863e-02) (67, -2.29116007685661315918e-02) (68, -1.04207918047904968262e-02) (69, -4.56266105175018310547e-03) (70, 7.15222731232643127441e-02) (71, -9.12688672542572021484e-03) (72, -9.37454327940940856934e-02) (73, 4.77606132626533508301e-02) (74, 1.42928510904312133789e-02) (75, 3.15791741013526916504e-02) (76, -1.85983106493949890137e-02) (77, -7.23709911108016967773e-02) (78, 6.73104003071784973145e-02) (79, 6.83587417006492614746e-02) (80, -9.77142676711082458496e-02) (81, -8.45358297228813171387e-02) (82, -4.48504388332366943359e-02) (83, 9.47862491011619567871e-02) (84, 5.23073747754096984863e-02) (85, -1.05432271957397460938e-02) (86, -2.95229703187942504883e-02) (87, 6.61898478865623474121e-02) (88, 2.75742337107658386230e-02) (89, 2.01797708868980407715e-02) (90, -2.43229418992996215820e-03) (91, -6.08463585376739501953e-03) (92, -3.68723720312118530273e-02) (93, -5.48493638634681701660e-02) (94, -3.11406031250953674316e-02) (95, -1.44833549857139587402e-02) (96, 5.13801649212837219238e-02) (97, -6.33436590433120727539e-02) (98, 6.26050308346748352051e-02) (99, -5.90406432747840881348e-02) (100, 3.20936813950538635254e-02) (0, 3.41273024678230285645e-02) (1, 3.18324640393257141113e-02) (2, 3.83482500910758972168e-02) (3, -1.81120932102203369141e-02) (4, -5.38746938109397888184e-02) (5, -3.00725847482681274414e-02) (6, 6.32895901799201965332e-02) (7, -2.62456759810447692871e-02) (8, -6.27621859312057495117e-02) (9, 3.16483452916145324707e-02) (10, -2.39599496126174926758e-02) (11, -4.72980141639709472656e-02) (12, 8.67979004979133605957e-02) (13, -2.91736871004104614258e-02) (14, -9.49906408786773681641e-02) (15, -2.37453207373619079590e-02) (16, 4.13033440709114074707e-02) (17, 7.11992010474205017090e-02) (18, -9.61710959672927856445e-02) (19, -3.85168865323066711426e-02) (20, -3.12330871820449829102e-02) (21, -2.25573778152465820312e-03) (22, 2.46107429265975952148e-02) (23, 1.39175504446029663086e-02) (24, 6.66036680340766906738e-02) (25, -8.98726135492324829102e-02) (26, -3.47022935748100280762e-02) (27, -9.67399999499320983887e-02) (28, 7.27324262261390686035e-02) (29, 6.25705718994140625000e-03) (30, 3.53536829352378845215e-02) (31, 6.85973465442657470703e-03) (32, -6.19104765355587005615e-02) (33, -2.62980610132217407227e-02) (34, 8.87476429343223571777e-02) (35, -1.57851651310920715332e-02) (36, 4.36293557286262512207e-02) (37, 5.20372465252876281738e-02) (38, 5.79691603779792785645e-02) (39, 8.08671787381172180176e-02) (40, -1.63144245743751525879e-02) (41, -6.59907907247543334961e-02) (42, -6.64308443665504455566e-02) (43, -2.95165255665779113770e-02) (44, 4.83552366495132446289e-03) (45, -6.14214837551116943359e-02) (46, 4.67381551861763000488e-02) (47, -5.38611374795436859131e-02) (48, -9.02222841978073120117e-02) (49, 5.05670532584190368652e-02) (50, 7.62198120355606079102e-03) (51, -2.14553624391555786133e-02) (52, -5.16886785626411437988e-02) (53, -6.77672773599624633789e-02) (54, 9.24621894955635070801e-02) (55, -8.50850194692611694336e-02) (56, -5.76398819684982299805e-02) (57, -4.22401130199432373047e-02) (58, -8.18250179290771484375e-02) (59, -8.49074572324752807617e-02) (60, 6.40169456601142883301e-02) (61, 5.35286739468574523926e-02) (62, 2.19522863626480102539e-02) (63, -9.78935286402702331543e-02) (64, -7.27693885564804077148e-02) (65, 1.06999129056930541992e-02) (66, -1.36786922812461853027e-02) (67, 7.08599761128425598145e-02) (68, -3.72628495097160339355e-02) (69, -5.57095371186733245850e-02) (70, 5.17271384596824645996e-02) (71, 4.64227274060249328613e-02) (72, -2.17003300786018371582e-02) (73, 8.52963104844093322754e-02) (74, -8.30937996506690979004e-02) (75, 8.31351950764656066895e-02) (76, -7.61251822113990783691e-02) (77, 6.36443570256233215332e-02) (78, -7.07259476184844970703e-02) (79, -6.63474649190902709961e-02) (80, 1.42114162445068359375e-02) (81, 3.68960425257682800293e-02) (82, 1.21971741318702697754e-02) (83, 6.25227466225624084473e-02) (84, 6.91287592053413391113e-02) (85, 4.65935468673706054688e-03) (86, 7.74377211928367614746e-02) (87, -8.85111242532730102539e-02) (88, 6.24192431569099426270e-02) (89, 9.56127122044563293457e-02) (90, -7.34185725450515747070e-02) (91, 2.64361873269081115723e-02) (92, 4.91413846611976623535e-02) (93, 4.85337004065513610840e-02) (94, 2.85426601767539978027e-02) (95, 7.63719901442527770996e-02) (96, -4.07663770020008087158e-02) (97, -8.51360261440277099609e-02) (98, 4.72319796681404113770e-02) (99, 2.19707712531089782715e-02) (100, -4.08455692231655120850e-02) (0, -1.04089081287384033203e-03) (1, -3.16065028309822082520e-02) (2, 3.74541059136390686035e-02) (3, -1.57445818185806274414e-02) (4, -1.47002935409545898438e-02) (5, 2.05892920494079589844e-02) (6, 8.13023746013641357422e-03) (7, -5.10559342801570892334e-02) (8, 4.98633459210395812988e-02) (9, 4.17827740311622619629e-02) (10, 6.31554797291755676270e-02) (11, -1.32406204938888549805e-02) (12, -4.60200570523738861084e-02) (13, 2.56782248616218566895e-02) (14, -4.41118590533733367920e-02) (15, 5.86392953991889953613e-02) (16, 3.11595201492309570312e-03) (17, -3.26229780912399291992e-02) (18, 2.10585445165634155273e-02) (19, -1.27134472131729125977e-03) (20, -6.04155659675598144531e-03) (21, -5.25052659213542938232e-02) (22, -5.21299615502357482910e-02) (23, -5.75078502297401428223e-02) (24, 7.60374143719673156738e-02) (25, -7.57579654455184936523e-02) (26, 1.72577798366546630859e-03) (27, 9.09013822674751281738e-02) (28, 7.14740082621574401855e-02) (29, -7.63034522533416748047e-02) (30, -4.99441921710968017578e-02) (31, -2.95668840408325195312e-02) (32, -7.90994614362716674805e-03) (33, 8.75099077820777893066e-02) (34, 5.46885356307029724121e-02) (35, 7.73897543549537658691e-02) (36, 8.09921324253082275391e-03) (37, -3.71812283992767333984e-02) (38, -7.36661776900291442871e-02) (39, -4.20374535024166107178e-02) (40, -9.53984558582305908203e-02) (41, 8.94893035292625427246e-02) (42, 4.47219237685203552246e-02) (43, -4.14185039699077606201e-02) (44, 1.51675343513488769531e-02) (45, -9.93899330496788024902e-02) (46, -8.27792063355445861816e-02) (47, -8.17165225744247436523e-02) (48, -3.20129096508026123047e-02) (49, 3.82793471217155456543e-02) (50, 1.70121341943740844727e-02) (51, 6.19455352425575256348e-02) (52, 8.57740715146064758301e-02) (53, 6.48821666836738586426e-02) (54, -9.55623164772987365723e-02) (55, 6.18114843964576721191e-02) (56, 8.91242101788520812988e-02) (57, 6.16346299648284912109e-03) (58, 5.27128651738166809082e-02) (59, 6.05982169508934020996e-02) (60, 2.98600271344184875488e-02) (61, -9.72313359379768371582e-02) (62, -6.89686685800552368164e-02) (63, -7.80499354004859924316e-02) (64, 9.02785733342170715332e-02) (65, 8.57198759913444519043e-02) (66, 9.93398353457450866699e-02) (67, -1.62221491336822509766e-03) (68, -5.14613613486289978027e-02) (69, -7.43263512849807739258e-02) (70, 5.63403442502021789551e-02) (71, -4.68598119914531707764e-02) (72, -8.48370492458343505859e-02) (73, 1.06225907802581787109e-03) (74, 1.17216855287551879883e-02) (75, 3.03304865956306457520e-02) (76, 1.67234241962432861328e-03) (77, 2.89424732327461242676e-02) (78, 4.86139580607414245605e-02) (79, 6.96594193577766418457e-02) (80, -3.27781811356544494629e-02) (81, -3.43739092350006103516e-02) (82, 3.16049531102180480957e-02) (83, -4.70040999352931976318e-02) (84, -6.94917365908622741699e-02) (85, 3.60426530241966247559e-02) (86, -8.51926133036613464355e-02) (87, -8.03675279021263122559e-02) (88, -5.77938854694366455078e-02) (89, 6.75202384591102600098e-02) (90, 8.02306905388832092285e-02) (91, 7.20661357045173645020e-02) (92, 7.02889040112495422363e-02) (93, -8.87379795312881469727e-02) (94, 9.40162017941474914551e-02) (95, 6.05674907565116882324e-02) (96, 9.69818904995918273926e-02) (97, 9.33560207486152648926e-02) (98, -4.10547330975532531738e-02) (99, -5.44794760644435882568e-02) (100, -8.09703320264816284180e-02) (0, -8.47143977880477905273e-02) (1, -1.33928656578063964844e-03) (2, -6.58073797821998596191e-02) (3, 1.63478702306747436523e-02) (4, -8.96176099777221679688e-02) (5, 6.45231083035469055176e-02) (6, -8.19797962903976440430e-02) (7, 3.93248721957206726074e-02) (8, 1.31370574235916137695e-02) (9, 8.76796320080757141113e-02) (10, -9.34533104300498962402e-02) (11, 7.87631496787071228027e-02) (12, 1.92845910787582397461e-02) (13, -4.04574051499366760254e-02) (14, -9.07285884022712707520e-02) (15, -4.46727536618709564209e-02) (16, -2.56500244140625000000e-02) (17, -7.10961073637008666992e-02) (18, -2.46664136648178100586e-03) (19, -5.81297799944877624512e-02) (20, -9.08654257655143737793e-02) (21, -3.04005146026611328125e-02) (22, -8.78408700227737426758e-02) (23, -7.96034038066864013672e-02) (24, -3.63843142986297607422e-02) (25, 7.27266147732734680176e-02) (26, -8.26215147972106933594e-02) (27, -4.30282950401306152344e-02) (28, -6.83281123638153076172e-02) (29, -3.71009930968284606934e-02) (30, -2.39986255764961242676e-02) (31, -5.30425123870372772217e-02) (32, 6.15597143769264221191e-02) (33, 1.01939886808395385742e-02) (34, 6.33053556084632873535e-02) (35, 7.19421133399009704590e-02) (36, -2.52829045057296752930e-02) (37, 8.13255682587623596191e-02) (38, 1.12669840455055236816e-02) (39, 8.78541544079780578613e-02) (40, 6.90051987767219543457e-02) (41, 1.78136676549911499023e-02) (42, 6.66173174977302551270e-02) (43, -1.17102116346359252930e-02) (44, 7.73562714457511901855e-02) (45, 7.58887305855751037598e-02) (46, 4.36170324683189392090e-02) (47, -4.82937507331371307373e-02) (48, -9.52073857188224792480e-02) (49, -5.88496029376983642578e-02) (50, -6.42353296279907226562e-03) (51, -8.60728099942207336426e-02) (52, 1.07498914003372192383e-02) (53, 5.73559850454330444336e-03) (54, -6.56762123107910156250e-02) (55, 7.43655636906623840332e-02) (56, -2.15377882122993469238e-02) (57, -4.82977293431758880615e-02) (58, -6.86627253890037536621e-02) (59, 1.01341009140014648438e-02) (60, 1.46012753248214721680e-02) (61, 7.33865797519683837891e-03) (62, 5.70915862917900085449e-02) (63, -2.38390043377876281738e-02) (64, -8.24673548340797424316e-02) (65, 2.03969478607177734375e-02) (66, -5.18968924880027770996e-02) (67, -7.75025784969329833984e-03) (68, 1.72249972820281982422e-03) (69, 5.93700930476188659668e-02) (70, -1.98960900306701660156e-02) (71, -2.92723029851913452148e-02) (72, -2.28162333369255065918e-02) (73, -5.32787851989269256592e-02) (74, 5.90174868702888488770e-02) (75, -4.54599671065807342529e-02) (76, -7.73900598287582397461e-02) (77, 2.63452529907226562500e-03) (78, 6.24628365039825439453e-03) (79, -7.25974440574645996094e-02) (80, 4.37849238514900207520e-02) (81, 9.98227521777153015137e-02) (82, -5.86702488362789154053e-02) (83, -4.54651899635791778564e-02) (84, 5.55834919214248657227e-03) (85, -2.43464559316635131836e-02) (86, -7.10996240377426147461e-02) (87, 8.40205624699592590332e-02) (88, 2.73558124899864196777e-02) (89, -3.97623479366302490234e-02) (90, -5.84535300731658935547e-03) (91, -5.80429099500179290771e-02) (92, 6.75762966275215148926e-02) (93, -4.87537644803524017334e-02) (94, 1.81180834770202636719e-02) (95, 8.51089581847190856934e-02) (96, 7.16431811451911926270e-02) (97, 6.62211850285530090332e-02) (98, -2.26412937045097351074e-02) (99, -2.66343131661415100098e-02) (100, 2.55912765860557556152e-02) (0, 5.74626103043556213379e-02) (1, 4.40933927893638610840e-02) (2, -9.72249507904052734375e-02) (3, -9.58161726593971252441e-02) (4, 3.11088562011718750000e-03) (5, -4.26849201321601867676e-02) (6, -7.32062309980392456055e-02) (7, -9.42545831203460693359e-02) (8, 6.35613575577735900879e-02) (9, -4.58036735653877258301e-02) (10, 4.95303347706794738770e-02) (11, 6.33841082453727722168e-02) (12, -4.47392463684082031250e-03) (13, -9.59348455071449279785e-02) (14, -3.10575515031814575195e-02) (15, 7.11796209216117858887e-02) (16, -6.70344680547714233398e-02) (17, -4.70369942486286163330e-02) (18, -1.46457552909851074219e-03) (19, -6.79681450128555297852e-03) (20, 4.71176579594612121582e-02) (21, 4.04925122857093811035e-02) (22, -3.92205081880092620850e-02) (23, 9.83638837933540344238e-02) (24, -4.13894057273864746094e-02) (25, -5.41115514934062957764e-02) (26, 7.00070783495903015137e-02) (27, -7.51682147383689880371e-02) (28, 2.32471451163291931152e-02) (29, -5.66272400319576263428e-02) (30, 5.04230782389640808105e-02) (31, -1.92902386188507080078e-02) (32, 8.74661579728126525879e-02) (33, 5.31981214880943298340e-02) (34, -1.51064172387123107910e-02) (35, -9.42295789718627929688e-03) (36, -8.94868075847625732422e-02) (37, 1.16873532533645629883e-02) (38, -3.67754697799682617188e-03) (39, 7.40745589137077331543e-02) (40, 6.58836886286735534668e-02) (41, -5.41472025215625762939e-02) (42, 3.74586656689643859863e-02) (43, -3.85902486741542816162e-02) (44, -5.00820502638816833496e-02) (45, -9.35988873243331909180e-02) (46, -6.74106329679489135742e-02) (47, -1.71165168285369873047e-02) (48, -4.06358838081359863281e-02) (49, 3.11247929930686950684e-02) (50, 7.60866776108741760254e-02) (51, -9.35182273387908935547e-02) (52, -2.83826962113380432129e-02) (53, -6.31338357925415039062e-02) (54, -9.51543375849723815918e-02) (55, 3.02279070019721984863e-02) (56, -1.72453820705413818359e-02) (57, 7.48527422547340393066e-02) (58, 5.50596788525581359863e-02) (59, -9.39982309937477111816e-02) (60, -8.17744955420494079590e-02) (61, 5.48275560140609741211e-03) (62, -1.32884681224822998047e-02) (63, -9.43083465099334716797e-02) (64, -4.13191206753253936768e-02) (65, 7.16051235795021057129e-02) (66, -3.73130291700363159180e-03) (67, -3.08059230446815490723e-02) (68, -1.67075246572494506836e-02) (69, 9.25911590456962585449e-02) (70, -5.67313693463802337646e-02) (71, -5.08238486945629119873e-02) (72, -6.15560524165630340576e-02) (73, 8.07272866368293762207e-02) (74, 1.05859041213989257812e-02) (75, -1.16380974650382995605e-02) (76, 8.71284082531929016113e-02) (77, 4.31752875447273254395e-02) (78, 7.12453797459602355957e-02) (79, -5.35074807703495025635e-02) (80, -2.56999284029006958008e-02) (81, 4.73320558667182922363e-02) (82, -4.70257103443145751953e-02) (83, 4.59173843264579772949e-02) (84, 8.41982439160346984863e-02) (85, -4.21800501644611358643e-02) (86, -2.38547250628471374512e-02) (87, -3.30471545457839965820e-02) (88, -6.73273056745529174805e-02) (89, -6.87950402498245239258e-02) (90, -2.70453840494155883789e-02) (91, -4.91018071770668029785e-02) (92, 3.66877242922782897949e-02) (93, 5.96661493182182312012e-02) (94, -4.34101484715938568115e-02) (95, 9.53686013817787170410e-02) (96, 3.12712714076042175293e-02) (97, 5.28585538268089294434e-02) (98, -3.54373231530189514160e-02) (99, -8.54362696409225463867e-02) (100, 4.54497113823890686035e-02) (0, 7.83131271600723266602e-03) (1, -3.62601131200790405273e-02) (2, 8.38936641812324523926e-02) (3, -1.14413946866989135742e-02) (4, 7.43258073925971984863e-02) (5, -2.77444422245025634766e-02) (6, -2.43129879236221313477e-02) (7, 1.75010710954666137695e-02) (8, -5.64990527927875518799e-02) (9, 2.21795290708541870117e-02) (10, 9.18011441826820373535e-02) (11, 9.08330157399177551270e-02) (12, 7.51538202166557312012e-02) (13, 3.77185121178627014160e-02) (14, 7.50312432646751403809e-02) (15, -6.70262277126312255859e-02) (16, -8.61362144351005554199e-02) (17, -5.80159090459346771240e-02) (18, -3.43535393476486206055e-02) (19, -5.49312494695186614990e-02) (20, 1.49386972188949584961e-02) (21, 1.65446624159812927246e-02) (22, 8.17564800381660461426e-02) (23, -2.53951475024223327637e-02) (24, 7.31345191597938537598e-02) (25, 7.71250799298286437988e-02) (26, -9.41238850355148315430e-02) (27, 2.59930714964866638184e-02) (28, -5.83122447133064270020e-02) (29, -7.95601531863212585449e-02) (30, -2.85572260618209838867e-02) (31, 4.95190694928169250488e-02) (32, -1.58202648162841796875e-02) (33, -4.46635745465755462646e-02) (34, -6.19223266839981079102e-02) (35, -4.14944700896739959717e-02) (36, 2.75919958949089050293e-02) (37, 1.37646794319152832031e-02) (38, 7.60065987706184387207e-02) (39, 7.10929259657859802246e-02) (40, -6.40557855367660522461e-02) (41, 6.78077414631843566895e-02) (42, 6.19259551167488098145e-02) (43, -8.89019742608070373535e-02) (44, 5.52625954151153564453e-03) (45, 3.69571819901466369629e-02) (46, -5.59281967580318450928e-02) (47, 1.93900465965270996094e-02) (48, 7.89412781596183776855e-02) (49, 9.71826165914535522461e-03) (50, 6.44587948918342590332e-02) (51, -6.12001866102218627930e-03) (52, -7.37370699644088745117e-02) (53, 4.62152734398841857910e-02) (54, 6.84848353266716003418e-02) (55, 9.93974432349205017090e-02) (56, 2.33403593301773071289e-02) (57, 7.43609443306922912598e-02) (58, 2.53905132412910461426e-02) (59, 6.50281086564064025879e-02) (60, 9.48007926344871520996e-02) (61, 9.68332812190055847168e-02) (62, 1.45471841096878051758e-02) (63, -2.10194736719131469727e-02) (64, -4.78302910923957824707e-02) (65, 5.26248440146446228027e-02) (66, 3.74860540032386779785e-02) (67, 7.97616913914680480957e-02) (68, -3.36104705929756164551e-02) (69, 1.34926438331604003906e-02) (70, 5.08546307682991027832e-02) (71, 2.33374536037445068359e-03) (72, -1.86996087431907653809e-02) (73, 1.27805694937705993652e-02) (74, 1.34317725896835327148e-02) (75, 8.68266448378562927246e-02) (76, -5.02622462809085845947e-02) (77, 5.75035884976387023926e-02) (78, 6.21668994426727294922e-03) (79, -7.13209733366966247559e-02) (80, -3.27781587839126586914e-02) (81, -2.93245092034339904785e-02) (82, 2.25590020418167114258e-02) (83, -6.51522725820541381836e-03) (84, -8.31092298030853271484e-02) (85, -8.95616412162780761719e-03) (86, -7.11779296398162841797e-03) (87, 4.02311310172080993652e-02) (88, -3.45952212810516357422e-02) (89, -8.17272812128067016602e-02) (90, 5.25923818349838256836e-03) (91, -3.97944338619709014893e-02) (92, -8.48939940333366394043e-02) (93, -8.01935791969299316406e-02) (94, 3.91860976815223693848e-02) (95, -3.27242836356163024902e-02) (96, 7.24312737584114074707e-02) (97, -2.33278572559356689453e-02) (98, -5.29625937342643737793e-02) (99, -6.11791983246803283691e-02) (100, 9.01647880673408508301e-02) (0, 9.78920385241508483887e-02) (1, 4.11545559763908386230e-02) (2, -2.85348147153854370117e-02) (3, 1.06726065278053283691e-02) (4, -4.54136803746223449707e-02) (5, -4.17081713676452636719e-02) (6, 6.04103580117225646973e-02) (7, -8.79101008176803588867e-02) (8, 6.45085200667381286621e-02) (9, 8.90893861651420593262e-02) (10, -2.06882581114768981934e-02) (11, -6.48159831762313842773e-02) (12, 1.16483941674232482910e-02) (13, 7.27965161204338073730e-02) (14, -4.79252114892005920410e-02) (15, -9.73077788949012756348e-02) (16, -3.43212783336639404297e-02) (17, 9.23059061169624328613e-02) (18, -3.19029986858367919922e-02) (19, -1.60485580563545227051e-02) (20, -2.43484228849411010742e-03) (21, 2.83025577664375305176e-02) (22, -9.42543148994445800781e-04) (23, 1.73715725541114807129e-02) (24, -3.25113385915756225586e-02) (25, 6.63331672549247741699e-02) (26, -1.01971551775932312012e-02) (27, 4.41607907414436340332e-02) (28, -8.66294279694557189941e-02) (29, 2.86236479878425598145e-02) (30, 3.43255922198295593262e-02) (31, -8.87373909354209899902e-02) (32, -3.02218049764633178711e-02) (33, -9.42092314362525939941e-02) (34, 2.19352096319198608398e-02) (35, 2.43645161390304565430e-02) (36, -3.59174013137817382812e-02) (37, -1.76544263958930969238e-02) (38, 3.64544168114662170410e-02) (39, -7.14088827371597290039e-02) (40, -2.85650417208671569824e-02) (41, -8.42338427901268005371e-02) (42, -3.62248644232749938965e-02) (43, 8.30833390355110168457e-02) (44, 8.85626748204231262207e-02) (45, 1.58499255776405334473e-02) (46, 8.57755616307258605957e-02) (47, -4.57586124539375305176e-02) (48, 8.15583765506744384766e-03) (49, -4.61274348199367523193e-02) (50, 3.81928309798240661621e-02) (51, -9.42790061235427856445e-02) (52, 8.21751430630683898926e-02) (53, -6.27497136592864990234e-02) (54, 2.30925679206848144531e-02) (55, -5.03362081944942474365e-02) (56, -9.64165478944778442383e-02) (57, -8.71045887470245361328e-02) (58, 9.38246026635169982910e-02) (59, -8.30459743738174438477e-02) (60, 4.15190532803535461426e-02) (61, 2.81501933932304382324e-02) (62, -7.17833638191223144531e-02) (63, -8.87027382850646972656e-02) (64, 3.39409634470939636230e-02) (65, 5.01518473029136657715e-02) (66, 3.56617793440818786621e-02) (67, 9.80235561728477478027e-02) (68, -6.75025731325149536133e-02) (69, -2.78838053345680236816e-02) (70, -7.33853206038475036621e-02) (71, 3.93237918615341186523e-03) (72, -1.21176391839981079102e-02) (73, -9.61019098758697509766e-03) (74, -1.29842683672904968262e-02) (75, -2.35549733042716979980e-02) (76, -9.37602669000625610352e-02) (77, -2.72087007761001586914e-02) (78, 3.06864157319068908691e-02) (79, 1.43955722451210021973e-02) (80, 2.66638621687889099121e-02) (81, -3.11207473278045654297e-02) (82, 2.01165676116943359375e-02) (83, 8.83899629116058349609e-03) (84, 6.12954050302505493164e-03) (85, -5.67908696830272674561e-02) (86, 5.85028007626533508301e-02) (87, 9.71299409866333007812e-03) (88, -4.38954532146453857422e-02) (89, 5.23274019360542297363e-02) (90, 2.66670212149620056152e-02) (91, 9.76236090064048767090e-02) (92, -1.95224210619926452637e-02) (93, 5.48836663365364074707e-02) (94, -9.10791307687759399414e-02) (95, -8.55814591050148010254e-02) (96, 5.03550469875335693359e-03) (97, 4.45826575160026550293e-02) (98, -8.75579044222831726074e-02) (99, 3.75329330563545227051e-02) (100, -8.33011493086814880371e-02) (0, -6.09432235360145568848e-02) (1, -5.85346817970275878906e-02) (2, 4.58121299743652343750e-03) (3, 2.94465944170951843262e-02) (4, 2.84810438752174377441e-02) (5, 8.10262337327003479004e-02) (6, 3.56863215565681457520e-02) (7, -9.87276583909988403320e-02) (8, 1.17126479744911193848e-02) (9, -4.99181039631366729736e-02) (10, 2.79362127184867858887e-02) (11, 8.05919095873832702637e-02) (12, 7.01984688639640808105e-02) (13, -6.32247924804687500000e-02) (14, -1.32785588502883911133e-02) (15, -8.65924060344696044922e-02) (16, 9.52780023217201232910e-02) (17, 9.64344367384910583496e-02) (18, -3.04878503084182739258e-02) (19, 4.76054027676582336426e-02) (20, 2.31014713644981384277e-02) (21, -3.28642427921295166016e-02) (22, -7.19170272350311279297e-02) (23, -2.20148712396621704102e-02) (24, -2.39433720707893371582e-02) (25, -5.74984923005104064941e-02) (26, 8.30206349492073059082e-02) (27, -7.93607160449028015137e-02) (28, -4.50563915073871612549e-02) (29, 2.05535739660263061523e-02) (30, -6.26618713140487670898e-02) (31, -5.99960982799530029297e-03) (32, 6.20188936591148376465e-02) (33, 4.19193431735038757324e-02) (34, -7.65530243515968322754e-02) (35, -9.50005650520324707031e-03) (36, 2.29455828666687011719e-02) (37, 5.91332986950874328613e-02) (38, -8.22772085666656494141e-03) (39, -6.53417706489562988281e-02) (40, -9.07847955822944641113e-02) (41, -8.02915096282958984375e-02) (42, -8.47498700022697448730e-02) (43, 7.94136598706245422363e-02) (44, -4.35163043439388275146e-02) (45, 1.97158008813858032227e-03) (46, 9.28212627768516540527e-02) (47, -4.82383035123348236084e-02) (48, -1.59397721290588378906e-03) (49, -3.76665890216827392578e-02) (50, 9.93670895695686340332e-02) (51, -7.84925073385238647461e-02) (52, 2.94691696763038635254e-02) (53, -7.25499391555786132812e-02) (54, -5.07384538650512695312e-04) (55, -9.44742038846015930176e-02) (56, -3.00484299659729003906e-02) (57, -1.74867436289787292480e-02) (58, -7.38349184393882751465e-02) (59, 2.48951762914657592773e-02) (60, -9.69331711530685424805e-02) (61, -3.64967882633209228516e-02) (62, -8.11044350266456604004e-02) (63, 6.50857314467430114746e-02) (64, -9.45774465799331665039e-02) (65, -5.76574578881263732910e-02) (66, -4.44143302738666534424e-02) (67, 2.83681377768516540527e-02) (68, -9.85241532325744628906e-02) (69, 4.73579540848731994629e-02) (70, 6.30263611674308776855e-02) (71, -8.93089547753334045410e-02) (72, 6.70664384961128234863e-02) (73, 7.82764926552772521973e-02) (74, 9.01047065854072570801e-02) (75, -7.64498561620712280273e-02) (76, -1.97519287467002868652e-02) (77, 8.29259827733039855957e-02) (78, -2.46881544589996337891e-02) (79, 7.86541029810905456543e-02) (80, -5.47406151890754699707e-02) (81, -2.53210663795471191406e-02) (82, -9.98384207487106323242e-02) (83, 7.47285559773445129395e-02) (84, 2.12899595499038696289e-03) (85, -3.45796346664428710938e-04) (86, 8.02543535828590393066e-02) (87, 7.20805600285530090332e-02) (88, 8.21674540638923645020e-02) (89, -9.35805737972259521484e-02) (90, -3.02425771951675415039e-03) (91, 8.52342918515205383301e-02) (92, -3.00773531198501586914e-02) (93, 1.58713087439537048340e-02) (94, 5.03200218081474304199e-02) (95, -2.46547982096672058105e-02) (96, 5.82138523459434509277e-02) (97, -9.40943062305450439453e-02) (98, -9.62866693735122680664e-02) (99, 5.96897080540657043457e-02) (100, 5.32636567950248718262e-02) (0, 6.67396858334541320801e-02) (1, 7.03807547688484191895e-02) (2, 2.03300938010215759277e-02) (3, 4.50161918997764587402e-02) (4, 6.04854598641395568848e-02) (5, 4.38802316784858703613e-02) (6, -7.47357383370399475098e-02) (7, 4.34114411473274230957e-02) (8, -8.08079168200492858887e-02) (9, -9.60816442966461181641e-02) (10, 8.86708274483680725098e-02) (11, -6.12898170948028564453e-03) (12, -9.59200635552406311035e-02) (13, 6.33993819355964660645e-02) (14, 9.60000231862068176270e-02) (15, 3.73414903879165649414e-03) (16, 4.36537340283393859863e-02) (17, 6.80805817246437072754e-02) (18, -1.40983983874320983887e-02) (19, 5.00731542706489562988e-02) (20, -3.49436774849891662598e-02) (21, -2.88641080260276794434e-02) (22, -8.00042003393173217773e-02) (23, 8.09276327490806579590e-02) (24, -7.85440877079963684082e-02) (25, -4.65899705886840820312e-03) (26, 3.91414836049079895020e-02) (27, -7.26383924484252929688e-02) (28, -9.45664942264556884766e-04) (29, -1.16882473230361938477e-03) (30, 8.06252434849739074707e-02) (31, -3.42059656977653503418e-02) (32, -3.07880789041519165039e-02) (33, 9.55343246459960937500e-04) (34, -8.91897827386856079102e-02) (35, -7.03026130795478820801e-02) (36, -5.51644153892993927002e-02) (37, -6.39255195856094360352e-02) (38, 7.31088295578956604004e-02) (39, -3.59723344445228576660e-02) (40, -6.00071586668491363525e-02) (41, 6.17796555161476135254e-02) (42, 5.78986927866935729980e-02) (43, -5.59272170066833496094e-02) (44, 2.51790359616279602051e-02) (45, 5.38986995816230773926e-02) (46, 4.78069260716438293457e-02) (47, -3.11672240495681762695e-02) (48, 2.19792872667312622070e-02) (49, -6.62914812564849853516e-02) (50, -8.10940712690353393555e-02) (51, 8.70356038212776184082e-02) (52, 4.84441220760345458984e-03) (53, -6.10982663929462432861e-02) (54, 6.79632350802421569824e-02) (55, 2.63003334403038024902e-02) (56, 3.42427417635917663574e-02) (57, 7.10471719503402709961e-03) (58, 5.36619350314140319824e-02) (59, -6.67029321193695068359e-02) (60, -9.40641090273857116699e-02) (61, 3.42871770262718200684e-02) (62, -9.08896327018737792969e-04) (63, -2.48521789908409118652e-02) (64, -6.47574737668037414551e-02) (65, 9.90132987499237060547e-03) (66, 4.84520196914672851562e-03) (67, -1.99218839406967163086e-02) (68, 4.59758117794990539551e-02) (69, -2.20459699630737304688e-02) (70, 4.41057756543159484863e-02) (71, 8.59686508774757385254e-02) (72, -6.02663122117519378662e-02) (73, 2.00446695089340209961e-03) (74, -6.99585676193237304688e-02) (75, 6.49127289652824401855e-02) (76, -4.40968349575996398926e-02) (77, 7.78483673930168151855e-02) (78, -6.62545040249824523926e-02) (79, 7.78824463486671447754e-02) (80, -8.84431153535842895508e-02) (81, -4.73485700786113739014e-02) (82, 6.49180486798286437988e-02) (83, 1.64013057947158813477e-02) (84, -8.44683498144149780273e-03) (85, 3.28812822699546813965e-02) (86, -5.72983697056770324707e-02) (87, -7.42041021585464477539e-02) (88, -6.00140057504177093506e-02) (89, 9.63635668158531188965e-02) (90, -4.09070253372192382812e-02) (91, -5.40781132876873016357e-02) (92, 3.06507423520088195801e-02) (93, 5.81840798258781433105e-02) (94, 2.10697054862976074219e-02) (95, 6.58932849764823913574e-02) (96, -3.19145917892456054688e-02) (97, -7.40850865840911865234e-02) (98, -5.40286079049110412598e-02) (99, -8.59387814998626708984e-02) (100, 3.86895239353179931641e-03) (0, 9.00771692395210266113e-02) (1, -9.99701321125030517578e-02) (2, 4.36026379466056823730e-02) (3, -7.91835784912109375000e-03) (4, -6.99286982417106628418e-02) (5, 8.51535797119140625000e-03) (6, 4.79848161339759826660e-02) (7, -9.20803397893905639648e-02) (8, 4.22608628869056701660e-02) (9, 2.58672609925270080566e-02) (10, -8.05234462022781372070e-02) (11, 9.49122980237007141113e-02) (12, -9.21469181776046752930e-03) (13, 3.58778610825538635254e-02) (14, -1.35345458984375000000e-02) (15, -7.63334110379219055176e-02) (16, 7.85794928669929504395e-02) (17, 1.22613534331321716309e-02) (18, -3.63474115729331970215e-02) (19, 7.49430581927299499512e-02) (20, 7.13543370366096496582e-02) (21, 9.57447290420532226562e-03) (22, 5.59379905462265014648e-03) (23, 2.95384004712104797363e-02) (24, -6.93558156490325927734e-02) (25, -2.85129174590110778809e-02) (26, 9.76238176226615905762e-02) (27, -4.34409044682979583740e-02) (28, 1.74584761261940002441e-02) (29, -8.83149728178977966309e-02) (30, 6.04280456900596618652e-02) (31, 7.53565132617950439453e-03) (32, -8.82851034402847290039e-02) (33, 4.03068214654922485352e-03) (34, 9.96172949671745300293e-02) (35, -5.82137964665889739990e-02) (36, -8.74539613723754882812e-02) (37, 4.76021096110343933105e-02) (38, -5.02941310405731201172e-02) (39, 5.48068955540657043457e-02) (40, -2.65306383371353149414e-02) (41, -3.08175832033157348633e-02) (42, 4.97191920876502990723e-02) (43, 6.42546638846397399902e-02) (44, -9.49397236108779907227e-02) (45, -6.38153553009033203125e-02) (46, 8.79212543368339538574e-02) (47, 8.36397632956504821777e-02) (48, 4.84460070729255676270e-02) (49, -4.84261587262153625488e-02) (50, 5.85828199982643127441e-02) (51, 1.98003277182579040527e-02) (52, 6.11483231186866760254e-02) (53, -3.58233749866485595703e-02) (54, -5.06612621247768402100e-02) (55, 9.17925015091896057129e-02) (56, 3.56637164950370788574e-02) (57, -5.30374459922313690186e-02) (58, -5.16484007239341735840e-02) (59, -4.68778125941753387451e-02) (60, -4.13524173200130462646e-02) (61, -9.12203565239906311035e-02) (62, 6.06578364968299865723e-02) (63, -2.96375229954719543457e-02) (64, 1.28103271126747131348e-02) (65, 6.02751299738883972168e-02) (66, 1.21486783027648925781e-02) (67, 2.53563597798347473145e-02) (68, 7.87723064422607421875e-03) (69, 6.18545487523078918457e-02) (70, -1.98367387056350708008e-02) (71, 8.13465788960456848145e-02) (72, -6.89630284905433654785e-02) (73, -7.01175406575202941895e-02) (74, 4.56012561917304992676e-02) (75, -6.39027506113052368164e-02) (76, -3.39328944683074951172e-02) (77, 3.35225090384483337402e-02) (78, -8.02629888057708740234e-02) (79, -8.54868888854980468750e-02) (80, 8.50963518023490905762e-02) (81, 7.83198401331901550293e-02) (82, 3.43134477734565734863e-02) (83, 4.62446734309196472168e-02) (84, -5.75035400688648223877e-02) (85, 8.36521908640861511230e-02) (86, 3.80371734499931335449e-02) (87, 7.81601741909980773926e-02) (88, -6.93852603435516357422e-02) (89, 8.63887742161750793457e-02) (90, -6.87176436185836791992e-02) (91, -1.07376798987388610840e-02) (92, 9.51684191823005676270e-02) (93, 9.19401869177818298340e-02) (94, 5.96247985959053039551e-02) (95, 7.97873735427856445312e-03) (96, 5.22153154015541076660e-02) (97, -2.82265096902847290039e-02) (98, -6.66648969054222106934e-02) (99, -3.99074554443359375000e-02) (100, -6.63719624280929565430e-02) (0, 1.34983658790588378906e-02) (1, -5.85608705878257751465e-02) (2, -3.53349894285202026367e-02) (3, 4.33808341622352600098e-02) (4, 8.70403870940208435059e-02) (5, 7.62261450290679931641e-04) (6, -9.05520692467689514160e-02) (7, 2.05628871917724609375e-02) (8, 2.04992741346359252930e-02) (9, -7.60389566421508789062e-02) (10, 5.65924495458602905273e-03) (11, -1.18088722229003906250e-03) (12, 5.82744851708412170410e-02) (13, -4.80960868299007415771e-02) (14, 4.13155630230903625488e-02) (15, 4.19266745448112487793e-02) (16, 8.99410918354988098145e-02) (17, 1.94757431745529174805e-02) (18, 7.25414082407951354980e-02) (19, 7.63298645615577697754e-02) (20, 5.07581010460853576660e-02) (21, -3.81962731480598449707e-02) (22, 7.14982822537422180176e-02) (23, 4.26982864737510681152e-02) (24, -7.85714685916900634766e-02) (25, -2.05229669809341430664e-02) (26, -5.08639961481094360352e-03) (27, -6.79798424243927001953e-03) (28, 1.28121376037597656250e-02) (29, 5.50061538815498352051e-02) (30, 2.68300548195838928223e-02) (31, -7.36894980072975158691e-02) (32, 9.64452698826789855957e-02) (33, 9.14950594305992126465e-02) (34, 6.96913376450538635254e-02) (35, 8.34856703877449035645e-02) (36, -7.74267315864562988281e-03) (37, 7.91392698884010314941e-02) (38, 4.04856353998184204102e-03) (39, -8.72434005141258239746e-02) (40, -9.68996956944465637207e-02) (41, -9.02922004461288452148e-02) (42, 1.15757137537002563477e-02) (43, 6.13747909665107727051e-02) (44, -3.83882820606231689453e-02) (45, -4.71087172627449035645e-02) (46, 3.30146402120590209961e-03) (47, -4.84471917152404785156e-02) (48, 7.23670199513435363770e-02) (49, -2.41571217775344848633e-02) (50, -7.21173286437988281250e-02) (51, 2.31251269578933715820e-02) (52, 3.76465991139411926270e-02) (53, 9.93809625506401062012e-02) (54, -3.41765880584716796875e-02) (55, 5.90751394629478454590e-02) (56, -2.11420133709907531738e-02) (57, 6.07370212674140930176e-02) (58, -4.77228462696075439453e-02) (59, 9.16701182723045349121e-02) (60, 1.57431587576866149902e-02) (61, 7.91072174906730651855e-02) (62, -8.20193737745285034180e-02) (63, 1.21884495019912719727e-02) (64, 7.06022754311561584473e-02) (65, 8.76719579100608825684e-02) (66, -4.32588905096054077148e-03) (67, -3.71403917670249938965e-02) (68, 6.68112114071846008301e-02) (69, 9.97226610779762268066e-02) (70, -2.43837982416152954102e-02) (71, 6.99115321040153503418e-02) (72, -9.05695408582687377930e-02) (73, 8.71919170022010803223e-02) (74, 3.12863215804100036621e-02) (75, -2.89578214287757873535e-02) (76, -5.99167980253696441650e-02) (77, -6.54122084379196166992e-02) (78, 2.25949883460998535156e-02) (79, -8.75497758388519287109e-02) (80, 1.04306712746620178223e-02) (81, 5.04776611924171447754e-02) (82, 3.55753526091575622559e-02) (83, -5.19227236509323120117e-02) (84, 4.98586222529411315918e-02) (85, -9.86012369394302368164e-02) (86, -9.28475856781005859375e-02) (87, -7.12833926081657409668e-02) (88, 6.21357783675193786621e-02) (89, -4.05704267323017120361e-02) (90, -7.96132758259773254395e-02) (91, -2.21210569143295288086e-02) (92, -6.14632181823253631592e-02) (93, -6.16326443850994110107e-02) (94, 9.00673940777778625488e-02) (95, -9.08609405159950256348e-02) (96, -7.39606916904449462891e-02) (97, -1.42585039138793945312e-02) (98, -2.80013382434844970703e-02) (99, 9.28505286574363708496e-02) (100, -1.45358368754386901855e-02) (0, 4.76148799061775207520e-02) (1, 6.27620592713356018066e-02) (2, -5.10537624359130859375e-03) (3, 3.48067954182624816895e-02) (4, -5.95162063837051391602e-03) (5, 6.59368112683296203613e-02) (6, 7.48899951577186584473e-02) (7, 2.86361649632453918457e-02) (8, -1.14682093262672424316e-02) (9, 8.73402282595634460449e-02) (10, -6.09331578016281127930e-02) (11, -6.09905496239662170410e-02) (12, 2.29155793786048889160e-02) (13, -1.28558799624443054199e-02) (14, 8.88680741190910339355e-02) (15, 2.43143439292907714844e-02) (16, -5.70346415042877197266e-03) (17, -8.24153274297714233398e-02) (18, -1.35498791933059692383e-02) (19, 5.37260994315147399902e-02) (20, -6.20285980403423309326e-02) (21, 6.43290653824806213379e-02) (22, 9.22628864645957946777e-02) (23, -2.36612409353256225586e-02) (24, 5.43964579701423645020e-02) (25, -9.85980480909347534180e-02) (26, 2.37806886434555053711e-03) (27, -5.98620437085628509521e-02) (28, -2.65993848443031311035e-02) (29, -4.77140396833419799805e-03) (30, 2.56021097302436828613e-02) (31, -7.89845138788223266602e-02) (32, -4.20093499124050140381e-02) (33, -7.95032605528831481934e-02) (34, 5.58222755789756774902e-02) (35, 5.20390346646308898926e-02) (36, 8.64335373044013977051e-02) (37, 3.07122543454170227051e-02) (38, -1.93247944116592407227e-02) (39, -2.50346586108207702637e-02) (40, 1.80524811148643493652e-02) (41, 1.97420492768287658691e-02) (42, 1.39747858047485351562e-02) (43, -5.90319447219371795654e-02) (44, -9.31138321757316589355e-02) (45, 2.84285843372344970703e-03) (46, 6.52823969721794128418e-02) (47, 1.18271261453628540039e-03) (48, 2.04275399446487426758e-02) (49, -4.82674837112426757812e-02) (50, -4.50911894440650939941e-02) (51, 5.83989396691322326660e-02) (52, -8.39384198188781738281e-02) (53, -5.28282970190048217773e-02) (54, -6.52623176574707031250e-02) (55, 7.04580470919609069824e-02) (56, -5.14263473451137542725e-02) (57, 3.71157601475715637207e-02) (58, -8.94040018320083618164e-02) (59, 2.19742655754089355469e-02) (60, -6.76556527614593505859e-02) (61, 3.61981168389320373535e-02) (62, 4.29897531867027282715e-02) (63, -9.66499745845794677734e-03) (64, 5.66948726773262023926e-02) (65, -1.18797272443771362305e-03) (66, -5.76259605586528778076e-02) (67, 4.31284084916114807129e-02) (68, -7.04757124185562133789e-02) (69, 2.30492502450942993164e-02) (70, -8.19062516093254089355e-02) (71, 4.75767776370048522949e-02) (72, -5.72086982429027557373e-02) (73, 3.20685431361198425293e-02) (74, 8.85448381304740905762e-02) (75, -5.03225289285182952881e-02) (76, -6.50886073708534240723e-02) (77, 5.38272336125373840332e-02) (78, 5.08601740002632141113e-02) (79, 5.53389266133308410645e-02) (80, -9.44402664899826049805e-02) (81, -9.42310094833374023438e-02) (82, 1.37378573417663574219e-02) (83, -7.83786773681640625000e-02) (84, -4.70593050122261047363e-02) (85, 4.84755560755729675293e-02) (86, 9.20793637633323669434e-02) (87, 1.51435285806655883789e-03) (88, -1.44087001681327819824e-02) (89, -9.73246321082115173340e-02) (90, -7.65113830566406250000e-02) (91, 1.79356485605239868164e-02) (92, 3.88734862208366394043e-02) (93, 6.64783790707588195801e-02) (94, -9.17293503880500793457e-02) (95, -4.43165004253387451172e-03) (96, -3.47096025943756103516e-02) (97, -4.93553094565868377686e-02) (98, -6.13032467663288116455e-02) (99, -5.18531352281570434570e-03) (100, 7.36939385533332824707e-02) (0, -4.32095006108283996582e-02) (1, -5.76085411012172698975e-02) (2, -8.35147649049758911133e-02) (3, 8.88590291142463684082e-02) (4, -6.90637081861495971680e-02) (5, -3.38372886180877685547e-02) (6, -7.62295722961425781250e-02) (7, 8.47635194659233093262e-02) (8, -8.29771161079406738281e-02) (9, 7.91093632578849792480e-02) (10, 9.03232470154762268066e-02) (11, -7.72081241011619567871e-02) (12, -7.15278834104537963867e-03) (13, -8.80554318428039550781e-02) (14, -2.42674276232719421387e-02) (15, -5.86772412061691284180e-02) (16, -9.59760621190071105957e-02) (17, 7.72469118237495422363e-02) (18, 2.69140675663948059082e-02) (19, -9.33006927371025085449e-02) (20, -9.92644652724266052246e-02) (21, -5.51502928137779235840e-02) (22, 4.55727949738502502441e-02) (23, 6.72139003872871398926e-02) (24, -4.68796379864215850830e-02) (25, -5.88588602840900421143e-02) (26, -6.74957036972045898438e-02) (27, 3.76504659652709960938e-03) (28, -2.01621055603027343750e-02) (29, 2.73189917206764221191e-02) (30, -2.25410088896751403809e-02) (31, 3.66283878684043884277e-02) (32, 6.97104409337043762207e-02) (33, -6.05577230453491210938e-03) (34, 2.54874303936958312988e-02) (35, -9.93532612919807434082e-02) (36, 6.01069405674934387207e-02) (37, 4.92578670382499694824e-02) (38, 8.54102447628974914551e-02) (39, 7.71298184990882873535e-02) (40, 2.83672139048576354980e-02) (41, 7.57334902882575988770e-02) (42, 9.99217107892036437988e-02) (43, -7.87855759263038635254e-02) (44, 8.76780822873115539551e-02) (45, -2.43457332253456115723e-02) (46, -3.74628156423568725586e-02) (47, 9.17020067572593688965e-02) (48, -4.70988117158412933350e-02) (49, 8.94512459635734558105e-02) (50, 9.84013155102729797363e-02) (51, -4.63632754981517791748e-02) (52, -6.56990483403205871582e-02) (53, 4.39741089940071105957e-02) (54, -7.91493728756904602051e-02) (55, -1.25786811113357543945e-02) (56, 8.51152613759040832520e-02) (57, -4.66450750827789306641e-02) (58, 9.11863669753074645996e-02) (59, -3.50468605756759643555e-02) (60, 8.06739106774330139160e-02) (61, -3.13546434044837951660e-02) (62, -9.84184667468070983887e-02) (63, 5.03843650221824645996e-02) (64, 6.25895932316780090332e-02) (65, 2.70689651370048522949e-02) (66, 5.10311052203178405762e-02) (67, 2.26965174078941345215e-02) (68, -2.36731767654418945312e-02) (69, 3.64413484930992126465e-02) (70, -1.73665583133697509766e-04) (71, -9.53059643507003784180e-02) (72, 1.21748447418212890625e-02) (73, -2.51963734626770019531e-04) (74, -7.40915387868881225586e-02) (75, -1.47089362144470214844e-04) (76, 7.54023119807243347168e-02) (77, -1.15543529391288757324e-02) (78, -8.44507664442062377930e-03) (79, -7.16965049505233764648e-02) (80, -2.21031159162521362305e-02) (81, -1.00437626242637634277e-02) (82, -1.80597826838493347168e-02) (83, 1.21978372335433959961e-02) (84, -6.60696551203727722168e-02) (85, 2.79084593057632446289e-03) (86, 9.96191576123237609863e-02) (87, -8.09544026851654052734e-02) (88, 5.61457648873329162598e-02) (89, 9.08055230975151062012e-02) (90, -1.60012617707252502441e-02) (91, 3.68196889758110046387e-02) (92, -4.05491180717945098877e-02) (93, -1.44197195768356323242e-02) (94, -1.27959549427032470703e-02) (95, -7.79595375061035156250e-02) (96, -8.73507559299468994141e-02) (97, -6.17648586630821228027e-02) (98, 4.47369888424873352051e-02) (99, -1.10239312052726745605e-02) (100, 7.46764913201332092285e-02) (0, -5.54366856813430786133e-02) (1, -6.32990151643753051758e-03) (2, -1.31486579775810241699e-02) (3, 4.43113520741462707520e-02) (4, 1.95785611867904663086e-02) (5, 8.67042616009712219238e-02) (6, 1.97136551141738891602e-02) (7, -9.19757932424545288086e-02) (8, -2.17408239841461181641e-02) (9, 4.80171516537666320801e-02) (10, -1.40789002180099487305e-02) (11, 6.82154223322868347168e-02) (12, -7.00426399707794189453e-02) (13, 9.81189385056495666504e-02) (14, -9.78542342782020568848e-02) (15, 3.27481999993324279785e-02) (16, 9.77380946278572082520e-02) (17, -7.88086354732513427734e-02) (18, -1.11060291528701782227e-02) (19, 8.85436162352561950684e-02) (20, 5.19009679555892944336e-03) (21, -7.42863491177558898926e-02) (22, -5.20055033266544342041e-02) (23, 9.07703712582588195801e-02) (24, 1.29176974296569824219e-02) (25, -2.99650430679321289062e-02) (26, -9.65803787112236022949e-02) (27, 5.11528328061103820801e-02) (28, -8.52280631661415100098e-02) (29, -7.60431587696075439453e-03) (30, 2.58293226361274719238e-02) (31, -4.06647510826587677002e-02) (32, 8.60657915472984313965e-02) (33, -8.73193293809890747070e-02) (34, -9.63533967733383178711e-02) (35, 5.64435869455337524414e-03) (36, 9.93849262595176696777e-02) (37, 2.33602523803710937500e-02) (38, 1.36685594916343688965e-02) (39, -2.23558992147445678711e-02) (40, -2.86225900053977966309e-02) (41, 9.95896533131599426270e-02) (42, -5.41404783725738525391e-02) (43, 1.33477151393890380859e-03) (44, 9.77085903286933898926e-02) (45, -5.19947148859500885010e-02) (46, -6.59170299768447875977e-02) (47, 9.54466834664344787598e-02) (48, -3.08033525943756103516e-02) (49, 2.29769498109817504883e-02) (50, 8.39902982115745544434e-02) (51, 7.43867531418800354004e-02) (52, 4.86905947327613830566e-02) (53, -6.80152028799057006836e-02) (54, 6.51571229100227355957e-02) (55, -3.83917167782783508301e-02) (56, 2.01974809169769287109e-03) (57, 6.85767456889152526855e-02) (58, -8.72388780117034912109e-02) (59, 1.67916864156723022461e-02) (60, -3.90275679528713226318e-02) (61, 3.85904535651206970215e-02) (62, 7.61269405484199523926e-02) (63, -5.29617778956890106201e-02) (64, 5.12711331248283386230e-02) (65, 7.97735527157783508301e-02) (66, 5.26825860142707824707e-02) (67, 5.06560429930686950684e-02) (68, 3.13379615545272827148e-03) (69, -3.36488634347915649414e-02) (70, -7.16998428106307983398e-02) (71, 7.45112076401710510254e-02) (72, -3.40592116117477416992e-02) (73, -2.58403271436691284180e-02) (74, -2.41540223360061645508e-02) (75, -3.63506227731704711914e-02) (76, 2.21649631857872009277e-02) (77, 9.92895662784576416016e-03) (78, -4.09039445221424102783e-02) (79, 9.13616046309471130371e-02) (80, -6.70941025018692016602e-02) (81, -5.69136403501033782959e-02) (82, 6.57483562827110290527e-02) (83, 8.15965011715888977051e-02) (84, -2.49288454651832580566e-02) (85, 3.09054926037788391113e-02) (86, -5.67952245473861694336e-02) (87, 7.70909115672111511230e-02) (88, -5.17770648002624511719e-04) (89, -4.40341010689735412598e-02) (90, -6.11739605665206909180e-03) (91, 6.04546591639518737793e-02) (92, 9.45563539862632751465e-02) (93, -2.99904495477676391602e-02) (94, -9.25071239471435546875e-02) (95, 4.58274856209754943848e-02) (96, -5.02169094979763031006e-02) (97, 6.01754561066627502441e-02) (98, -3.51646542549133300781e-03) (99, 5.29168918728828430176e-02) (100, -7.34734162688255310059e-02) (0, 2.47836858034133911133e-02) (1, 2.74280980229377746582e-02) (2, -7.53263384103775024414e-03) (3, 9.89433601498603820801e-02) (4, -9.67259183526039123535e-02) (5, 5.61167523264884948730e-02) (6, 2.11083143949508666992e-02) (7, 1.32030397653579711914e-02) (8, -8.47871974110603332520e-02) (9, 1.24699249863624572754e-02) (10, 4.61089238524436950684e-02) (11, -4.17008362710475921631e-02) (12, -2.17817202210426330566e-02) (13, 2.77054235339164733887e-02) (14, 3.33703234791755676270e-02) (15, -9.08762440085411071777e-02) (16, 7.09101930260658264160e-02) (17, 1.04612335562705993652e-02) (18, 8.60597938299179077148e-03) (19, -7.31239095330238342285e-02) (20, -9.56561639904975891113e-02) (21, -3.09393554925918579102e-02) (22, -7.85675495862960815430e-02) (23, -2.56466120481491088867e-02) (24, -2.34464854001998901367e-02) (25, 6.72599300742149353027e-02) (26, 2.41364836692810058594e-02) (27, -6.32710307836532592773e-02) (28, -3.62565368413925170898e-02) (29, -2.29466259479522705078e-02) (30, -3.67444455623626708984e-02) (31, 8.85271504521369934082e-02) (32, -9.55185219645500183105e-02) (33, 5.57229295372962951660e-02) (34, 8.74705091118812561035e-02) (35, -9.22444388270378112793e-02) (36, 1.18396654725074768066e-02) (37, 8.57882201671600341797e-03) (38, 2.09585875272750854492e-02) (39, 2.70524695515632629395e-02) (40, -7.89512544870376586914e-02) (41, -3.29324826598167419434e-02) (42, 8.53516384959220886230e-02) (43, -7.32973217964172363281e-04) (44, 9.47729423642158508301e-02) (45, 1.87219604849815368652e-02) (46, 8.39078426361083984375e-03) (47, 6.56831339001655578613e-02) (48, -7.08168074488639831543e-02) (49, -8.30032303929328918457e-02) (50, 9.25592258572578430176e-02) (51, -6.64729773998260498047e-02) (52, -1.39425843954086303711e-02) (53, -8.60083326697349548340e-02) (54, 7.88041204214096069336e-03) (55, 6.26109316945075988770e-02) (56, 8.12515988945960998535e-02) (57, -6.79831057786941528320e-02) (58, 9.93399098515510559082e-02) (59, -5.50049468874931335449e-02) (60, 9.07026231288909912109e-03) (61, -3.74045521020889282227e-02) (62, -6.64777979254722595215e-02) (63, 1.35517492890357971191e-02) (64, -8.16816240549087524414e-02) (65, -7.90072903037071228027e-02) (66, 2.13073045015335083008e-02) (67, 3.01580503582954406738e-02) (68, 2.95715406537055969238e-02) (69, -5.77341057360172271729e-02) (70, -4.27894853055477142334e-02) (71, 5.06202802062034606934e-02) (72, 9.33341681957244873047e-03) (73, -5.74378482997417449951e-02) (74, -5.01126907765865325928e-02) (75, 4.10634279251098632812e-03) (76, 6.12841174006462097168e-02) (77, 5.82780912518501281738e-02) (78, -3.02105247974395751953e-02) (79, 9.04672965407371520996e-02) (80, 7.52748623490333557129e-02) (81, -3.76513078808784484863e-02) (82, -7.60056674480438232422e-02) (83, -3.86677272617816925049e-02) (84, -2.36596390604972839355e-02) (85, 3.18747386336326599121e-02) (86, -7.60567933320999145508e-02) (87, -4.24080491065979003906e-02) (88, 6.38916417956352233887e-02) (89, -7.67168998718261718750e-02) (90, 2.58700549602508544922e-03) (91, -2.70381048321723937988e-02) (92, -1.41214504837989807129e-02) (93, 3.61092165112495422363e-02) (94, 8.65136459469795227051e-02) (95, 4.19692695140838623047e-03) (96, 5.71019127964973449707e-02) (97, 7.82094895839691162109e-03) (98, -6.56450316309928894043e-02) (99, -1.33265480399131774902e-02) (100, 5.00868484377861022949e-02) (0, -8.43451172113418579102e-03) (1, -6.27062693238258361816e-02) (2, -4.05797436833381652832e-02) (3, 3.41276451945304870605e-02) (4, -1.28189623355865478516e-02) (5, 6.35266080498695373535e-02) (6, -4.58824634552001953125e-03) (7, -5.45408688485622406006e-02) (8, -6.66839182376861572266e-02) (9, -1.41209438443183898926e-02) (10, -7.92660042643547058105e-02) (11, -4.33523207902908325195e-03) (12, 9.87339019775390625000e-03) (13, -1.79337263107299804688e-02) (14, 7.20051303505897521973e-02) (15, -5.82518726587295532227e-02) (16, 6.00947439670562744141e-03) (17, -7.04029202461242675781e-02) (18, -9.43602398037910461426e-02) (19, 2.92925909161567687988e-02) (20, 3.21840867400169372559e-02) (21, -2.13983431458473205566e-02) (22, -8.48288685083389282227e-02) (23, -3.17067056894302368164e-02) (24, -3.48847061395645141602e-02) (25, 1.93680524826049804688e-02) (26, -7.46047794818878173828e-02) (27, 7.29362443089485168457e-02) (28, 5.37230297923088073730e-02) (29, 1.20686665177345275879e-02) (30, 2.30230912566184997559e-02) (31, -5.47114871442317962646e-02) (32, 4.93623986840248107910e-02) (33, 8.24433490633964538574e-02) (34, 7.94161632657051086426e-02) (35, -6.34565651416778564453e-02) (36, 4.59699556231498718262e-02) (37, -2.51720920205116271973e-02) (38, -1.79974287748336791992e-02) (39, 7.92860463261604309082e-02) (40, 6.07069805264472961426e-02) (41, 2.73656845092773437500e-03) (42, -2.50491946935653686523e-02) (43, -2.94196456670761108398e-02) (44, 8.48028436303138732910e-02) (45, -5.30440658330917358398e-02) (46, 1.23284831643104553223e-02) (47, -9.18768346309661865234e-03) (48, -2.34469845890998840332e-02) (49, 1.79682374000549316406e-02) (50, -7.98951014876365661621e-02) (51, -9.12628993391990661621e-02) (52, 9.65699031949043273926e-02) (53, -6.47239685058593750000e-02) (54, -2.29695960879325866699e-02) (55, -3.83148007094860076904e-02) (56, 5.46440854668617248535e-02) (57, 2.42562592029571533203e-03) (58, -6.53785616159439086914e-02) (59, 8.36710631847381591797e-03) (60, -8.55057165026664733887e-02) (61, 5.76445385813713073730e-02) (62, 5.36556318402290344238e-02) (63, 6.38566836714744567871e-02) (64, 4.00878861546516418457e-02) (65, 3.30717787146568298340e-02) (66, -9.95998829603195190430e-02) (67, -1.39421671628952026367e-02) (68, -9.21003073453903198242e-02) (69, -1.75973102450370788574e-02) (70, -3.46561297774314880371e-02) (71, 6.86066672205924987793e-02) (72, 8.51392671465873718262e-02) (73, 4.02946844696998596191e-02) (74, -6.08129762113094329834e-02) (75, 6.99421092867851257324e-02) (76, 8.72506126761436462402e-02) (77, 5.15155121684074401855e-02) (78, -3.92455831170082092285e-02) (79, -3.61963734030723571777e-02) (80, -3.05162519216537475586e-02) (81, -1.91406831145286560059e-02) (82, -2.74592712521553039551e-02) (83, -3.39463502168655395508e-02) (84, 1.61353498697280883789e-02) (85, 4.95711341500282287598e-02) (86, 2.77388468384742736816e-02) (87, -2.92205661535263061523e-02) (88, -4.80032525956630706787e-02) (89, 6.23602941632270812988e-02) (90, 7.91465565562248229980e-02) (91, -3.35089638829231262207e-02) (92, 2.00048312544822692871e-02) (93, 3.28021720051765441895e-02) (94, -6.96522817015647888184e-02) (95, -3.99072878062725067139e-02) (96, -3.41260358691215515137e-02) (97, -6.92521631717681884766e-02) (98, 4.61505576968193054199e-02) (99, -2.62263417243957519531e-02) (100, 1.31505280733108520508e-02) (0, -8.85055810213088989258e-02) (1, -5.76196722686290740967e-02) (2, -1.71022117137908935547e-03) (3, 5.17891123890876770020e-02) (4, -1.84326469898223876953e-02) (5, -3.17681208252906799316e-02) (6, 3.90397086739540100098e-02) (7, -6.69171363115310668945e-02) (8, 2.89862975478172302246e-02) (9, -9.71566587686538696289e-02) (10, 2.56661325693130493164e-03) (11, -9.01543870568275451660e-02) (12, -2.46159285306930541992e-02) (13, 6.86202719807624816895e-02) (14, 2.59809568524360656738e-02) (15, -7.50447958707809448242e-02) (16, -3.64089012145996093750e-03) (17, 9.67603996396064758301e-02) (18, -2.30480432510375976562e-02) (19, -4.12805937230587005615e-02) (20, 7.59069398045539855957e-02) (21, 4.34429869055747985840e-02) (22, 7.87242427468299865723e-02) (23, 8.70911777019500732422e-03) (24, 7.37907066941261291504e-02) (25, -6.11830465495586395264e-02) (26, 7.45830759406089782715e-02) (27, -9.54614505171775817871e-02) (28, 8.49675014615058898926e-02) (29, -5.16432598233222961426e-02) (30, 1.76890715956687927246e-02) (31, 9.64619293808937072754e-02) (32, -9.26293432712554931641e-03) (33, -8.40211436152458190918e-02) (34, 4.82510253787040710449e-02) (35, 7.23044201731681823730e-02) (36, -1.57892554998397827148e-02) (37, -1.27092674374580383301e-02) (38, -9.46127250790596008301e-02) (39, -8.68029594421386718750e-02) (40, -9.86592471599578857422e-03) (41, 7.95389711856842041016e-03) (42, -7.69573450088500976562e-02) (43, 6.55181482434272766113e-02) (44, -2.34258547425270080566e-02) (45, 4.90236207842826843262e-02) (46, 9.04733464121818542480e-02) (47, 7.29332640767097473145e-02) (48, 4.57840189337730407715e-02) (49, -3.25746983289718627930e-02) (50, -6.83473348617553710938e-02) (51, 2.16909497976303100586e-02) (52, -8.91317054629325866699e-02) (53, -8.96231010556221008301e-02) (54, -6.95999264717102050781e-02) (55, 8.46590027213096618652e-02) (56, -5.08061461150646209717e-02) (57, -9.50168445706367492676e-02) (58, 8.91975536942481994629e-02) (59, -6.58386498689651489258e-02) (60, -4.66601029038429260254e-02) (61, 6.88662379980087280273e-03) (62, -6.93767219781875610352e-02) (63, 4.40769717097282409668e-02) (64, 2.28654891252517700195e-02) (65, 7.88742974400520324707e-02) (66, 1.63813829421997070312e-02) (67, -9.29237678647041320801e-02) (68, -3.38349565863609313965e-02) (69, 2.17686668038368225098e-02) (70, -7.97267258167266845703e-02) (71, 5.62991127371788024902e-02) (72, -7.02774450182914733887e-02) (73, -5.66840656101703643799e-02) (74, 2.18172520399093627930e-02) (75, 6.29670917987823486328e-03) (76, 9.23395529389381408691e-02) (77, 1.22906118631362915039e-02) (78, -2.07700356841087341309e-02) (79, 3.81235703825950622559e-02) (80, 7.97159150242805480957e-02) (81, 1.08826309442520141602e-02) (82, -4.01854775846004486084e-02) (83, 9.05842110514640808105e-02) (84, 2.12595313787460327148e-02) (85, -9.78539884090423583984e-03) (86, 7.52432122826576232910e-02) (87, 7.04533830285072326660e-02) (88, -4.80224192142486572266e-03) (89, 6.44407644867897033691e-02) (90, -9.53852534294128417969e-02) (91, 4.85376492142677307129e-02) (92, -2.86726057529449462891e-02) (93, -6.47619813680648803711e-02) (94, -7.38538801670074462891e-03) (95, 9.41928848624229431152e-02) (96, -8.58876705169677734375e-02) (97, -9.10039991140365600586e-02) (98, -9.87308844923973083496e-02) (99, -1.97226256132125854492e-02) (100, 3.07646617293357849121e-02) (0, -7.84576088190078735352e-02) (1, -6.34235143661499023438e-02) (2, 6.04872182011604309082e-02) (3, -3.51416766643524169922e-02) (4, 5.83937391638755798340e-02) (5, -3.32160741090774536133e-02) (6, -4.28021214902400970459e-02) (7, -2.93156579136848449707e-02) (8, 4.60138842463493347168e-02) (9, 9.53214541077613830566e-02) (10, -4.95997481048107147217e-02) (11, -4.31034862995147705078e-02) (12, -4.48640249669551849365e-02) (13, -5.90155422687530517578e-02) (14, 7.81560465693473815918e-02) (15, 4.53505739569664001465e-02) (16, -8.37723314762115478516e-02) (17, 4.86094430088996887207e-02) (18, -5.94516694545745849609e-02) (19, 8.06684270501136779785e-02) (20, 5.32241836190223693848e-02) (21, 8.90859887003898620605e-02) (22, -4.80041764676570892334e-02) (23, 8.84622111916542053223e-02) (24, -1.82994008064270019531e-02) (25, -5.38112930953502655029e-02) (26, -9.74254682660102844238e-02) (27, -9.30339843034744262695e-03) (28, -5.25421760976314544678e-02) (29, -1.71480923891067504883e-02) (30, -7.85387307405471801758e-02) (31, -3.09997946023941040039e-02) (32, 1.94283872842788696289e-02) (33, 8.19484815001487731934e-02) (34, 3.38585451245307922363e-02) (35, -2.21778750419616699219e-02) (36, -5.12675903737545013428e-02) (37, 9.10564139485359191895e-02) (38, 4.85064759850502014160e-02) (39, 9.47462990880012512207e-02) (40, 8.63778665661811828613e-02) (41, 9.89067181944847106934e-02) (42, -4.83571887016296386719e-02) (43, -5.84861636161804199219e-02) (44, -6.01088218390941619873e-02) (45, -7.02011436223983764648e-02) (46, 8.68644192814826965332e-02) (47, -4.38811555504798889160e-02) (48, 7.84082934260368347168e-02) (49, -7.25872591137886047363e-02) (50, -6.32127225399017333984e-02) (51, 3.16324755549430847168e-02) (52, -8.35012793540954589844e-02) (53, -1.12168937921524047852e-02) (54, 2.00946778059005737305e-02) (55, -1.80067121982574462891e-03) (56, 3.49718108773231506348e-02) (57, 2.26692110300064086914e-02) (58, 8.88959243893623352051e-02) (59, 8.24296399950981140137e-02) (60, -9.44788902997970581055e-02) (61, -8.96428078413009643555e-02) (62, -4.85701560974121093750e-02) (63, 2.49494910240173339844e-02) (64, 9.23056825995445251465e-02) (65, 8.52883830666542053223e-02) (66, -9.72283780574798583984e-02) (67, -5.89619092643260955811e-02) (68, 7.63447955250740051270e-02) (69, 5.12780919671058654785e-02) (70, -6.42156153917312622070e-02) (71, 6.27226456999778747559e-02) (72, 5.01848235726356506348e-02) (73, -1.25728100538253784180e-02) (74, -9.57635194063186645508e-02) (75, 9.00759920477867126465e-02) (76, 1.72260552644729614258e-02) (77, 9.11008939146995544434e-02) (78, -5.38051538169384002686e-02) (79, -4.36566025018692016602e-03) (80, -8.14863592386245727539e-02) (81, -1.70178785920143127441e-02) (82, -7.27331936359405517578e-02) (83, -6.49876371026039123535e-02) (84, 7.17652216553688049316e-02) (85, 4.73614856600761413574e-02) (86, 3.32117006182670593262e-02) (87, 6.73703104257583618164e-03) (88, -2.99693048000335693359e-02) (89, 2.21076160669326782227e-02) (90, -1.08333379030227661133e-02) (91, -2.44481936097145080566e-02) (92, 3.24648097157478332520e-02) (93, 4.05964925885200500488e-02) (94, -9.94986966252326965332e-02) (95, 2.47704833745956420898e-02) (96, 2.58848741650581359863e-02) (97, -9.67270806431770324707e-02) (98, 6.58085867762565612793e-02) (99, 2.22966820001602172852e-03) (100, 5.45510128140449523926e-02) (0, -9.84070375561714172363e-02) (1, -3.50476875901222229004e-02) (2, 4.73582744598388671875e-03) (3, -1.09798461198806762695e-02) (4, -3.08111980557441711426e-02) (5, -5.18817454576492309570e-03) (6, -9.37537997961044311523e-02) (7, -3.97103019058704376221e-02) (8, 4.10066768527030944824e-02) (9, 1.88054144382476806641e-03) (10, -2.11966633796691894531e-02) (11, -7.60112032294273376465e-02) (12, 2.91473492980003356934e-02) (13, 1.38157010078430175781e-02) (14, 9.57540199160575866699e-02) (15, -2.34911665320396423340e-02) (16, -5.29726073145866394043e-02) (17, 2.49105691909790039062e-03) (18, 4.65395376086235046387e-02) (19, 6.91350176930427551270e-02) (20, 9.16577056050300598145e-02) (21, -7.79086649417877197266e-02) (22, 1.59982591867446899414e-03) (23, 3.22542265057563781738e-02) (24, -7.74073675274848937988e-02) (25, -7.36296847462654113770e-02) (26, -4.18609082698822021484e-02) (27, -7.41344392299652099609e-02) (28, 9.21788886189460754395e-02) (29, 6.03687688708305358887e-02) (30, 8.04165676236152648926e-02) (31, 9.37718674540519714355e-02) (32, -7.46789276599884033203e-02) (33, -1.48475915193557739258e-02) (34, -1.72079876065254211426e-02) (35, -5.49012422561645507812e-03) (36, 7.99642279744148254395e-02) (37, -1.09617859125137329102e-02) (38, 5.47995790839195251465e-02) (39, 2.09709182381629943848e-02) (40, 9.09187570214271545410e-02) (41, -6.63970857858657836914e-02) (42, 4.49597164988517761230e-02) (43, 2.00661048293113708496e-02) (44, 4.74186167120933532715e-02) (45, 4.07137349247932434082e-02) (46, 9.65749397873878479004e-02) (47, 9.44460108876228332520e-02) (48, -5.67952208220958709717e-02) (49, 4.31144610047340393066e-02) (50, 6.35810270905494689941e-02) (51, -6.51375055313110351562e-02) (52, 6.52058050036430358887e-02) (53, -3.48191484808921813965e-02) (54, 6.71167150139808654785e-02) (55, 8.77984240651130676270e-02) (56, -8.44883173704147338867e-03) (57, -7.47441947460174560547e-02) (58, -8.63360092043876647949e-02) (59, -1.62699371576309204102e-02) (60, 8.56245681643486022949e-02) (61, 9.40805748105049133301e-02) (62, -2.24980711936950683594e-02) (63, -8.90543684363365173340e-02) (64, -2.07670256495475769043e-02) (65, 6.02939352393150329590e-02) (66, 5.45551627874374389648e-03) (67, -4.08027879893779754639e-02) (68, -5.06678447127342224121e-02) (69, -3.97449135780334472656e-02) (70, 8.01681205630302429199e-02) (71, -5.97490891814231872559e-02) (72, -6.14199787378311157227e-03) (73, 2.51278355717658996582e-02) (74, 6.03170171380043029785e-02) (75, -5.87233752012252807617e-02) (76, -3.41584384441375732422e-02) (77, 5.68919554352760314941e-02) (78, -6.42773658037185668945e-02) (79, 9.04633849859237670898e-03) (80, 6.41494989395141601562e-06) (81, 9.93036702275276184082e-02) (82, 4.39088419079780578613e-02) (83, -3.47877889871597290039e-02) (84, -3.55154797434806823730e-02) (85, 1.10255479812622070312e-02) (86, -4.69893589615821838379e-02) (87, 5.60356900095939636230e-02) (88, 3.62813547253608703613e-02) (89, -3.33253592252731323242e-02) (90, -6.02342449128627777100e-02) (91, 2.19059139490127563477e-02) (92, -3.92447970807552337646e-02) (93, 1.72676816582679748535e-02) (94, 3.28515395522117614746e-02) (95, 3.99881824851036071777e-02) (96, -2.24383771419525146484e-02) (97, -6.16929456591606140137e-02) (98, 9.91853848099708557129e-02) (99, 2.68937870860099792480e-02) (100, -1.43785774707794189453e-03) (0, 7.93535187840461730957e-02) (1, 6.71446993947029113770e-02) (2, 9.24201533198356628418e-02) (3, 4.48133796453475952148e-03) (4, 2.74617150425910949707e-02) (5, -6.63032233715057373047e-02) (6, 7.03228935599327087402e-02) (7, -1.56463459134101867676e-02) (8, -3.05805876851081848145e-02) (9, -2.06307619810104370117e-02) (10, 8.43600705265998840332e-02) (11, -3.12769189476966857910e-02) (12, -7.67219215631484985352e-02) (13, -5.04277162253856658936e-02) (14, 3.32076027989387512207e-02) (15, 3.43036130070686340332e-02) (16, 2.58293002843856811523e-03) (17, -1.07567161321640014648e-02) (18, -2.94150263071060180664e-02) (19, 6.92575648427009582520e-02) (20, 2.90090516209602355957e-02) (21, 9.24908742308616638184e-02) (22, -6.99872225522994995117e-02) (23, -5.37232756614685058594e-02) (24, 2.53424271941184997559e-02) (25, 7.00009539723396301270e-02) (26, 2.38383561372756958008e-02) (27, 6.36494830250740051270e-02) (28, 6.91863372921943664551e-02) (29, -4.92678694427013397217e-02) (30, -3.77883724868297576904e-02) (31, 4.85398545861244201660e-02) (32, -8.21231752634048461914e-02) (33, -4.53682243824005126953e-02) (34, -4.69788089394569396973e-02) (35, 4.53385338187217712402e-02) (36, -1.16714462637901306152e-02) (37, -7.66559094190597534180e-02) (38, -7.03078061342239379883e-02) (39, 5.77479675412178039551e-02) (40, 2.71333754062652587891e-03) (41, -8.59477370977401733398e-02) (42, -7.35289454460144042969e-02) (43, 2.59914174675941467285e-02) (44, -3.63754481077194213867e-02) (45, 5.96786513924598693848e-02) (46, -3.97049598395824432373e-02) (47, 6.62074759602546691895e-02) (48, -5.10780625045299530029e-02) (49, 3.08800116181373596191e-02) (50, 3.54650542140007019043e-02) (51, 7.79309794306755065918e-02) (52, 2.33708843588829040527e-02) (53, 6.54778257012367248535e-02) (54, -7.57922977209091186523e-02) (55, -5.12866899371147155762e-02) (56, 3.54787781834602355957e-02) (57, 4.80460599064826965332e-02) (58, -8.76372084021568298340e-02) (59, 4.66511398553848266602e-03) (60, 9.87781956791877746582e-02) (61, -2.54255831241607666016e-02) (62, -4.67950366437435150146e-02) (63, -8.33449885249137878418e-02) (64, 2.92061939835548400879e-02) (65, 6.22615963220596313477e-03) (66, 6.19935467839241027832e-02) (67, -8.24652463197708129883e-02) (68, 2.95702591538429260254e-02) (69, 9.16857346892356872559e-02) (70, 7.52827152609825134277e-02) (71, -6.77164122462272644043e-02) (72, -9.42620038986206054688e-02) (73, -9.82462316751480102539e-02) (74, 5.82750067114830017090e-02) (75, -3.06374505162239074707e-02) (76, 6.14324286580085754395e-02) (77, -8.14299583435058593750e-02) (78, -6.44299685955047607422e-02) (79, -8.96456390619277954102e-02) (80, 4.94500473141670227051e-02) (81, 7.10350796580314636230e-02) (82, 8.82853344082832336426e-02) (83, -2.71790623664855957031e-02) (84, 3.65129038691520690918e-02) (85, -8.75069573521614074707e-02) (86, 2.15342491865158081055e-02) (87, -2.80083268880844116211e-02) (88, 6.05391040444374084473e-02) (89, 3.38970497250556945801e-02) (90, 7.66567960381507873535e-02) (91, 5.93172833323478698730e-02) (92, -9.15285423398017883301e-02) (93, -7.01382383704185485840e-02) (94, 7.59722962975502014160e-02) (95, 3.76776531338691711426e-02) (96, 3.60879227519035339355e-02) (97, 3.79658415913581848145e-02) (98, 5.52124157547950744629e-02) (99, -3.43418270349502563477e-02) (100, 2.96515747904777526855e-02) (0, 3.04951295256614685059e-02) (1, -2.05823779106140136719e-03) (2, 3.53895798325538635254e-02) (3, 3.22489067912101745605e-02) (4, -4.37832288444042205811e-02) (5, -9.52478796243667602539e-02) (6, -6.31867349147796630859e-03) (7, -2.52131894230842590332e-02) (8, -5.96778430044651031494e-02) (9, 4.03567403554916381836e-03) (10, -7.57631435990333557129e-02) (11, -8.86427611112594604492e-02) (12, -7.67897814512252807617e-03) (13, -2.94220447540283203125e-03) (14, 4.78701367974281311035e-02) (15, 4.81406599283218383789e-03) (16, -8.14079567790031433105e-02) (17, -8.01381841301918029785e-02) (18, -3.46468389034271240234e-02) (19, 5.24890944361686706543e-02) (20, 9.65186133980751037598e-02) (21, -7.53295570611953735352e-02) (22, 6.09605386853218078613e-02) (23, -7.36196339130401611328e-02) (24, -9.93572622537612915039e-02) (25, -1.36180222034454345703e-03) (26, 6.24682977795600891113e-02) (27, 3.86085733771324157715e-02) (28, -4.61493842303752899170e-02) (29, -7.18735456466674804688e-02) (30, -3.17398458719253540039e-02) (31, 8.43457505106925964355e-02) (32, 2.60682180523872375488e-02) (33, -9.63502675294876098633e-02) (34, 1.65946483612060546875e-02) (35, 8.22849944233894348145e-02) (36, -9.15981456637382507324e-02) (37, -8.97240340709686279297e-02) (38, -4.29282002151012420654e-02) (39, -5.12759871780872344971e-02) (40, 1.43116489052772521973e-02) (41, -1.86913460493087768555e-02) (42, -3.99187505245208740234e-02) (43, -9.33673381805419921875e-02) (44, 7.83664658665657043457e-02) (45, -9.20486152172088623047e-02) (46, 1.14467293024063110352e-02) (47, 9.69585105776786804199e-02) (48, -7.21867978572845458984e-02) (49, 7.67998918890953063965e-02) (50, 4.94475886225700378418e-02) (51, -7.56681859493255615234e-02) (52, -9.85296666622161865234e-02) (53, 1.04081407189369201660e-02) (54, -4.92878220975399017334e-02) (55, -9.78869274258613586426e-02) (56, -9.09536629915237426758e-02) (57, -8.68195369839668273926e-02) (58, 4.07216623425483703613e-02) (59, -3.71030494570732116699e-02) (60, -5.86930774152278900146e-02) (61, -9.10181924700736999512e-02) (62, -5.27573078870773315430e-02) (63, 6.73751458525657653809e-02) (64, -8.73684659600257873535e-02) (65, 6.38373419642448425293e-02) (66, 4.96601387858390808105e-02) (67, -7.89666101336479187012e-02) (68, 7.41133019328117370605e-02) (69, -9.32680666446685791016e-02) (70, -3.02425920963287353516e-02) (71, -1.15750581026077270508e-02) (72, -1.19594112038612365723e-02) (73, 2.98386588692665100098e-02) (74, -4.94238734245300292969e-03) (75, -3.35929542779922485352e-02) (76, 3.77900525927543640137e-02) (77, -9.34956595301628112793e-02) (78, -3.66344526410102844238e-02) (79, 6.56032636761665344238e-02) (80, 8.33042338490486145020e-02) (81, -8.71868655085563659668e-02) (82, 8.99350717663764953613e-02) (83, 8.47745612263679504395e-02) (84, 2.32212692499160766602e-02) (85, -5.93527592718601226807e-02) (86, 8.68876352906227111816e-02) (87, 3.22676077485084533691e-02) (88, -4.61722910404205322266e-02) (89, 2.76092961430549621582e-02) (90, 9.51645597815513610840e-02) (91, -4.86536324024200439453e-03) (92, 3.65910902619361877441e-02) (93, -5.75927533209323883057e-02) (94, -3.74902263283729553223e-02) (95, 4.92226257920265197754e-02) (96, -9.37554165720939636230e-02) (97, -8.78300890326499938965e-02) (98, 7.02560171484947204590e-02) (99, 8.03578868508338928223e-02) (100, -8.10981541872024536133e-02) (0, -5.99865727126598358154e-02) (1, -3.12171727418899536133e-02) (2, 6.94243609905242919922e-03) (3, 6.98520913720130920410e-02) (4, 6.38404414057731628418e-02) (5, 7.33494833111763000488e-02) (6, 7.64212757349014282227e-03) (7, 7.03447833657264709473e-02) (8, -6.32849633693695068359e-02) (9, -2.67546176910400390625e-02) (10, 5.36490157246589660645e-02) (11, -5.04718311131000518799e-02) (12, -3.68195623159408569336e-02) (13, 3.84235754609107971191e-02) (14, 7.27494433522224426270e-02) (15, 3.82769107818603515625e-03) (16, 2.53112092614173889160e-02) (17, 5.01704216003417968750e-03) (18, 5.76554015278816223145e-02) (19, -4.70795035362243652344e-02) (20, 1.81600451469421386719e-04) (21, -4.72099743783473968506e-02) (22, 8.95115807652473449707e-02) (23, 4.25888523459434509277e-02) (24, 1.52998119592666625977e-02) (25, 3.87342050671577453613e-02) (26, 4.88334372639656066895e-02) (27, 2.74697169661521911621e-02) (28, 8.99024307727813720703e-03) (29, 2.91913226246833801270e-02) (30, 4.63715568184852600098e-02) (31, 4.90036681294441223145e-02) (32, 9.79741439223289489746e-02) (33, -4.66860011219978332520e-02) (34, 1.88557505607604980469e-02) (35, 6.18145987391471862793e-02) (36, -7.33365118503570556641e-02) (37, -7.35021233558654785156e-02) (38, 3.21593806147575378418e-02) (39, -3.66214811801910400391e-02) (40, -2.56739556789398193359e-04) (41, -1.41916126012802124023e-02) (42, 1.29066929221153259277e-02) (43, 6.29237070679664611816e-02) (44, -7.57680386304855346680e-02) (45, -1.43438726663589477539e-02) (46, -3.32486107945442199707e-02) (47, 4.95431795716285705566e-02) (48, 9.06731709837913513184e-02) (49, -7.55932182073593139648e-02) (50, -9.75363329052925109863e-02) (51, -9.14521515369415283203e-03) (52, -2.28031948208808898926e-02) (53, 9.19752642512321472168e-02) (54, -6.65563642978668212891e-02) (55, 9.24966111779212951660e-02) (56, 3.07094678282737731934e-02) (57, 8.22770670056343078613e-02) (58, 1.99663266539573669434e-02) (59, -6.03002943098545074463e-02) (60, 1.14683881402015686035e-02) (61, -3.36621105670928955078e-02) (62, 8.87033715844154357910e-02) (63, 9.44253057241439819336e-03) (64, 1.96518898010253906250e-02) (65, 7.55912065505981445312e-03) (66, -2.87428796291351318359e-02) (67, 4.63153794407844543457e-02) (68, 3.40569987893104553223e-02) (69, -9.65835079550743103027e-02) (70, -9.03061106801033020020e-02) (71, -6.61997348070144653320e-02) (72, -1.07751190662384033203e-02) (73, 2.26005762815475463867e-02) (74, 9.67239663004875183105e-02) (75, 1.34568437933921813965e-02) (76, -9.17432904243469238281e-02) (77, -3.65246385335922241211e-02) (78, -3.69999855756759643555e-02) (79, 9.89298895001411437988e-02) (80, -1.21178627014160156250e-02) (81, -3.45363169908523559570e-02) (82, -1.02153271436691284180e-02) (83, 6.50789514183998107910e-02) (84, -4.25610616803169250488e-02) (85, 2.32283025979995727539e-02) (86, 5.75755611062049865723e-02) (87, 8.81484225392341613770e-02) (88, 5.50536811351776123047e-03) (89, -2.24581137299537658691e-02) (90, -7.21518844366073608398e-02) (91, -8.30262377858161926270e-02) (92, 4.38797846436500549316e-02) (93, -8.34485068917274475098e-02) (94, 2.64162942767143249512e-02) (95, -3.64683344960212707520e-02) (96, 2.41106152534484863281e-02) (97, 9.76734235882759094238e-02) (98, -9.01529639959335327148e-02) (99, -4.18323837220668792725e-02) (100, -9.89100858569145202637e-02) (0, -8.04590731859207153320e-02) (1, -8.03212076425552368164e-03) (2, -9.68520343303680419922e-03) (3, 4.21415045857429504395e-02) (4, -1.13081485033035278320e-02) (5, -9.62283611297607421875e-02) (6, 5.03982231020927429199e-02) (7, 5.21671995520591735840e-02) (8, -3.32283377647399902344e-02) (9, 4.93281111121177673340e-02) (10, -5.99506571888923645020e-02) (11, 3.22353467345237731934e-02) (12, -6.08872175216674804688e-02) (13, -9.48717072606086730957e-02) (14, 8.96743014454841613770e-02) (15, 6.23410865664482116699e-02) (16, 6.27038553357124328613e-02) (17, 7.78227075934410095215e-02) (18, -3.21535393595695495605e-02) (19, -5.97542561590671539307e-02) (20, -9.43291783332824707031e-02) (21, -1.51797756552696228027e-02) (22, 8.41255262494087219238e-02) (23, -7.77776837348937988281e-02) (24, -8.87634828686714172363e-02) (25, -5.23428134620189666748e-02) (26, 4.63329330086708068848e-02) (27, -9.10900682210922241211e-02) (28, -4.24957685172557830811e-02) (29, -9.54994484782218933105e-02) (30, -9.00001525878906250000e-02) (31, -2.29548364877700805664e-02) (32, -3.53156030178070068359e-03) (33, 3.14638018608093261719e-04) (34, -8.08133259415626525879e-02) (35, 8.51602777838706970215e-02) (36, 4.08627837896347045898e-03) (37, 6.95848986506462097168e-02) (38, 3.73274907469749450684e-02) (39, 7.08579495549201965332e-02) (40, 1.89130082726478576660e-02) (41, 7.73768350481986999512e-02) (42, 3.09330224990844726562e-03) (43, 5.80257847905158996582e-02) (44, 8.25051143765449523926e-02) (45, -7.23240524530410766602e-03) (46, 2.03668847680091857910e-02) (47, 4.52089831233024597168e-02) (48, -2.94096916913986206055e-02) (49, 8.82133319973945617676e-02) (50, 8.54547247290611267090e-02) (51, -2.37388759851455688477e-02) (52, -2.69664376974105834961e-02) (53, 6.95802494883537292480e-02) (54, -1.51655077934265136719e-03) (55, -1.57299190759658813477e-02) (56, -8.27625691890716552734e-02) (57, -5.51836192607879638672e-02) (58, -6.81998580694198608398e-03) (59, -2.52583399415016174316e-02) (60, -5.06830662488937377930e-02) (61, 3.17986309528350830078e-03) (62, 5.17868325114250183105e-02) (63, 4.57853749394416809082e-02) (64, -9.65055003762245178223e-02) (65, 7.09734931588172912598e-02) (66, 3.09456512331962585449e-02) (67, 7.58077949285507202148e-03) (68, 4.05584052205085754395e-02) (69, -3.17268595099449157715e-02) (70, -2.15612649917602539062e-02) (71, -4.05285954475402832031e-02) (72, -5.43500334024429321289e-02) (73, 8.15320387482643127441e-02) (74, -8.25028046965599060059e-02) (75, -7.18449056148529052734e-02) (76, -2.57003754377365112305e-02) (77, 3.78640815615653991699e-02) (78, 7.33640715479850769043e-02) (79, 4.48899343609809875488e-02) (80, 2.60774120688438415527e-02) (81, 5.88187947869300842285e-02) (82, -7.88489431142807006836e-02) (83, 9.91109684109687805176e-02) (84, 2.83990427851676940918e-02) (85, 1.96345075964927673340e-02) (86, -1.66189447045326232910e-02) (87, 4.56364676356315612793e-02) (88, 6.44508823752403259277e-02) (89, 7.65610709786415100098e-02) (90, -7.96218663454055786133e-02) (91, -8.62321779131889343262e-02) (92, -2.02590748667716979980e-02) (93, 7.21649602055549621582e-02) (94, 5.95531836152076721191e-02) (95, -1.67645812034606933594e-02) (96, 4.31384518742561340332e-02) (97, -9.50116664171218872070e-03) (98, 9.08162072300910949707e-02) (99, -1.63031592965126037598e-02) (100, 5.87719753384590148926e-02) (0, -3.07450592517852783203e-02) (1, 4.31682541966438293457e-02) (2, -9.55780595541000366211e-02) (3, -4.92130294442176818848e-02) (4, 6.06654360890388488770e-02) (5, -6.74229711294174194336e-02) (6, 2.50866040587425231934e-02) (7, -1.47049129009246826172e-03) (8, -9.40589010715484619141e-02) (9, -3.00234630703926086426e-02) (10, -7.53930807113647460938e-02) (11, 6.47599026560783386230e-02) (12, -8.87240469455718994141e-03) (13, -7.62820988893508911133e-02) (14, -6.84107095003128051758e-03) (15, -8.92378985881805419922e-02) (16, 7.09895044565200805664e-03) (17, -6.12046048045158386230e-02) (18, 7.52129927277565002441e-02) (19, -1.63399800658226013184e-02) (20, -4.08264771103858947754e-02) (21, 8.89808163046836853027e-02) (22, 6.34009316563606262207e-02) (23, -6.86615258455276489258e-02) (24, 4.85339984297752380371e-02) (25, -5.33636435866355895996e-02) (26, 7.44769349694252014160e-02) (27, -6.09671585261821746826e-02) (28, -6.25474378466606140137e-02) (29, -4.18262295424938201904e-02) (30, 9.78048071265220642090e-02) (31, 6.70750439167022705078e-03) (32, -9.86579880118370056152e-02) (33, -9.77732464671134948730e-02) (34, 5.74944689869880676270e-02) (35, 6.20074495673179626465e-02) (36, -6.51962161064147949219e-02) (37, -1.74189209938049316406e-02) (38, -3.94630432128906250000e-02) (39, -5.92551156878471374512e-02) (40, 5.25576099753379821777e-02) (41, -1.48561149835586547852e-02) (42, -9.44952219724655151367e-02) (43, -5.63147887587547302246e-02) (44, 8.86178016662597656250e-03) (45, -1.33629143238067626953e-03) (46, -4.55526821315288543701e-02) (47, -8.40392708778381347656e-02) (48, 3.74590978026390075684e-02) (49, -7.03396871685981750488e-02) (50, -3.79249453544616699219e-04) (51, 9.66326370835304260254e-02) (52, -8.13588723540306091309e-02) (53, -3.69783192873001098633e-02) (54, -7.20288902521133422852e-02) (55, 6.71751424670219421387e-02) (56, 9.65803861618041992188e-03) (57, -9.75519642233848571777e-02) (58, -9.37920287251472473145e-02) (59, 4.71106097102165222168e-02) (60, -3.93781922757625579834e-02) (61, -9.59872156381607055664e-02) (62, -4.61818948388099670410e-02) (63, -3.80361787974834442139e-02) (64, -9.37604680657386779785e-02) (65, -8.86874198913574218750e-02) (66, -7.60287269949913024902e-02) (67, -5.89566789567470550537e-02) (68, -6.10633939504623413086e-03) (69, -1.54917687177658081055e-02) (70, -1.82117968797683715820e-02) (71, -5.35487234592437744141e-02) (72, 6.96521177887916564941e-02) (73, -1.27070173621177673340e-02) (74, -9.86351072788238525391e-03) (75, -2.14861109852790832520e-02) (76, 8.59567001461982727051e-02) (77, 4.45838049054145812988e-02) (78, -5.52537292242050170898e-03) (79, 2.34157890081405639648e-02) (80, 7.42441192269325256348e-02) (81, 9.40953716635704040527e-02) (82, 2.00484246015548706055e-02) (83, 9.28852632641792297363e-02) (84, -4.28829453885555267334e-02) (85, 4.80195358395576477051e-02) (86, 6.00603893399238586426e-02) (87, 6.67750909924507141113e-02) (88, 5.04675731062889099121e-02) (89, 6.62683621048927307129e-02) (90, 1.38856992125511169434e-02) (91, -8.89106169342994689941e-02) (92, 7.02811405062675476074e-02) (93, 6.77038058638572692871e-02) (94, -2.69467979669570922852e-02) (95, 7.65206888318061828613e-02) (96, 7.90163949131965637207e-02) (97, -2.97552347183227539062e-03) (98, -8.24360027909278869629e-02) (99, -2.70899459719657897949e-02) (100, 8.15327093005180358887e-02) (0, -6.47798180580139160156e-04) (1, 1.93613320589065551758e-02) (2, 5.11848255991935729980e-02) (3, 8.66451933979988098145e-02) (4, -9.05021876096725463867e-02) (5, -7.03012868762016296387e-02) (6, 7.26018771529197692871e-02) (7, 5.40816262364387512207e-02) (8, 2.41733342409133911133e-02) (9, -3.98233532905578613281e-03) (10, 2.83257439732551574707e-02) (11, 1.82687044143676757812e-02) (12, -8.39339122176170349121e-02) (13, 2.12109908461570739746e-02) (14, 7.53857567906379699707e-02) (15, 6.40856251120567321777e-02) (16, -1.87286213040351867676e-02) (17, 4.21608611941337585449e-02) (18, 1.45532041788101196289e-02) (19, -5.24602644145488739014e-02) (20, -4.39534373581409454346e-02) (21, 2.56425812840461730957e-02) (22, -8.21791291236877441406e-02) (23, -7.62496292591094970703e-02) (24, 9.86957922577857971191e-02) (25, 9.43415537476539611816e-02) (26, -9.72332358360290527344e-02) (27, -4.27974015474319458008e-03) (28, -8.80944579839706420898e-02) (29, -2.43231803178787231445e-02) (30, -2.27470248937606811523e-02) (31, 1.12577453255653381348e-02) (32, 9.50381383299827575684e-02) (33, -7.15622082352638244629e-02) (34, -2.09707021713256835938e-03) (35, -9.54640433192253112793e-02) (36, -4.18634973466396331787e-02) (37, -2.94951945543289184570e-02) (38, 5.86175993084907531738e-02) (39, 8.23098495602607727051e-02) (40, 6.65224716067314147949e-02) (41, -1.30566656589508056641e-02) (42, 5.78545033931732177734e-04) (43, 8.25885608792304992676e-02) (44, -9.18456763029098510742e-02) (45, -2.40356922149658203125e-02) (46, 4.66741994023323059082e-02) (47, -1.05742961168289184570e-02) (48, -8.18748325109481811523e-02) (49, -3.87726128101348876953e-02) (50, 3.69654372334480285645e-02) (51, -2.58282721042633056641e-02) (52, 8.68699625134468078613e-02) (53, 5.47863170504570007324e-02) (54, -2.07789987325668334961e-03) (55, 8.55657532811164855957e-02) (56, 4.91278693079948425293e-02) (57, 6.88865780830383300781e-04) (58, -1.87139809131622314453e-02) (59, 6.10334053635597229004e-02) (60, 7.63656720519065856934e-02) (61, 5.85389807820320129395e-02) (62, -2.77088433504104614258e-02) (63, 7.14038237929344177246e-02) (64, 8.69767740368843078613e-02) (65, 7.01940879225730895996e-02) (66, 7.59397819638252258301e-02) (67, -5.48867173492908477783e-02) (68, -5.93011081218719482422e-02) (69, 3.45573648810386657715e-02) (70, -7.25768804550170898438e-02) (71, -9.27786380052566528320e-02) (72, -7.84993022680282592773e-02) (73, 2.80016735196113586426e-02) (74, 8.98099318146705627441e-02) (75, -7.03449696302413940430e-02) (76, -9.60340276360511779785e-02) (77, 3.64841148257255554199e-02) (78, 1.90807357430458068848e-02) (79, -7.79088586568832397461e-02) (80, 9.77115109562873840332e-02) (81, -4.39538247883319854736e-02) (82, -3.73713672161102294922e-03) (83, 8.45814719796180725098e-02) (84, -8.91675129532814025879e-02) (85, 9.41849574446678161621e-02) (86, 7.01472237706184387207e-02) (87, 5.99603578448295593262e-02) (88, -5.12617826461791992188e-03) (89, -4.85667474567890167236e-02) (90, 2.09937542676925659180e-02) (91, -2.87605077028274536133e-02) (92, -9.00277569890022277832e-02) (93, 9.32849124073982238770e-02) (94, -5.73566816747188568115e-02) (95, 9.69490334391593933105e-02) (96, 6.34789988398551940918e-02) (97, -8.14168974757194519043e-02) (98, -5.79376928508281707764e-02) (99, -9.58221107721328735352e-02) (100, 5.31404688954353332520e-02) (0, -3.05145680904388427734e-02) (1, -8.86007472872734069824e-02) (2, 7.46411755681037902832e-02) (3, 9.74870994687080383301e-02) (4, -9.87908169627189636230e-02) (5, -9.57038030028343200684e-02) (6, -9.85469296574592590332e-02) (7, 3.76932993531227111816e-02) (8, 2.33769267797470092773e-02) (9, -7.64557868242263793945e-02) (10, 3.54048088192939758301e-02) (11, 7.94231072068214416504e-02) (12, 1.98070779442787170410e-02) (13, 1.99862718582153320312e-02) (14, 9.02555957436561584473e-02) (15, 1.39920487999916076660e-02) (16, -9.86649096012115478516e-03) (17, 5.02159520983695983887e-02) (18, -9.11341384053230285645e-02) (19, 4.15667667984962463379e-02) (20, -2.87902951240539550781e-02) (21, -1.98946371674537658691e-02) (22, 5.15390112996101379395e-02) (23, -3.55053842067718505859e-02) (24, 2.27486863732337951660e-02) (25, 4.84880283474922180176e-02) (26, -7.20263868570327758789e-02) (27, 4.13317754864692687988e-02) (28, 9.05503407120704650879e-02) (29, -6.78484961390495300293e-02) (30, -5.52774965763092041016e-03) (31, -3.99642363190650939941e-02) (32, -5.64492419362068176270e-02) (33, -3.08865755796432495117e-02) (34, -4.24771308898925781250e-02) (35, -5.52400611340999603271e-02) (36, -2.65903770923614501953e-02) (37, -4.10240590572357177734e-02) (38, 8.24532434344291687012e-02) (39, 9.67865511775016784668e-02) (40, -1.74798443913459777832e-02) (41, 1.78580433130264282227e-02) (42, 7.62096717953681945801e-02) (43, -9.76727604866027832031e-02) (44, -6.21556863188743591309e-02) (45, 6.64652660489082336426e-02) (46, 1.63192749023437500000e-02) (47, 2.79778316617012023926e-02) (48, 1.66811943054199218750e-02) (49, 2.51851454377174377441e-02) (50, -3.04554104804992675781e-02) (51, 8.78909006714820861816e-02) (52, -9.47094932198524475098e-02) (53, -7.89164006710052490234e-02) (54, -4.76144813001155853271e-02) (55, 2.80391946434974670410e-02) (56, 6.95716217160224914551e-02) (57, -1.96408629417419433594e-02) (58, -3.06290239095687866211e-02) (59, 6.01219609379768371582e-02) (60, 1.25106424093246459961e-02) (61, 6.38432279229164123535e-02) (62, -7.98422694206237792969e-02) (63, 5.60613945126533508301e-02) (64, -6.70433491468429565430e-02) (65, -2.23193988204002380371e-02) (66, -9.91786569356918334961e-02) (67, 6.36626780033111572266e-03) (68, 3.66565510630607604980e-02) (69, 8.32745805382728576660e-02) (70, 3.15282493829727172852e-03) (71, -8.08233022689819335938e-02) (72, 1.13262236118316650391e-03) (73, -2.06375196576118469238e-02) (74, -7.84960612654685974121e-02) (75, 3.89769300818443298340e-02) (76, -5.41722662746906280518e-02) (77, 3.78232225775718688965e-02) (78, -3.30452397465705871582e-02) (79, 6.25089332461357116699e-02) (80, -3.69916409254074096680e-02) (81, 3.64993587136268615723e-02) (82, 5.03998473286628723145e-02) (83, -3.17011326551437377930e-02) (84, 5.75829520821571350098e-02) (85, -9.72146466374397277832e-02) (86, 9.63380560278892517090e-02) (87, 2.71545723080635070801e-02) (88, -1.68555080890655517578e-02) (89, -3.42909693717956542969e-02) (90, -1.27234607934951782227e-02) (91, 9.56551358103752136230e-02) (92, -7.04477429389953613281e-02) (93, 7.43427127599716186523e-03) (94, 5.17165288329124450684e-02) (95, -3.74910980463027954102e-02) (96, 8.51148739457130432129e-02) (97, 5.25378808379173278809e-02) (98, 6.88751712441444396973e-02) (99, 2.17714160680770874023e-02) (100, 3.58124598860740661621e-02) (0, -2.79720053076744079590e-02) (1, 4.09481152892112731934e-02) (2, -6.30549192428588867188e-02) (3, 5.13904765248298645020e-02) (4, 6.24520555138587951660e-02) (5, 7.59220197796821594238e-02) (6, 9.72182080149650573730e-02) (7, 2.75269150733947753906e-04) (8, -5.71232140064239501953e-02) (9, 5.97271397709846496582e-02) (10, 6.32836297154426574707e-02) (11, 7.93761387467384338379e-02) (12, 1.01269707083702087402e-02) (13, -6.84174969792366027832e-02) (14, 3.69590893387794494629e-02) (15, 1.29123330116271972656e-02) (16, -7.20794349908828735352e-02) (17, -3.58863323926925659180e-02) (18, 9.60568264126777648926e-02) (19, -6.37040287256240844727e-03) (20, 5.13902083039283752441e-02) (21, 9.17119607329368591309e-02) (22, 2.31818556785583496094e-02) (23, -4.11755219101905822754e-02) (24, 4.34284880757331848145e-02) (25, 8.56907591223716735840e-02) (26, -5.60606494545936584473e-02) (27, -4.03362512588500976562e-03) (28, 5.45659288763999938965e-02) (29, 6.57107755541801452637e-02) (30, -6.82211667299270629883e-02) (31, -7.34060853719711303711e-02) (32, 6.65887445211410522461e-03) (33, -3.12760770320892333984e-02) (34, 7.79844000935554504395e-02) (35, -3.08890715241432189941e-02) (36, -5.53540550172328948975e-02) (37, 7.52025917172431945801e-02) (38, 6.93862065672874450684e-02) (39, -1.24772638082504272461e-02) (40, 3.49297299981117248535e-02) (41, 3.26698347926139831543e-02) (42, -3.31011265516281127930e-02) (43, -5.49432970583438873291e-02) (44, 6.42523393034934997559e-02) (45, -9.61420387029647827148e-02) (46, 5.79690411686897277832e-02) (47, 9.21729132533073425293e-02) (48, -3.20283770561218261719e-02) (49, 5.40258511900901794434e-02) (50, -1.41974985599517822266e-02) (51, -8.06381702423095703125e-02) (52, 4.57378104329109191895e-02) (53, -9.10156443715095520020e-02) (54, -2.18136906623840332031e-02) (55, -1.08336955308914184570e-02) (56, 9.46751162409782409668e-02) (57, 2.21256613731384277344e-02) (58, 8.51326808333396911621e-02) (59, 4.92410436272621154785e-02) (60, -1.21635720133781433105e-02) (61, -8.30884799361228942871e-02) (62, 7.58349522948265075684e-02) (63, 9.44953039288520812988e-02) (64, -1.43645554780960083008e-02) (65, 5.38193508982658386230e-02) (66, -3.63937616348266601562e-02) (67, 3.02813872694969177246e-02) (68, 2.90219411253929138184e-02) (69, -6.70075565576553344727e-02) (70, -8.21958780288696289062e-02) (71, -3.60483378171920776367e-02) (72, 6.56622722744941711426e-02) (73, -1.52970105409622192383e-02) (74, 9.00837033987045288086e-03) (75, 2.99146249890327453613e-02) (76, -1.14390477538108825684e-02) (77, -3.30225974321365356445e-02) (78, 2.20875293016433715820e-02) (79, 5.65325692296028137207e-02) (80, -7.89967402815818786621e-02) (81, -9.21099781990051269531e-02) (82, 7.58944079279899597168e-02) (83, 6.67410716414451599121e-02) (84, -8.31256210803985595703e-02) (85, -4.59192879498004913330e-02) (86, -4.40926142036914825439e-02) (87, -8.84505063295364379883e-02) (88, 7.62063786387443542480e-02) (89, -5.89599311351776123047e-02) (90, 6.07905313372611999512e-02) (91, -3.59572023153305053711e-02) (92, -4.20484133064746856689e-02) (93, 3.66254970431327819824e-02) (94, -4.14618924260139465332e-02) (95, 4.35870364308357238770e-02) (96, -9.55516099929809570312e-03) (97, 2.21443399786949157715e-02) (98, -2.61315777897834777832e-02) (99, -8.05332213640213012695e-02) (100, 5.51367923617362976074e-02) (0, -8.32745432853698730469e-03) (1, -1.65815576910972595215e-02) (2, 2.07990631461143493652e-02) (3, 7.63755515217781066895e-02) (4, 9.24268141388893127441e-02) (5, -4.92863170802593231201e-02) (6, -3.50635051727294921875e-02) (7, -4.05957810580730438232e-02) (8, 7.28012099862098693848e-02) (9, -7.85309299826622009277e-02) (10, -1.95925235748291015625e-02) (11, 8.06912258267402648926e-02) (12, 9.73634794354438781738e-02) (13, -5.28514459729194641113e-02) (14, 9.75655987858772277832e-02) (15, -4.85558100044727325439e-02) (16, 3.05594503879547119141e-03) (17, -9.08849015831947326660e-02) (18, -7.23494365811347961426e-02) (19, 4.40960153937339782715e-02) (20, 6.99056312441825866699e-02) (21, -8.30663740634918212891e-03) (22, -9.79523956775665283203e-02) (23, 6.53111934661865234375e-03) (24, 5.02314642071723937988e-02) (25, 4.56346347928047180176e-02) (26, 9.69759598374366760254e-02) (27, -2.76241824030876159668e-02) (28, -8.04969370365142822266e-02) (29, -8.35572630167007446289e-02) (30, -7.24873989820480346680e-02) (31, 1.11756101250648498535e-02) (32, -1.38826668262481689453e-04) (33, 4.83116731047630310059e-02) (34, -1.24488547444343566895e-02) (35, -7.71201401948928833008e-03) (36, 9.90253612399101257324e-02) (37, 5.24876341223716735840e-02) (38, 5.16921952366828918457e-02) (39, 7.18265697360038757324e-02) (40, 7.39567056298255920410e-02) (41, -6.79003149271011352539e-02) (42, 5.25177940726280212402e-02) (43, 7.13201835751533508301e-02) (44, -2.07517594099044799805e-02) (45, 5.00834062695503234863e-02) (46, -7.72356316447257995605e-02) (47, 8.23041871190071105957e-02) (48, 5.91985061764717102051e-02) (49, -4.95850704610347747803e-02) (50, 2.64002010226249694824e-02) (51, 2.91041210293769836426e-02) (52, 4.21082898974418640137e-02) (53, 2.84477993845939636230e-02) (54, -6.43647462129592895508e-02) (55, -7.66023993492126464844e-03) (56, -2.59175673127174377441e-02) (57, -6.73887878656387329102e-02) (58, 6.47155717015266418457e-02) (59, -6.41451030969619750977e-03) (60, -5.09460531175136566162e-02) (61, 9.22281816601753234863e-02) (62, -9.52389016747474670410e-02) (63, 4.89151254296302795410e-02) (64, 4.05398532748222351074e-02) (65, -7.68776237964630126953e-03) (66, -5.87968900799751281738e-02) (67, 3.95652130246162414551e-02) (68, 